7572 32
1 -0.14574826 -0.071062855 0.24065937 -0.3325033 0.38543177 -0.116047926 -0.19783214 0.2824919 0.050837196 0.02002679 0.9965982 -0.3796174 0.04297747 -0.0429776 0.23199415 -0.046500463 -0.0019155361 0.6233448 -0.30528417 -0.23394617 0.23366071 0.0528375 -0.18065514 -0.20022133 0.25071287 -0.09435887 -0.19136374 0.22152475 -0.18291634 0.22598006 -0.08132956 0.39270183
11 -0.23390919 0.07133908 0.0949539 -0.10469187 0.48577625 -0.66632473 -0.31043845 0.1388383 0.09447166 -0.13284825 0.5354378 -0.09106206 -0.06859169 0.30925882 0.22852354 -0.18774691 -0.4512819 0.3331556 -0.085939184 -0.10519624 0.30247864 0.181662 -0.10854352 0.2728463 0.39743924 -0.11635661 -0.5196821 -0.0666951 -0.17655322 0.025831271 -0.021497533 0.28702155
17 -0.74958175 -0.12585992 0.16072057 0.3466398 0.5491207 -0.03429765 -0.120394826 0.27659488 -0.8356657 -0.7434734 0.2668979 -0.33958822 -0.082903445 0.026651135 0.59960556 0.33121523 -0.5542697 0.40885377 0.11450375 -0.06554335 0.0027536994 0.7708669 0.11029596 -0.0659986 -0.21763185 0.054891404 0.143494 -0.0104521 -0.21343306 -0.082152694 -0.22978987 0.02326653
31 -0.694285 0.2855419 0.041757062 0.42101166 0.19529231 -0.06705073 -0.2005868 0.135487 -0.7113056 -0.564516 0.21003734 -0.25808087 -0.17250444 -0.20498022 0.546059 0.1981164 -0.57218856 0.31123066 -0.1682049 -0.3309736 -0.3877278 0.8284116 0.33229768 -0.45467842 -0.39149272 0.17184272 0.04321288 -0.2600743 -0.49607947 -0.21986145 -0.0611247 0.20544785
15 -0.2790414 -0.21495883 0.1960343 0.33828428 0.5332493 0.17972028 -0.30554846 0.15139696 0.01901663 -0.62884295 0.5224739 -0.4911067 0.14869006 0.098456375 0.32241213 0.44199485 -0.78537166 0.33417577 0.15784042 -0.17219037 -0.21535356 -0.30719098 -0.6699505 -0.032737833 0.015846977 -0.0114195235 -0.114871256 -0.33968958 0.45426926 -0.27226928 -0.1599558 0.08617851
39 -0.74150455 -0.114762954 0.11648086 0.357866 0.4962928 -0.029899905 0.010823587 0.2834042 -0.6633701 -0.6573413 0.5605654 -0.23527014 -0.21248075 -0.014212876 0.4756631 0.18438429 -0.5947769 0.20081244 0.048414826 -0.207184 0.04553429 0.298243 -0.08682613 0.01454406 -0.1368813 -0.08678361 0.25181013 -0.15092377 -0.2723787 -0.24906763 -0.2723604 -0.060096968
27 -0.3836042 -0.1835116 -0.26696873 0.31889394 0.909504 0.044224855 0.047910146 -0.3290896 -0.35522747 -0.12086007 0.2235844 -0.249983 -0.3315392 -0.46482375 0.14331065 0.5909647 -0.57001376 0.75189716 0.15512373 -0.1594092 0.161892 0.41273084 0.18619846 0.22416733 -0.31782746 -0.12965706 0.038706437 -0.5626937 -0.27563265 -0.5710572 -0.4755058 0.2567145
83 -0.40097907 -0.42413995 -0.103444494 -0.016949015 0.465208 0.29130968 -0.15812756 -0.28174987 0.0834692 -0.05176891 0.30802432 -0.1245338 -0.25423285 -0.066152364 0.1965651 -0.17147025 -0.33528575 0.6253065 -0.10404779 -0.3446022 0.28468728 -0.027773667 -0.27448684 0.30094725 0.13258676 -0.020752963 -0.4444461 0.12928702 -0.34763077 -0.48627067 -0.42683154 0.17600079
100 -0.54139745 -0.87782544 0.1484139 0.07485598 0.52631676 -0.24399035 -0.039303824 0.39861396 -0.10405205 -0.15486021 0.5270125 -0.117801756 0.3101199 -0.46108744 -0.11949214 -0.5598624 -0.25339633 -0.030519607 -0.013702304 -0.47086677 -0.2618596 0.5508934 -0.12200225 0.21070673 0.16404128 -0.5169293 0.07517737 0.025656343 -0.57851005 -0.1264781 0.03168296 0.2577944
42 -0.6448064 -1.1412107 0.00055578636 -0.07139183 0.6547384 -0.274181 -0.018880105 0.6149927 -0.06766214 -0.21394387 0.6521885 -0.24125727 0.35839117 -0.613037 -0.26310033 -0.62436235 -0.11910787 -0.18802418 -0.17817275 -0.7261443 -0.36007097 0.6327247 -0.14579242 0.37705958 0.29317725 -0.5537922 0.025427645 -0.08978618 -0.8820738 -0.088857435 0.15063238 0.20630601
20 0.15076981 -0.08140681 0.27323484 -0.087648086 0.41585198 0.9127376 -0.57330626 0.7600231 -0.20711657 0.44728452 0.034477826 -0.06503639 0.5631831 0.4599978 0.68645144 -0.43308383 -0.7631888 0.16396086 -0.11963103 -0.26236522 0.5234763 -0.21515559 -0.052175503 0.275663 -0.1110895 -0.14074437 0.45434937 0.6175617 -0.63557726 0.12678805 0.2829527 0.32543287
102 -0.010496802 -0.1889926 0.2351585 -0.013301713 0.43072125 0.9388724 -0.78650105 0.80665463 -0.20482565 0.6903894 0.009374143 0.08949092 0.6189768 0.4880625 1.0927187 -0.73339146 -0.7365338 -0.018638773 -0.10730597 -0.3519025 0.54755896 -0.38792807 -0.19037935 0.41891527 -0.17199254 -0.00024471903 0.5182394 0.57976323 -0.9302402 0.18577197 0.33152327 0.26831588
80 -0.091458924 -0.43490154 -0.019301234 -0.62845373 -0.13341692 0.18005118 -0.3346587 0.02119224 0.0071219215 0.26313457 0.1146915 -0.05115674 0.3665789 -0.8020164 0.0048069023 0.3869667 -0.56317747 0.4714158 0.20678534 0.41003147 0.4598449 0.8385366 -0.044499125 0.18210182 -0.47157952 -0.6615701 -0.27257362 0.0056472537 -0.43869206 -0.4168175 0.1870444 -0.6222478
107 0.08823456 0.4091141 -0.15012513 0.040268764 -0.18050557 0.17591164 -0.42632487 -0.046767116 -0.043835964 -0.032833625 0.5123038 -0.18332417 0.4723604 -0.37684673 0.19731481 0.22539364 -0.29430172 0.28307748 0.04675121 0.19437292 0.61156064 0.26639768 -0.073090486 0.34734917 -0.50936735 -0.34263837 -0.5137265 0.37423092 -0.1244295 0.2565417 -0.12682445 -0.0350804
112 0.017767308 0.12138495 0.39569035 -0.3078777 0.19088057 0.41991276 -0.5047591 -0.2005129 0.281468 -0.36541694 0.312476 -0.3548071 0.09060135 -0.0313883 -0.14237723 -0.18153769 -0.052269388 -0.13719182 -0.514609 -0.12175896 0.14151238 0.28996316 0.3686175 0.33011985 -0.68002194 -0.051315434 0.10779273 -0.0063754036 0.0758589 -0.19363864 -0.02681082 0.06335346
79 -0.80415094 -0.12639563 0.62281877 0.055984277 -0.14459859 -0.22680444 -0.36342904 0.18751244 0.28759933 -0.0056188023 0.5934057 0.25480792 0.039738435 0.29167396 0.2164656 -0.14253768 -0.5620429 0.42960188 -0.03681072 -0.108720295 0.25595254 0.122142814 -0.2291568 -0.12177399 -0.08083476 -0.3038954 -0.3551182 0.25454584 0.3713199 0.06282448 -0.06685211 0.14609607
115 -0.9611848 -0.3572873 0.33356708 -0.21080878 -0.040706098 0.366865 -0.5543856 0.021986993 0.36049864 0.110086374 0.84809226 0.10400965 0.3901295 0.041491106 0.22794148 -0.3569462 -0.6954916 0.29244065 0.13571234 -0.16180575 0.31651723 -0.019866204 -0.26482975 -0.3526509 -0.34249258 -0.54376787 -0.31658742 0.99051964 0.66329783 0.04444406 0.3350745 -0.17296703
119 -0.08878285 -0.25298023 -0.5043673 0.27577084 1.0983464 0.53079134 -0.040133078 -0.54477006 0.57844335 -0.3608564 0.24763927 -0.2734426 -0.11295107 0.011754391 0.4181814 0.119216405 -0.18960717 -0.09657712 -0.2848239 0.20429292 -0.03699949 0.5489864 -0.46095973 0.27213025 0.103205055 0.15157486 -0.6261862 0.049278595 -0.21710716 -0.31737307 -0.4267381 -0.14501432
140 -0.30717078 0.1793705 0.29027033 0.46886602 0.49098936 -0.04494318 0.051906645 0.3127051 0.249367 0.060550947 0.1504904 -0.32825732 0.17718221 0.26415312 0.00019672926 0.1378945 -0.32247087 0.36035657 -0.22985648 -0.11057018 0.09971274 0.13681935 0.21547721 0.08829061 0.06070991 -0.026329154 -0.27028525 -0.22928125 0.3356004 0.12531216 -0.06545045 0.3878064
138 -0.015374167 0.17849174 0.18123035 0.35108042 0.73189425 0.1654249 -0.30462462 0.91394407 -0.02816516 -0.23707479 -0.21852423 0.07823697 0.14921983 0.1075181 -0.17331785 0.4255293 0.0043623247 -0.09569945 -0.5430419 -0.37944573 -0.015332567 0.38316107 -0.013031194 -0.10827824 -0.0065126666 -0.2789615 -0.47920138 -0.08061649 -0.41828558 -0.11475495 -0.14607725 0.0022467452
142 -0.4485039 0.19965163 0.1640899 0.6448151 0.23190783 -0.058126304 0.13391393 0.03177969 0.44120973 0.080237895 0.14889897 -0.04940272 0.12440361 -0.24725842 0.11549876 0.13520136 -0.44668362 0.3896289 -0.32940644 0.16985852 0.38944027 0.21109077 0.42907006 0.07756045 -0.044719134 0.23029408 -0.33426535 0.40943742 0.13450022 -0.118217126 -0.7140771 -0.26416746
32 -0.3122806 -0.02461677 0.095750354 -0.49292177 0.1799183 0.3764092 -0.18529104 -0.07829384 0.45560122 0.36773103 0.50163627 -0.061970726 0.65123653 -0.56709707 -0.0013194127 0.4343208 -0.7260787 0.17212676 -0.39380938 0.22131352 0.013248 -0.121325485 -0.10401856 0.8177411 -0.0034979922 0.20967326 0.6118943 0.48647305 -0.24714865 0.11488862 -0.45477116 0.38162658
143 -0.22082739 -0.30205134 0.20510232 -0.057930674 0.72496134 0.085119955 -0.021186063 0.16386828 0.42744893 0.0070820344 0.13293862 0.30267397 0.52072644 0.010029144 0.013448377 0.62244034 -0.2898647 -0.021756196 -0.05483812 0.09962457 0.21546349 0.19426402 0.05338692 0.20120053 -0.090868644 0.074184984 -0.17318146 0.11806625 0.03689543 -0.1424784 -0.15379046 -0.05286283
19 -0.5772537 0.29334742 0.107574455 -0.45190528 0.175679 0.1333162 -0.113052405 0.053126074 -0.4073413 0.10962749 -0.104488164 -0.05730482 0.094466195 -0.22236207 -0.095118105 0.6600333 -0.07596318 -0.22516927 -0.5531729 -0.2610122 -0.081456855 0.037641272 -0.10257866 -0.20655787 -0.7349914 -0.091901876 -0.31547815 0.13938703 0.111636095 -0.27204153 -0.4593684 -0.3867069
157 -0.39354682 -0.20060265 -0.2162713 -0.40481773 0.6422097 0.24426717 -0.36066648 -0.061154667 -0.15045507 -0.22584161 0.37895927 -0.3552117 -0.11159189 -0.19046035 0.23624328 -0.08532821 0.09744276 -0.47923872 -0.086403266 -0.09581447 -0.13105096 0.0072345613 0.06883807 0.31019852 -0.3029271 -0.537807 -0.25203723 0.019060029 0.0769459 -0.03549358 -0.32314807 -0.7625421
38 -0.49245235 -0.7235585 0.35170913 -0.3816869 0.76289576 0.3395064 -0.22690105 -0.35453945 0.24288188 -0.2453379 0.22936842 -0.447786 0.35891077 -0.19361499 0.20827563 -0.22062162 -0.038155265 -0.6526435 -0.023035014 -0.3036701 -0.061220776 0.09894538 0.35743618 0.3485791 -0.27995682 -0.45623693 -0.07273867 -0.17093223 0.7013949 0.22013286 -0.24180654 -1.073431
130 -0.8128593 -0.46474114 0.047989562 -0.43140453 0.5981694 0.27970597 -0.3611136 0.14641201 0.32566023 -0.20918263 0.58190835 -0.7667704 0.14321439 0.12655163 0.08440918 -0.28349736 0.8072007 -0.5205886 -0.052235294 -0.50377566 -0.099247396 -0.0010323586 -0.11091317 0.41937572 -0.37826815 -0.39743137 -0.34588873 -0.4232317 0.105599694 0.6720277 -0.09540829 -1.1487433
150 -1.2181375 -0.13647215 0.5920037 0.395714 0.14514513 0.55477476 0.14154522 0.2996863 0.20636365 0.23767327 0.0040304256 -0.3060327 0.07424496 -0.04703644 -0.005954528 -0.35240844 -0.16009018 0.45676452 0.25334242 -0.12332659 -0.2104475 0.26047376 0.010759845 -0.087235235 -0.016941922 0.38591367 -0.2813415 0.22292203 -0.45148453 -0.22062978 -0.88762677 -0.20506403
159 -1.2435168 -0.12012962 0.660297 0.4279408 0.08103743 0.61980015 -0.064110816 0.040370826 0.3767223 0.016401468 0.016737346 -0.37552965 -0.122402124 -0.2792614 -0.017489154 -0.35763317 -0.2189893 0.5118365 0.31501144 -0.3235556 -0.23048212 0.35763878 -0.18203202 0.017556375 0.012243338 0.20393394 -0.36979416 0.15896748 -0.54592603 -0.13438827 -0.92516816 -0.2838977
163 -0.521989 0.15268485 -0.1291537 0.11993655 -0.09327911 -0.25395814 0.0927633 -0.03300489 0.48173237 0.052132294 0.47764492 -0.47581208 0.19181901 -0.13205113 0.24978434 0.058318857 -0.59896797 -0.027243199 -0.13757542 -0.1350845 0.27033567 -0.025087515 -0.4531325 0.20084126 0.44905877 -0.49381325 -0.07707441 0.23241667 0.016938966 0.069410525 0.24728271 -0.16404776
71 -0.3341754 0.06387165 -0.24484393 0.5997361 -0.2930033 -0.3178391 0.2719241 -0.20725909 -0.15300785 -0.10002656 0.25169575 -0.2447804 0.65886956 -0.27149764 0.24991275 -0.08539786 -0.39976278 -0.23575188 -0.1767278 0.060433462 0.124404825 0.4562862 0.41531694 0.29102325 -0.0628231 -0.5551688 -0.015673297 0.21675831 0.15511233 -0.08400774 -0.622981 0.023804601
168 -0.94458693 -0.15534912 -0.61309683 -0.2686431 -0.41091153 -0.25669438 0.108161986 -0.21004003 0.18562183 -0.057395823 0.70361674 -0.2602912 0.23539251 -0.69434893 0.16750649 0.21734203 -0.2640047 -0.27520654 -0.026355166 0.48929465 -0.021512805 0.30638584 -0.19654727 -0.24890599 -0.19898929 -1.025251 -0.32587546 0.3530347 -0.024013277 -0.3290333 -0.47269255 -0.4244551
95 -0.7187594 0.035899676 -0.25837588 0.009683 -0.3437637 0.56977457 -1.4337906 -0.0025401195 -0.06467171 0.34135073 -0.46225387 -0.6515268 0.29623312 -0.37246564 -0.07430018 0.2996944 -0.16211177 0.2799735 -0.004055205 -0.08111886 0.47738287 0.27167326 0.42432353 0.39834812 0.1043786 0.006121445 -0.2372435 -0.10867708 -0.7024784 -0.33725497 0.26582283 0.37045732
169 -0.5825365 0.13597146 -0.34247082 0.020161193 -0.22748503 0.34970793 -1.1046174 0.054947644 -0.046987962 0.14925262 -0.39709604 -0.48512852 0.23577638 -0.31737354 -0.07416303 0.26685902 -0.26142317 0.21356933 -0.10129388 -0.07852439 0.36280447 0.24313332 0.31007245 0.30555093 0.017521782 0.040243886 -0.07758436 -0.031955764 -0.53498757 -0.32624212 0.18217607 0.28830406
177 -0.7870174 0.08004363 0.29438153 0.20081364 0.49226913 -0.23028186 -0.014525887 0.2549214 -0.57160085 -0.5725947 0.040655527 -0.19116463 0.38323784 -0.26335925 0.21193135 0.33368963 -0.30976048 0.29144767 0.1313165 -0.30729732 0.10781712 0.67238086 0.06498832 0.0358083 0.03240037 0.026579838 0.2323259 0.4268856 -0.34394172 -0.07071481 0.1734303 -0.036324583
144 -0.70388854 -0.24615143 -0.12529758 0.15577605 0.4458015 -0.32978368 -0.020664265 0.6229222 -0.16048254 -0.50737935 0.31284097 0.18902685 0.17211343 -0.15333645 0.3698997 0.45435673 -0.26797074 -0.1555337 0.29015693 -0.29991373 0.2573808 0.20417903 0.20463441 0.38165966 0.07132245 -0.8333618 -0.082435936 -0.013111438 -0.49553424 -0.16619176 0.37001038 -0.038608566
172 -1.2521067 -0.068787344 0.611305 0.15833834 0.10659831 0.43777198 -0.030047925 -0.033863723 0.0694627 -0.11734153 -0.098726876 -0.26526943 0.051777523 -0.37013978 -0.043297026 -0.36618823 0.06456379 0.16071668 0.30131787 -0.2522968 -0.067647174 0.7999131 -0.10290067 0.1877456 -0.007820857 0.066877976 -0.27297655 0.30466965 -0.40194106 0.06750533 -0.6106946 -0.015677765
9 -0.40780616 0.14653276 0.57086843 0.31740913 0.79207957 0.12222492 -0.4108138 -0.103754684 -0.44419327 -0.38181633 0.20098041 -0.021817261 -0.08226566 -0.37451497 0.24420147 -0.05242259 0.26870486 0.028134838 -0.24706134 -0.297392 0.30782437 0.20132856 0.30582693 -0.07148918 -0.068538256 -0.82626075 -0.2913791 -0.0391636 -0.10517647 0.26948267 -0.50384504 0.011446181
181 -0.26296186 -0.121910654 0.19623551 0.0005066094 0.3790195 -0.02776851 -0.432118 -0.33618137 -0.2228679 -0.29752964 0.607349 -0.5246443 0.07545487 -0.20414 0.36193004 -0.2292023 0.17629188 0.09490732 0.18702316 -0.28735614 0.19590406 0.2804558 0.11067974 0.269573 0.3106839 -0.45034927 -0.4810203 -0.09732344 -0.12472364 0.28736144 -0.3229242 0.22597775
109 -0.20840557 -0.29883298 0.52578 -0.4346843 0.00021250173 -0.1350113 -0.4222625 -0.008674713 -0.064544804 -0.19621624 1.1807544 -0.4679689 -0.011422299 -0.32076016 0.047200806 -0.1333266 -0.3354717 0.22083089 0.108346105 0.0058097104 0.08808301 0.25039127 -0.6690871 0.45381314 0.13128813 -0.81212234 -0.6615024 0.3605273 -0.1556004 0.15026735 -0.708084 0.29124454
206 -0.05344189 0.09101566 -0.13146305 -0.027628548 0.12002484 -0.21756294 0.11274303 0.104485475 0.12439465 0.0009079949 0.45917073 -0.47429383 -0.06502356 0.15649648 0.17808376 0.003366173 -0.6460482 0.033593103 -0.117961556 -0.18458687 0.36545736 0.12222368 0.38835883 0.16770859 0.31203562 -0.12618445 -0.523744 0.12172576 -0.34107503 -0.37076837 -0.22114073 0.10182073
76 -0.54950225 -0.08967458 0.16582085 -0.16213973 0.032731663 0.5142385 0.18085454 0.13050304 0.48796764 0.24856819 0.43251228 -0.46416202 0.41025755 0.084012 0.30559126 -0.002008821 0.083317116 0.24927598 -0.4533057 -0.06744725 0.09558515 0.0032975955 -0.58866364 -0.11875461 0.08321451 0.32520574 0.16697028 0.39329532 -0.41866076 0.6037809 -0.4416181 -0.057912458
207 -0.7133228 -0.15189631 0.40937576 0.18508507 0.14760002 0.47292158 0.3037628 0.06703778 0.27172282 0.051805165 0.09310378 -0.22277328 -0.07087537 -0.11541609 -0.08583349 -0.30427635 -0.17879044 0.23531774 -0.18216795 -0.31833595 -0.113701425 0.6795174 -0.06350164 -0.07566406 -0.22751951 0.16066031 -0.095078744 -0.14007169 -0.36723915 0.30076826 -0.48519862 -0.05425513
203 -0.38623846 0.21149682 0.051543 -0.2983519 0.44006774 0.004158978 -0.09461624 -0.15020217 0.48001498 -0.41459408 0.13186309 -0.08338442 -0.034369677 -0.68062323 -0.17266092 0.16741234 -0.44706658 0.24593069 -0.40891513 -0.66473246 -0.42186856 0.25126094 -0.25542912 -0.27547714 -0.54211134 0.16393165 0.22634174 0.38290504 -0.46542263 -0.16324724 -0.13597162 0.33919135
209 -0.9309252 -0.07043206 -0.107394256 0.51947534 0.4315858 0.37831494 -0.005680601 0.29270884 -0.4162761 -0.45565504 0.19762158 -0.32959664 -0.5815379 0.026486194 0.5331416 -0.027978953 -0.4362314 0.656952 -0.3674185 -0.33681098 -0.46312526 0.7587404 0.2858877 -0.39376 -0.35281086 -0.122272976 -0.17860834 -0.37038925 -0.53465605 -0.065197766 -0.06966332 0.039862942
215 -0.15794826 0.16207866 0.26482832 0.050757587 0.57366055 0.23467687 0.11950256 0.2847235 -0.26825124 0.009878836 -0.06737759 -0.63441825 -0.20250967 -0.3826556 -0.076925926 0.18253332 -0.39062884 0.12695481 -0.023134014 -0.035609744 0.01827057 0.45616972 0.15990697 -0.006510725 -0.33239165 -0.72036916 0.0048114816 -0.7355977 0.20784603 -0.2659237 -0.12318682 0.59446216
104 -0.8263157 0.085701875 -1.0673769 -0.7962478 0.03365952 0.30146787 -0.18669556 -0.047578447 0.029370876 0.53689724 0.21686977 -0.33207136 0.4824314 0.20206708 0.4919651 0.50935745 -0.12719955 0.2770677 0.27785406 0.5461517 0.08502137 0.020436939 0.16099846 -0.83870363 -0.37672085 -1.0928664 -0.038983814 0.21808864 -0.6606649 -0.42649508 -0.093956955 -0.76763225
246 -0.72601455 -0.3095065 -0.17115311 -0.8779364 -0.12330063 0.17635918 -0.45791575 -0.31575692 -0.11162833 -0.064521596 -0.31067213 -0.8158023 0.4654216 0.37944135 0.7411927 0.8293159 -0.6458175 0.46700922 -0.086717755 0.4677983 0.36749932 -0.63231975 0.5391787 -1.0718687 -0.026026871 -1.1067268 -0.43217582 -0.09766015 -0.971248 -0.30262092 0.16105199 -0.5884201
248 -0.81593084 0.08269916 0.1607077 0.041869253 0.55940837 -0.22782706 -0.43709493 -0.25039515 0.49879467 -0.14557466 0.41943148 -0.38668558 -0.11091718 -0.055934057 -0.053655535 -0.030146675 0.28826603 0.19748354 -0.29162824 0.19537482 0.09109836 0.35039845 0.013728555 -0.13769722 -0.19463396 -0.22418648 -0.4538775 0.044749588 0.13579026 0.55561745 -0.23190904 0.4832381
208 -0.23291369 0.2676439 0.37844685 0.114628024 -0.0981735 0.1369695 -0.5315789 0.11050657 -0.35127178 0.3365049 0.3336359 -0.28732598 0.5559534 0.2711271 0.50445133 -0.24311914 0.08538895 0.17781052 0.06232414 -0.34571132 -0.1920442 0.19575512 -0.041732706 -0.027846042 -0.27183974 0.1483505 -0.1792966 0.28947365 0.4674443 -0.30364272 -0.20068237 0.2819952
252 -0.3114139 -0.074275635 0.11942859 0.08575795 0.11825425 0.24138236 0.033534493 0.36072838 0.11956643 -0.007751756 0.51503783 -0.030936586 0.1545265 0.04045441 0.35726568 0.21053447 0.18705195 0.403941 0.0883902 -0.28300008 0.027752103 0.43009967 0.12396245 -0.1111141 -0.24122618 0.26615646 -0.19648711 -0.16438703 0.2819577 -0.30041638 -0.38290346 -0.043808006
223 -0.06082212 0.24776693 0.3558882 0.585356 0.06583517 0.11783003 0.3437512 0.112321034 -0.0729302 0.3464878 0.4239592 -0.22823478 0.31395674 -0.29662403 0.13778868 0.054225158 -0.14942752 0.28622496 -0.4340244 0.007328392 -0.18655717 0.7445425 0.49055234 0.18362911 -0.6030951 -0.33132395 -0.060500585 0.08658688 0.26321995 -0.2699664 -0.22755446 0.070721954
255 -0.6823362 0.1413796 -0.08555094 0.21473902 0.5524796 -0.25595912 -0.04904324 0.27183995 -0.74464756 -0.7379 0.38944846 -0.2967038 -0.13152589 -0.13206808 0.5693611 0.1471128 -0.53269136 0.29364294 0.057904437 -0.116447695 -0.22308622 0.88680506 0.0140036205 -0.1384442 -0.19581652 0.03488764 0.20251648 -0.20270853 -0.20146288 -0.12737411 -0.078439996 -0.058804385
195 -0.8557977 0.75471306 -0.13376825 0.5374776 0.37011325 0.20295748 -0.5510212 0.5554143 -0.060479503 0.6320006 0.7018741 -0.27285 0.006086269 -0.5432205 -0.20555621 0.3473857 0.3633735 0.3170825 -0.70394593 -0.12685725 -0.012387134 -0.072581366 -0.18789189 0.22588001 0.05647436 -0.90643746 0.28079602 0.25730696 -0.5604671 -0.116027616 0.12396904 0.08620493
256 -0.5691899 0.52987593 -0.5101106 0.5335033 0.44787285 0.11554132 -0.31720197 0.46296328 -0.09175562 0.36410266 0.7136386 0.07265058 -0.3531541 -0.4682154 0.20169437 0.3390471 -0.18545744 0.0961319 -0.71017563 -0.36227924 -0.008259178 -0.10321835 -0.10294064 0.07777886 -0.016597735 -0.7069327 0.21596603 -0.2419622 -0.27018598 -0.14976919 0.06539962 0.31152028
58 0.004653281 -0.058838315 -0.39987773 -0.1616119 0.082272954 -0.1764839 0.21106702 -0.06098448 0.5909427 -0.28654662 -0.07130437 -0.3504649 0.2673578 -0.6567132 0.71979463 0.24739671 -0.36478275 -0.24673957 -0.09044261 -0.11240791 -0.25603542 0.0031069121 -0.2862011 0.113742776 -0.05797628 0.34153834 -0.0016991487 -0.13394174 -0.2912299 0.045134548 -1.0213888 -0.015081182
258 0.18889672 -0.49765322 -0.41316116 -0.023974203 0.2919312 -0.15060253 0.2519346 -0.3050444 0.9013872 -0.43534854 0.13154367 -0.2965526 0.65738654 -0.5172373 1.1819044 -0.036236502 -0.20126906 -0.15082546 -0.2890182 -0.31371245 -0.094932914 -0.28026634 -0.4476165 -0.17108399 0.026103275 0.7106499 0.30339336 -0.3564752 -0.79527575 0.15078473 -1.2730814 0.13522659
165 -0.6047817 -0.024366608 0.27370372 -0.0091055 0.4873884 0.03114911 -0.32452658 -0.62427765 -0.046764813 -0.27848053 0.20885509 -0.28135282 0.33734614 -0.21367925 0.35985628 -0.4959006 0.4379692 -0.4034654 -0.057420496 -0.13771237 -0.20608611 0.307082 0.27892855 0.41676298 -0.10398025 -0.32478878 -0.32792425 -0.3818953 0.33538973 -0.122179195 -0.31377646 -0.24289396
259 -0.6678216 -0.23496856 0.12987103 -0.042892706 0.34801504 0.1292408 -0.42229566 -0.39803043 0.039804738 -0.44529387 0.38877875 -0.16888067 0.21857093 -0.36235765 0.4241502 -0.25572395 0.29786146 -0.4303448 0.09691046 0.05445504 0.067683294 0.20129232 0.31611058 0.26778343 -0.002196986 -0.22926836 -0.15551312 -0.3097871 0.28315106 -0.16032556 -0.4144409 -0.12930475
263 -0.85339326 0.09343211 -0.37326634 -0.26309836 -0.30267906 0.19609895 -0.3264202 -0.16559818 0.20648986 0.093472004 0.21787088 -0.25478712 0.5962418 0.17377141 0.08193472 0.05727262 0.008604611 -0.22024663 -0.5093697 -0.34787118 -0.13043864 0.112508565 -0.6165798 -0.046262566 0.41758367 0.08732747 -0.14928712 -0.08574717 -0.60051584 0.21741752 0.18030483 -0.40804031
268 -0.59324664 -0.010860893 0.15159085 0.42303997 0.53694195 -0.55837774 -0.4909253 0.69679475 -0.6604008 -0.27408645 -0.71823317 0.09046924 0.9332554 -0.4263977 0.27105156 -0.14852296 -0.2475464 0.8606105 0.5943082 -0.4293763 0.5902992 0.6388695 0.43923578 -0.17496783 -0.4034285 -0.06766361 -0.11335137 0.4699266 -0.7292886 0.6047529 -0.20252563 0.0224962
270 0.089794464 -0.13983929 0.3145283 0.22288078 0.59016234 0.12473383 -0.5545174 0.39824766 -0.018166713 0.0052056997 0.45856452 -0.26664555 0.3201812 0.40801418 0.27000046 0.46477082 -0.29172054 0.49816966 -0.18041582 0.05920821 -0.115184695 0.14636052 0.046732455 0.14532605 0.109378286 0.014998275 -0.4726188 -0.018726062 0.4996824 0.047704577 -0.17731643 0.3877624
271 -0.3041056 0.2092476 0.26121452 0.036607116 0.15602274 0.26550052 -0.08483504 0.100962944 -0.08734154 0.12728716 -0.53364366 -0.3904054 0.3212932 0.11544612 -0.025506973 -0.25441644 -0.3753315 0.0398929 -0.02337422 -0.099858835 -0.1316565 0.5897711 0.12012707 0.058577374 -0.38884148 -0.20035812 -0.029691508 -0.21001919 0.52314556 0.048800584 -0.2970892 0.2612374
274 -0.11931425 0.1742612 0.05592325 -0.84100324 -0.21580434 0.35650495 -0.7819689 -0.13066168 0.17782594 0.09440806 0.30566168 -0.64813256 0.5182976 -0.06446822 0.12781702 -0.030754797 -1.1962649 0.3461544 -0.27487776 0.8638367 -0.28267032 0.24160427 -0.4856639 1.4401802 -0.155806 -0.02979792 0.4091082 -0.21195716 -0.27848747 0.28960484 -0.29087594 0.55982196
279 -0.20561615 -0.18183903 0.27898392 -0.085139014 0.52998334 0.2833185 -0.4204488 -0.16663799 -0.18821801 -0.13826329 0.42830852 -0.9020777 -0.16475727 0.1027555 0.2000946 -0.12503721 -0.07977257 -0.22385375 0.335407 -0.16486503 -0.038716454 -0.14134505 0.52035624 0.42008656 -0.5875138 -0.30486703 -0.46132115 0.107203364 -0.45009476 -0.07545591 -0.48158902 -0.4962964
291 0.239548 -0.6961525 -0.30332962 0.06366086 0.58051 -0.110749975 0.13946827 -0.1754737 0.88382876 -0.23108275 0.20368546 -0.36866805 0.88851374 -0.40188926 1.0318002 -0.49061862 -0.21504682 -0.16252728 -0.5552707 -0.30800942 -0.09036092 -0.452761 -0.28211522 -0.118882366 0.27275917 0.7129468 0.6268583 -0.21563217 -0.9619388 0.43530408 -1.2046419 0.23336807
101 -0.80187744 0.95987886 -0.16269836 0.39343426 0.4738957 0.4913586 0.14298481 0.668619 -0.34058753 -0.11653751 -0.29046673 -0.4252511 0.42426708 0.31714305 0.8043978 -0.46666294 0.06096036 -0.01596926 0.06211117 -0.068141416 0.2850158 0.75963134 -0.39728984 -0.0676826 0.3218227 0.63652956 -1.033372 0.28887844 -0.81767845 0.6227039 0.23709223 0.023185033
310 -0.5020776 1.0904828 -0.22820745 0.41586676 0.60733247 0.39347124 -0.0055748806 1.0058131 -0.48944417 0.010517073 -0.4026371 -0.3545112 0.21689196 0.25047427 1.0669907 -0.44302458 -0.33773828 -0.19231606 -0.08526219 -0.08561378 0.36642304 1.2507851 -0.2140289 0.05408019 0.5069871 0.6620949 -1.1649727 0.03780181 -0.99749184 1.2973261 0.1749088 -0.27116218
311 -1.0983155 -0.23585846 0.5132228 0.67567456 0.10427884 0.6809458 -0.09631523 0.42100757 -0.09116156 0.36256462 0.113398634 -0.5919553 0.036752257 -0.10830278 0.32166865 -0.2841075 0.120131046 0.4763844 0.16775899 0.06765802 -0.3350031 0.5957988 -0.1904268 0.07412746 -0.34621727 0.29374295 -0.093116805 0.464416 -0.3350489 -0.1353799 -1.0024008 -0.33219162
313 -0.21499203 -0.49506092 0.14445324 -0.024408786 0.21857373 -0.2221509 -0.421567 -0.26531163 0.3909385 -0.14306119 1.0094882 -0.04483045 -0.06908629 0.032244254 0.680289 -0.030410692 -0.11354164 0.4903908 0.029726833 -0.018741973 0.6570823 -0.051376943 0.17927329 0.4046383 0.30451912 -0.25382575 -0.63617414 -0.13048682 -0.042335533 -0.13400508 -0.30189085 0.0015525519
301 -0.72623354 -0.018093802 -0.06738868 0.20449895 0.53942376 0.1467638 -0.20065117 -0.05171381 -0.5740878 -0.32667485 0.3451322 -0.34069422 -0.022251429 -0.4094218 0.52457345 -0.46151665 -0.24887548 0.25361088 -0.34104073 -0.054154363 -0.8296725 0.99677855 0.16953176 -0.36206457 -0.09128636 0.052829064 -0.079451755 -0.28959936 -0.24925551 0.2973809 -0.21425785 0.15378378
314 -0.87500525 -0.11644368 0.09806011 0.38756815 0.74201685 0.2960182 -0.31198093 -0.12043928 -0.57787883 -0.15619098 0.10115329 -0.46755233 -0.23015212 -0.51823026 0.798351 -0.36600524 -0.06725122 0.2019988 -0.49048248 0.046353992 -0.98957086 1.2730075 0.23949058 -0.6753853 -0.12399207 0.021126188 -0.098648176 -0.5586102 -0.3737026 0.080109835 -0.137384 0.3105962
315 -0.8538817 0.29868072 -0.54628146 -0.15857871 -0.38522625 0.396069 -0.3769887 -0.08096579 -0.27963793 0.12102074 0.30976534 -0.13335666 0.6063148 -0.08062762 0.46726546 0.008825406 -0.15310891 -0.2679339 -0.50922954 -0.23722717 -0.0370864 0.21190509 -0.26733387 0.20211926 -0.2113628 -0.2772714 -0.5193913 0.106498644 -0.009015948 0.4755403 0.7982473 -0.5504234
316 -0.50361407 0.2966932 0.05543639 -0.15702304 0.18397896 0.12049881 -0.0033513515 0.12928249 0.040713422 0.138764 0.38673148 -0.05163706 -0.14746834 0.0053764046 0.042287786 -0.34520322 -0.19708857 0.16023996 -0.5810623 -0.39494455 0.1977648 -0.07314217 -0.13992089 -0.37172288 -0.5874349 -0.46702 0.3466855 -0.08711017 0.4767144 0.028198859 -0.32969913 0.09677961
97 0.1531892 0.120410435 0.3735257 -0.22642106 0.35729197 -0.27433696 0.072103046 -0.27508673 -0.16308805 -0.33010095 0.7461828 -0.06845283 0.39063564 0.42103648 0.31681752 -0.09705503 -0.4145059 0.30001682 -0.13655664 -0.058315564 -0.17336623 0.451016 0.45783603 0.05685139 -0.18874599 0.075121894 -0.41866556 -0.28255233 -0.20357916 -0.43764055 -0.054612964 0.37273479
320 -0.33810544 0.43730134 -0.066084154 0.2921398 0.866884 -0.38924652 0.20425753 0.057410758 -0.15160033 -0.5009382 0.6405315 -0.38269407 0.26796386 -0.09378151 -0.06407567 -0.04155502 0.09621969 -0.112792484 -0.35958737 -0.24513572 -0.45245156 0.4134741 -0.055360034 -0.0845335 0.054349266 -0.19087684 -0.12635994 -0.041881595 -0.135077 0.15219902 -0.12901498 0.2579225
323 -0.29926065 0.087487206 0.38142598 -0.1784199 0.44795635 0.16926 -0.72875464 -0.17705764 -0.40686423 -0.24364245 0.45680967 -0.5855477 -0.45242313 -0.20489724 0.35315254 0.12853634 0.33493507 -0.46881494 -0.1727575 -0.6988362 0.047853712 0.110708445 0.33121362 0.3739495 -0.18225437 -0.3103264 -0.31902358 -0.043442897 -0.29261783 -0.10512232 -0.4301402 -0.2667797
88 -0.005181046 -0.44803417 -0.2341718 -0.012292429 0.5168101 0.09424236 0.038027965 0.80582243 0.63956934 0.22363473 0.11779475 -0.124476254 0.17169452 -0.12244494 0.43429258 -0.19627494 -0.35480425 0.32987458 -0.80179167 -0.09728813 -0.31155464 0.34144872 0.5575416 0.5699865 -0.0060599297 0.39721045 0.66033083 0.25504872 0.057157394 0.17458928 -0.5316905 0.14965698
333 -0.46216828 -0.059103884 0.3036298 0.10143141 0.28753904 0.118978545 0.13188057 0.554005 0.40898913 -0.12152394 0.2558743 -0.38279086 0.21513766 -0.10597647 0.23806953 -0.45941803 -0.010945227 0.3723747 -0.28397104 0.06277547 0.25021997 0.20671788 0.43116623 -0.11076975 0.17820989 0.7709211 0.12240209 0.19527501 -0.085445814 0.005982984 -0.40351063 -0.29601455
239 -0.042879134 0.12308536 0.14350855 -3.195391e-05 0.59364796 0.30774537 -0.23591505 0.6514953 0.445242 -0.23376697 -0.08227797 -0.38363305 0.48035812 -0.4110763 0.017150946 -0.6691297 -0.096598126 0.46831912 -0.43971252 -0.050650954 -0.094604656 0.4042634 0.39778256 -0.31440917 0.3670238 0.6654087 -0.0186423 0.70842487 -0.08385582 0.008246574 -0.7995316 -0.15015526
280 -0.023599572 0.22918195 0.72312313 -0.12856032 0.58429563 0.15800467 -0.3241178 -0.29728082 -0.050551295 0.2471988 -0.18254454 -0.54938483 0.1759459 0.0023836337 -0.035186395 -0.2190673 -0.65508246 0.18150651 -0.71033055 0.053692345 0.45655194 0.16286364 0.4854584 -0.15596747 -0.06278553 0.89689857 0.17529464 -0.44758227 -0.020989167 -0.27527985 0.14960061 -0.17308693
338 0.015331034 -0.11120115 -0.07864329 -0.3941526 0.55469245 -0.311791 -0.25261533 -0.062502965 0.05242505 -0.0122541515 0.60141504 -0.19373566 0.021160794 0.19455376 0.3798999 -0.1276046 -0.36208576 0.54571253 0.062491853 -0.20090704 0.619276 -0.20949422 0.002797876 0.11704261 -0.05773252 -0.021006921 -0.30824655 0.35092822 -0.29641864 -0.0879054 -0.3223842 0.23277004
174 -0.25410283 0.25512096 0.51094407 -0.08812058 0.050179094 0.15956938 -0.16087647 0.038512316 0.34038606 0.28523093 0.23859017 -0.46752387 -0.22616157 0.16067298 0.38543132 -0.18831329 -0.16041492 -0.21192813 0.12674381 -0.35432938 0.2633573 0.2792326 -0.23604144 -0.29784548 -0.23449865 -0.15457644 0.040180188 0.20845258 -0.37560734 -0.39906144 -0.14875983 0.31188786
340 -0.062860146 0.55077773 -0.38793364 0.02837084 0.0063414606 -0.281242 0.3817349 0.45423582 0.34589088 -0.17593218 0.18585566 -0.8273504 0.079670586 -0.1740477 0.14323701 -0.5002159 -0.6174404 -0.077210076 -0.062467277 0.0978542 -0.011113835 0.3383169 0.15303607 0.16034235 0.18973224 -0.068065435 -0.2861096 -0.40456876 0.1719425 -0.37453145 0.13629292 -0.30764574
282 -0.17684962 -0.021821871 -0.57492805 0.17380232 -0.4560634 0.44919503 -0.27778327 -0.36933613 0.0056817816 0.18089065 0.28882432 -0.41433835 0.3817127 0.0024915165 0.40239066 0.07021826 -0.74255675 -0.07439561 0.23024482 -0.13957365 0.6029491 0.553882 0.5549763 -0.26865107 -0.41553658 -0.5910054 -0.62254393 0.39897695 -0.3961802 -0.2551146 0.29809543 -0.040490396
341 -0.018696245 0.19912222 -0.49922606 0.36449245 0.19435695 0.2928039 -0.043978132 -0.41176355 -0.015124458 0.23592915 0.27000245 -0.2573055 0.7141629 0.11349092 0.35627475 0.24491045 -0.33598885 -0.30489948 -0.09607383 -0.35515103 0.083088346 0.31805494 0.4315554 -0.4509879 -0.17991349 -0.31030634 -0.20872036 0.14416271 -0.34934208 -0.53248847 0.4050596 -0.20756914
155 -0.0038933842 0.75492644 -0.35763493 0.62157387 0.24374257 -0.18198399 0.028886251 0.6693564 0.27005786 -0.36148778 0.092567004 0.036642224 0.12321365 -0.5157826 0.0056929085 0.21542995 -0.095293805 -0.013195047 -0.57338274 -0.29473388 0.55091125 0.11947701 -0.17337178 0.2135497 -0.56834257 -0.3595908 0.11364508 0.036249015 -0.51147926 -0.12197109 -0.25104597 -0.50453126
342 0.0073174373 0.27107748 -0.642376 0.41146666 0.34461004 -0.30419257 0.2267995 0.21469234 -0.08146574 0.30103937 0.26348114 0.31625435 0.19930016 -0.67985696 0.4278857 -0.07413451 -0.2261514 0.064320825 -0.69681895 -0.04508978 0.14465958 0.09106809 0.0834801 -0.015773758 -0.35526907 -0.36272526 -0.009827681 -0.09009572 -0.49399766 -0.19519982 -0.25954434 -0.2323111
347 -0.4374892 0.284599 0.16446437 -0.07672942 0.20147324 0.21027017 -0.67614824 0.24555308 0.16542034 0.3130248 0.54456246 0.22864527 0.14301802 -0.0016514861 0.082405284 -0.38348877 -0.057715047 0.25847793 -0.06466145 -0.021957781 0.4912835 0.105676115 -0.22800125 -0.3162781 -0.65234715 0.34539616 -0.7486505 0.30462354 -0.13378268 -0.10553705 -0.048463095 0.7818599
355 -0.33666384 0.023719646 -0.18095544 -0.05767911 -0.170859 -0.2591598 -0.04876503 0.25628436 -0.23948285 -0.27678156 0.4094821 0.11026019 0.8202403 -0.15676728 -0.33774477 0.5841754 -0.2742095 0.059615187 -0.45933053 -0.086362205 0.3584213 0.49165472 -0.19272368 0.3182548 0.1000051 -0.13397637 0.30539963 -0.03040754 -0.29960322 -0.19734196 -0.26316148 -0.33104852
356 -0.3081835 0.5339641 0.16005786 0.5359157 -0.09946171 -0.056865945 -0.1572416 -0.3351874 -0.57585907 -0.33019808 0.45136577 -0.31549814 1.0116109 0.4795221 0.4327655 -0.39424354 -0.22239983 0.27292413 -1.0441434 0.10215864 0.015588818 0.34510562 -0.22725825 0.1989656 -0.5009428 0.45995155 0.36292684 0.20777869 0.69365925 0.121021114 -0.156557 -0.046324514
357 -0.011827436 -0.02920473 -0.023605153 0.6530493 0.59877485 0.13017909 -0.032054763 -0.08421423 -0.114696845 0.6278217 0.32545277 -0.038140576 0.59530026 0.30906376 0.12161441 -0.5530605 -0.6838384 0.1179694 0.3655762 0.20129007 0.722275 0.20884639 -0.08100234 0.07583343 0.1208101 -0.09395701 -0.41873425 0.02726448 -0.31010428 0.044362754 -0.5635881 -0.4565662
171 0.6549655 0.11448092 0.14026497 -0.48988894 0.24528496 0.29066938 -0.315765 0.39878312 -0.3590361 -0.14938389 0.2858992 -0.05582403 0.4053683 -0.38857472 0.37844384 -0.91207516 -0.52132624 0.2319699 0.17436673 -0.9078408 0.20789817 -0.018296137 -0.3898601 0.22405727 -0.5561401 -0.29837415 -0.031763002 -0.17572525 0.22791208 0.35999477 -1.2221978 -0.3107437
359 0.77429307 0.028423257 0.1322096 -0.6888857 0.31856707 0.4994156 -0.37466437 0.47087288 -0.48461947 -0.28563082 0.3820872 -0.03150157 0.5846035 -0.21435137 0.4504316 -1.122082 -0.5856673 0.4710406 0.25235102 -0.9529989 0.28433523 -0.24280097 -0.47315717 0.22605798 -0.8814228 -0.18198663 -0.13928951 -0.07426155 0.27060923 0.42664355 -1.6044375 -0.3073501
360 0.0122383395 -0.13913414 0.3849079 0.050853528 0.19804198 -0.26926303 -0.18691726 -0.16558175 0.3381866 -0.15131077 0.8775689 -0.0851949 -0.16565937 0.77033615 0.56809855 0.016591461 -0.6906638 0.13437414 0.092144564 -0.35534737 0.6090041 0.11512709 0.0020815332 0.096494816 0.19355679 -0.2197433 -0.8787523 -0.2932666 -0.85130423 -0.47837207 0.0055381865 0.22079201
147 -0.16955394 0.33515504 -0.22588797 0.0006485859 -0.06674864 0.09558061 0.42261174 -0.060542077 0.060198713 -0.9346128 0.2036572 -0.37345812 0.650475 -0.57117325 0.6878038 -0.123060234 -0.22077422 -0.37964004 0.12090009 -0.43564433 -0.17589372 0.8172054 -0.011511172 0.5724077 -0.03495787 -0.33138347 -0.18373317 0.1443492 -0.5243539 0.39340717 0.13140605 0.46597555
362 0.095323645 0.33799788 -0.35333967 0.09411293 0.115855716 0.3318568 0.63053364 0.12107332 0.034090746 -0.43678066 -0.025670875 -0.6681615 0.75728554 -0.47642267 0.5931093 -0.22094312 -0.22182688 -0.31054494 -0.035553016 -0.36501113 0.2671353 0.16867736 -0.009066622 0.4141694 -0.035225812 -0.024634527 -0.046442155 0.011193621 -0.25993183 0.4166961 -0.18175213 0.15959203
210 -0.2952398 0.053249907 -0.4456843 0.010585591 -0.012453648 -0.12630403 0.28138334 -0.21444415 0.29918164 -0.14110367 0.10702759 -0.25331277 0.48017383 -0.4509812 0.41009557 -0.19789128 -0.018473215 -0.016967595 -0.1404853 -0.14801368 0.16135305 0.13022318 0.10169037 0.15595157 -0.23305508 -0.43850315 0.11639436 0.24460481 0.15988377 0.06951725 -0.35588887 -0.03497762
237 0.060091853 0.030065903 -0.42168212 0.15111648 0.20148082 0.16882521 0.6542432 0.17350239 0.49997222 0.13491346 -0.05996034 -0.6353591 0.069698505 -0.48190287 0.48720592 -0.07353362 -0.43662181 -0.0936003 0.1372473 -0.1983608 0.42166346 0.47555995 0.30559847 0.29058197 -0.19712342 -0.5058002 -0.11486776 0.018551234 -0.427866 0.30212876 -0.245909 0.44048566
364 0.11565624 -0.22572863 -0.51319075 -0.22887348 0.14484963 -0.46247038 0.45147616 -0.35922876 0.90083754 -0.038720645 -0.27677816 -0.66253555 0.56120694 -0.38906568 0.55942994 0.26182854 -0.76176775 0.0011123505 0.22035651 0.06747494 -0.28828943 -0.20216629 -0.23188813 0.4163072 -0.43837819 0.4036279 -0.095230855 -0.38487175 -0.4458732 0.0025736752 -1.4187288 -0.16884395
156 -0.032775514 0.05807111 0.016545108 -0.5571869 0.47508565 -0.25628725 0.17795257 -0.25434792 -0.21807943 0.1306585 0.5521207 -0.27167535 0.09929482 -0.050998505 0.38704675 -0.32122657 -0.13782007 0.41808125 -0.23710069 -0.23696645 0.10189708 0.9377919 -0.1376291 -0.26445946 0.037669707 -0.14207153 0.26682052 -0.48717427 -0.12739407 0.4726973 -0.060226295 0.3131236
365 -0.13833077 0.5288514 -0.15538156 -0.3209727 0.53161025 -0.57766676 0.13309024 0.05780114 -0.058119018 -0.31596136 0.48152143 -0.77398336 0.054748368 -0.25526938 0.025747586 0.22666937 0.14864156 0.22912237 -0.69725484 -0.4802614 -0.50222564 0.4373174 -0.0834375 -0.1104276 -0.2674665 0.04484856 0.21720377 -0.25498313 -0.36977458 0.20414416 0.19184022 0.19986577
371 -0.79734826 0.032325443 0.21636339 -0.039529845 0.48807344 -0.0073566176 -0.391126 -0.50913703 0.074181676 -0.1898617 0.19377275 -0.47941542 0.06195349 0.08007593 0.12502018 -0.414727 0.26145667 -0.05931034 -0.16080454 0.14646667 -0.069854006 0.21476483 0.29791278 0.14922348 -0.07361722 -0.2946619 -0.18438263 -0.30957344 0.2379248 0.22763397 -0.23897341 -0.051331587
293 -0.70474374 0.036703847 0.27786124 -0.25968364 0.4060548 0.06296696 -0.7871608 -0.59085965 -0.04521885 -0.35828137 0.2917377 -0.41496974 -0.022110175 -0.15350339 0.41475356 -0.52900016 0.3718108 -0.22288224 -0.23852552 -0.15753312 -0.31913206 0.28115737 0.44817066 0.2954249 -0.036613207 -0.4600524 -0.1344305 -0.13106756 0.26278958 0.12929574 -0.3882592 0.06218785
372 -0.15894584 0.054499283 0.2460511 0.4438967 0.91946834 -0.16545482 0.06884689 0.56884074 0.3499425 -0.42256445 -0.28734496 -0.32656422 0.32397708 -0.1546696 -0.2526496 0.78271055 -0.36331344 0.062047902 -0.395755 0.027624065 -0.10377523 0.383862 0.098572955 -0.1269954 -0.11771939 -0.42697886 0.1569205 -0.5170182 0.14546977 0.28092253 -0.18531154 0.5206358
379 0.50361156 0.24887942 0.77838796 -0.18616493 0.63758844 -0.32004982 -0.04106621 -0.5526835 -0.37371564 -0.26061654 1.0764145 -0.11127464 0.6137312 0.60937047 0.17732014 0.04331634 -0.6554049 0.3499694 -0.0037959684 -0.122405745 -0.0778695 0.6228906 0.42743024 0.11367463 -0.377129 0.20077762 -0.3933256 -0.5288517 -0.022263402 -0.46458453 -0.20065475 0.19307135
382 -0.6561364 -0.35055727 -0.013063378 0.16274297 -0.02606921 -0.06410532 -0.31208995 -0.1740634 0.42874032 0.08103321 0.8526969 -0.5279759 0.15402842 -0.36813465 0.24406223 -0.3969345 -0.14457978 -0.36303818 0.14468299 -0.7974392 -0.02790219 -0.024826294 -0.20537177 0.17907403 0.62335247 -0.38110954 -0.12117318 -0.3246578 -0.018542813 0.28218564 -0.038760602 -0.34262216
96 0.1582037 0.17341296 -0.11763292 -0.0458713 0.70951116 -0.264181 0.29171753 0.54557884 0.6941018 0.09354923 0.08313748 -0.15996262 0.7586782 0.32419932 0.17977744 -0.26258016 0.15888485 0.2339807 -0.23502052 -0.83474666 -0.29683363 0.07213263 0.15150271 -0.008468837 -0.6990063 0.3200903 -0.42353028 0.45552745 -0.32121548 0.008805493 0.17704776 -0.1580471
411 -0.075647615 0.3701488 -0.27074862 0.0111570805 0.54408824 -0.5306529 0.14297383 0.35828197 0.44354507 0.14212497 0.020660035 0.2122253 0.81690085 -0.0155566605 0.23558287 -0.37174544 0.36841887 0.39512393 -0.24026202 -0.83837014 -0.3105921 0.13940503 0.17757331 0.0487143 -0.84220546 0.17401946 -0.5413133 0.2687454 -0.382048 0.2896698 0.089753866 -0.39531586
72 -0.93577635 -2.780095 -0.5276303 0.31927425 -0.89819723 0.118484184 -0.7044224 1.5094079 0.09375121 -0.7413361 -0.3687369 -0.000234474 1.1754779 -1.5856087 0.9681813 0.60760933 -1.6137338 -1.4235648 -0.26936066 0.33047327 0.70395184 -0.27130476 0.33461934 -0.6515291 -1.7725868 1.0751344 -1.2927597 -1.4790531 0.35820404 -0.60754 -1.0689456 0.26265442
418 -0.99110013 -3.2346213 -0.7895255 0.15815729 -1.1976813 -0.1729967 -0.8889772 1.8922781 0.07267829 -0.98559415 -0.47391665 -0.18411912 1.4286559 -1.7346232 1.1815796 0.7287865 -1.9174342 -1.6383749 -0.40257415 0.627124 0.5503697 -0.15335323 0.24470857 -0.86035776 -1.7552255 1.2653178 -1.4234024 -1.8441161 0.11484721 -0.9449311 -1.2599219 0.20177995
421 -0.28209758 -0.012466881 0.30880353 -0.039978977 0.31712276 -0.32933772 0.20161122 0.6566396 0.5494492 -0.7500956 0.13937186 0.04792486 0.56670934 -0.2812029 0.033623017 -0.8575008 -0.43816537 0.17132549 -0.2772608 0.17690624 0.44138432 0.40393674 0.48693037 -0.42154694 -0.39348382 0.6803789 0.49154317 -0.333287 -0.6121169 0.3127104 -0.24675886 -0.047295213
368 0.07361523 -0.36562333 0.15096688 -0.36006105 0.37936226 -0.41614217 0.3001581 0.25216022 0.21229266 -0.43813613 0.27779397 -0.39450097 0.4998923 0.12578475 0.2344886 -0.6309909 -0.35364935 -0.114861056 -0.29839462 0.2978311 -0.011863526 0.46381697 0.47147498 -0.13088666 -0.65281194 -0.05034524 0.55185485 -0.19763683 -0.96949494 0.0015185399 -0.048760712 0.3305917
89 -0.30075616 -0.03672753 -0.3645793 -0.05545584 -0.024455575 0.10083117 0.01122551 -0.09792826 -0.35310313 0.030182581 -0.14802772 0.0132962195 0.88105476 -0.115533076 0.04874067 -0.2512603 0.12447265 0.27697754 0.5024158 -0.6938267 0.3947021 0.1954225 -0.005058855 -0.12114439 -0.55619806 -0.46405968 -0.54230845 0.26496345 -0.21276568 -0.04099756 -0.75000346 0.054876108
427 -0.47591835 0.1534235 -0.1269583 -0.15837662 -0.060536936 -0.018695973 0.052713584 0.1446392 -0.24446362 -0.20757502 -0.4350908 -0.23395129 0.5744162 -0.17692633 0.3995881 0.25079107 -0.13978039 0.540173 0.35726717 -0.6594194 0.39238518 0.40745318 0.10468188 -0.20371123 -0.30928963 -0.11368641 -0.053636886 0.4618065 0.10677736 0.2174246 -0.25737935 0.18322088
64 0.14992505 0.31519303 0.26667765 0.2543408 0.17258424 0.27508914 -0.66496557 -0.14206733 -0.13468012 -0.09261599 -0.17220986 -0.27964127 0.15176345 -0.647822 0.004143788 -0.13710244 -0.9304054 -0.10662421 0.039269995 -0.97242916 0.08603659 -0.014600599 -0.018323207 0.4275629 -0.21410027 -0.19120172 -0.29288495 -0.32525614 0.2201612 0.45557487 -0.39775982 -0.12209558
428 -0.09950384 -0.1972476 0.13424896 0.29684678 0.023080733 -0.036153726 -0.03666611 -0.2566599 -0.047212884 -0.22951812 -0.5164473 -0.8264664 0.15089631 -0.6076187 -0.00986361 -0.17870031 -0.5641709 0.5976792 -0.0065743695 -0.5772592 0.16251959 0.017003216 -0.20323704 0.2717929 -0.4007514 -0.2906483 -0.3686457 -0.28490564 0.11962287 0.23021789 -0.38075125 -0.22416085
429 0.085675575 0.21199551 -0.406317 -0.11056958 0.41637987 -0.028285488 -0.002059936 -0.24516945 0.42408848 0.07866749 0.62718743 -0.55671805 -0.47775415 0.036297515 0.3359288 -0.10912008 -0.6303449 0.22332872 0.053307734 -0.50843906 0.41530505 -0.0005541371 0.18033956 0.06750293 -0.35086644 0.065508336 -0.15574077 0.063740864 -0.45605645 0.110563114 -0.47276536 0.09788389
175 -0.39182264 -0.27256986 -0.18853877 0.24613051 0.40568432 0.06562483 -0.44788125 -0.056648422 -0.24307436 0.37367144 -0.05395456 -0.48959842 0.147476 0.08508943 0.26243624 0.18805183 0.032322362 -0.5848641 -0.2298225 -0.7658584 -0.10838018 0.16711245 -0.20310952 0.5252319 0.102985874 -0.3512616 -0.12377219 -0.36633325 0.31720713 -0.2858021 0.14268757 -0.78400105
434 -0.30943802 -0.35379753 -0.05337299 0.20729977 0.7023694 -0.07513158 -0.55455524 0.1923958 0.14043695 0.6294506 -0.08382267 -0.14869009 -0.110916734 0.21844853 0.28944442 -0.07860906 -0.3012531 -0.5101554 -0.79980445 -0.47125947 -0.15506794 0.16959415 -0.50806296 0.48156068 0.0065614553 -0.4832926 0.20095803 -0.43878448 0.24068378 -0.37746876 0.50798464 -0.82504785
441 -0.20814581 -0.7981428 0.046994064 -0.11624662 0.22452755 0.3333588 -0.23588529 0.017509831 -0.050723236 -0.08675273 0.3289633 -0.3399746 0.66140014 -0.8372205 -0.15334874 -0.62218237 -0.45073038 -0.08937097 0.39758354 -0.66437984 0.020071976 0.24657844 -0.06587713 0.09172539 -0.31007293 -0.043154098 -0.39113942 0.42752293 -0.11932643 0.07343893 -0.18984538 0.015991993
442 -0.084570296 -0.3424007 0.07537276 0.39507163 -0.13597706 -0.094503045 0.114709586 0.08595093 0.021668667 0.120201655 0.84656405 -0.32541537 0.707 -0.24282756 0.046719354 -0.039609507 -0.111698195 0.248411 -0.016157836 -1.0865624 -0.10920086 0.7565923 -0.08750114 -0.10937221 0.46763006 -0.17071381 -0.12118207 -0.29695418 -0.116952576 0.42948395 -0.25345665 -0.30568534
353 -0.33458108 0.16650069 -0.65493166 -0.35001823 0.27643192 0.510536 -0.12452346 0.2262357 -0.26176554 0.13890022 0.5208755 -0.34662035 0.2505579 0.56045455 0.31335613 0.16375248 -0.41206014 -0.5887019 -0.3783532 0.38203982 0.36450508 0.56940204 -0.5445103 -0.0637654 0.38803878 0.23843184 -0.079156876 0.40036437 -0.37809354 0.09405254 -0.7175576 -0.20368297
447 0.034399293 0.12429684 -0.6342073 -0.24023351 0.4167674 0.5257801 -0.0037012142 -0.029039115 -0.32493845 0.31996477 0.7632061 -0.25830585 0.53077036 0.021867858 0.31589493 0.11079219 -0.14577039 -0.22611736 -0.15611415 0.1424677 0.3864097 0.3375003 -0.3015658 -0.32977813 0.068265095 -0.010765788 0.33306903 -0.19202043 -0.21371108 0.2791609 -0.626204 -0.32902867
330 -0.10780309 0.14487496 -0.20127147 -0.19764665 -0.25448468 0.5448834 -0.7628568 -0.1058978 0.39719674 -0.043049768 0.4700525 0.33198667 0.024221377 0.43044385 -0.64624655 0.18543138 -0.57413757 -0.2231306 -0.53480726 -1.1158262 0.63705313 0.90889037 -0.42775366 0.4303873 -0.1272569 -0.38541543 -0.22369388 -0.7272831 -0.49002352 0.12114698 -0.57843065 -0.2615093
450 -0.26482603 0.2694731 -0.13339147 0.011602272 -0.37313768 0.21592942 -0.66559273 -0.23905204 0.7368276 -0.23949842 0.6055564 0.17058426 0.0032172957 0.25198042 -0.49292636 0.21493757 -0.32415402 -0.40290058 -0.11802499 -0.97059596 0.55708385 0.52535325 -0.42489022 0.47835317 -0.43579733 -0.5738723 -0.28470233 -0.45860824 -0.38766316 0.12134217 -0.57766736 -0.123734616
451 -0.59476554 -0.2701026 0.45098725 0.35436222 -0.026492584 0.3486629 -0.41380894 0.24418503 -0.26888683 -0.071650274 0.11869519 -0.9056105 0.25983447 -0.3664567 0.38371977 -0.03705311 0.19469234 0.14048283 -0.115243055 0.18912387 -0.37554735 0.7188004 -0.08516302 -0.22693466 -0.46421656 0.18869717 0.16843894 0.54588735 -0.14908424 -0.036514807 -0.58555293 -0.4176402
45 -0.17614637 0.1927727 -0.363993 0.04765532 -0.37303868 -0.48828822 -0.0013495734 0.4020308 0.5637639 -0.1740086 -0.116169855 -0.5174195 0.33182138 -0.753966 0.3508132 -0.2050995 -0.66528887 -0.32715154 0.1743065 0.44885966 0.37352577 0.29034373 0.40477628 -0.27759257 -0.26498246 -0.0012425578 -0.8027708 0.26820323 -0.52259785 0.5482128 -0.7358191 -0.18915579
452 0.23645069 0.12931393 -0.24369328 0.31993794 0.06687024 0.08549169 -0.45770818 0.17439859 -0.023303302 0.1748001 -0.42908767 0.009577038 0.7565832 -0.31316325 0.31668082 -0.41378677 -0.51372504 0.3886494 0.11703137 0.3768544 0.7013983 0.4281964 0.2972054 -0.019905543 -0.3176184 -0.011724399 -0.65207875 0.22898556 -0.44360816 0.54137516 -0.6693899 -0.13685341
456 -0.43958694 -1.3450482 0.05621607 0.22997934 -0.3997559 0.12669116 -0.3941364 0.61618906 0.029869586 -0.11517734 -0.44622308 -0.05364739 0.46128693 -1.0196333 0.8178518 0.42274332 -1.0255961 -0.73137903 -0.34595144 0.04821584 0.33648366 -0.14801085 0.42139778 -0.41532317 -1.1410565 0.71416026 -0.72073007 -0.67100847 0.40580958 -0.26876676 -0.44627157 0.0004218625
50 -0.68559664 -0.12210954 0.18213896 0.092996456 0.09429132 0.12088321 0.04511647 0.4254614 -0.19271389 0.43768594 -0.40300354 -0.094111204 0.5335911 0.0150780585 0.31112307 0.13434249 -0.3181967 -0.43492392 0.12521319 -0.27769247 0.66411006 0.123477116 0.41128966 0.11778468 -0.37982216 0.5890859 0.017322073 0.0061294846 -0.33049378 -0.14791359 0.1326855 0.39475757
465 -0.54142845 0.29879868 0.6486345 0.28426066 -0.072064124 -0.20898047 -0.17857717 0.05291045 -0.18289138 -0.06436901 -0.10545986 -0.49866936 0.103487946 0.4123464 0.49708802 0.38276112 -0.388312 -0.066532284 -0.25179923 -0.281004 0.71744716 -0.02504041 0.41099462 0.14547709 -0.081636384 0.1897386 -0.0927132 0.0069223684 -0.072323345 -0.4878701 0.43081874 -0.013216202
472 0.04868528 0.20600767 -0.52397543 0.34848297 0.6841774 -0.25117314 0.20690544 0.34691715 0.45722213 -0.20242468 0.1017603 0.1986368 0.17282158 -0.83706546 0.62955976 0.2633196 -0.59642243 -0.14579366 -0.6474335 -0.20137562 0.08568035 -0.2591296 0.03671508 -0.22000247 -0.0046445024 -0.23134448 0.2320882 -0.11289162 -0.011066878 -0.0029114624 -0.29947776 -0.0037559283
473 -0.27671617 -0.021695396 0.06887684 0.0041121095 0.007340572 0.36420515 -0.03920882 -0.11466669 -0.2284683 0.19740444 -0.4313337 -0.36571664 0.67112327 0.4126467 -0.25767505 -0.062602736 -0.5451245 0.13739814 -0.46344212 -0.22446546 -0.19998558 0.8888021 0.18466559 0.08245967 -0.30996647 0.14023136 0.14418812 -0.39774784 0.25770915 0.19973154 -0.27693442 0.21948339
474 0.050407995 0.35568342 0.41628557 -0.078935355 0.8634051 0.23857751 -0.62985486 0.32950148 0.2316396 -0.15993826 0.2680825 -0.42323902 -0.4366301 -0.16108498 0.7480542 -0.18014622 -0.2551543 -0.23804936 -0.4575947 -0.111447394 -0.28922054 -0.15632267 0.42716712 -0.6204095 -0.2711165 -0.16261737 0.2174185 0.33639598 -0.4152409 -0.45672417 0.11649986 -0.087003954
318 -0.53749526 -0.0012882557 0.27911866 0.16843584 1.1028329 -0.07908358 -0.035061818 0.05372549 0.1462925 -0.17323188 -0.031546418 0.059784535 -0.1284835 -0.39640468 0.88621646 0.048875052 0.16714743 -0.5072435 -0.4709864 -0.43238118 0.09133904 0.1617496 0.43950334 0.09066536 0.08094506 0.16779949 0.2243652 0.6762856 -0.5855232 -0.46642146 0.05509105 -0.004438163
478 -0.4845312 0.22632982 0.15509768 0.22411676 -0.18038507 0.15137824 -0.6563379 -0.10016306 -0.48418662 0.30516568 -0.122259654 -0.27571392 0.36610895 0.0004866168 0.4077357 -0.004328084 -0.26359823 -0.22265941 -0.22734466 -0.5442003 0.1290923 0.5118846 0.40096495 -0.2793829 -0.19521748 0.23597078 -0.35244253 0.33275917 0.31285322 -0.7250504 0.3165419 0.13306317
232 -0.34680894 0.5147687 -0.28666782 0.13688572 1.151742 -0.55608153 -0.3904616 -0.089604735 0.19023061 -0.6358882 0.06653568 -0.65254635 0.048842758 0.13012993 0.47088715 -0.46164337 -0.3448884 -0.33372003 -0.1264969 0.43816066 -0.873531 0.87597674 -0.038425416 -0.210998 -0.6123959 -0.3277613 0.28332347 0.5281818 -0.112811714 0.19021748 -0.36590788 -0.44301835
479 -0.98677963 0.6799281 0.1367361 0.3972894 1.5969002 -0.59494 -0.37085614 -0.3624945 0.47135624 -0.67761576 0.022808725 -1.2642497 -0.4633341 0.6910752 0.5162401 -0.12878676 -0.6968682 -0.4110743 -0.18213123 0.5893488 -0.9934365 1.4645137 -0.24494883 -0.16096942 -0.49939933 -0.69147354 0.54440904 0.5286228 0.17498887 -0.05990784 -0.062214192 -0.23253952
481 -0.085060164 0.63525516 -0.34374282 0.2868634 0.5158719 0.2649689 0.207724 0.23206484 0.15544932 0.05834918 -0.07395537 -0.8734041 0.16091466 -0.40197992 -0.03457692 0.09771645 0.03470294 0.079042144 -0.020382386 -0.40353513 0.21988349 -0.12134207 0.001957799 0.056031726 -0.45422336 -0.19278957 -0.4084146 -0.09115881 0.03874722 -0.07980089 0.02652455 0.11689642
363 0.09310474 -0.39182922 0.0665547 -0.046506714 0.6109916 0.28368154 0.15863842 0.28798187 0.118624866 0.5148293 -0.24320175 -0.5122682 0.58440244 -0.21740964 0.1517899 0.36709544 -0.43776128 -0.21408033 -0.048674658 -0.193828 -0.527406 -0.06364086 0.22389747 0.013755862 -0.084663294 -0.088508084 -0.31174618 -0.12766327 -0.02855247 -0.53746027 -0.020064898 0.3595941
236 -0.50934505 0.27250305 1.0903885 -0.20135292 0.3900326 0.21175002 -0.21683985 0.3961984 0.29304308 -0.24153748 0.06627265 -0.19466321 0.33014882 -0.46278387 0.21286942 -0.8519928 -0.008488169 0.009247674 -0.47741032 -0.6001763 0.07091726 0.2520836 -0.47690117 -0.037708145 0.025855016 0.5719677 0.3187359 0.4523683 0.09931297 -0.12322559 0.18130936 0.50903636
487 -0.47299728 -0.047583997 0.5742033 -0.06435052 0.4215596 0.35299644 0.15954971 0.4960687 0.38683772 -0.24671802 0.18771686 -0.17436877 0.2965739 -0.12513778 0.5605021 -0.45401385 0.34960616 -0.13081901 -0.12036015 -0.32564512 0.21717793 0.32987285 -0.26929504 -0.19547164 0.15417898 0.50137794 -0.034385085 0.015447388 0.23683372 0.09672145 -0.096899 0.4067762
120 -0.25297585 0.015452226 0.6436496 -0.55163616 0.28806195 0.9748114 -0.6166809 0.33517715 -0.2987577 0.14007574 0.7497907 -0.053461943 0.4936603 -0.40922886 -0.69121504 -0.82531 -0.097706206 0.48435885 -0.45078158 -0.7750628 0.13392773 0.44720525 -0.42604387 0.05837429 -0.7262221 -0.18766657 -0.122281544 0.42187637 -1.1806588 -0.47241783 0.5284418 -0.06842389
489 -0.1060994 0.117907375 0.5773303 -0.46532753 -0.19067773 0.58839643 -0.76227236 0.47188148 -0.11822689 0.3038328 0.7696762 -0.09626459 0.43696707 -0.3354431 -0.37320313 -0.53513485 -0.1232729 0.64775115 -0.27688158 -0.6301076 0.30133379 0.3834881 -0.54313606 -0.076544985 -0.5374874 -0.15546577 -0.03229456 -0.30503866 -1.3819801 -0.27612466 0.60709846 -0.50854135
490 -0.39731577 -0.19007719 0.29136404 0.21143728 0.17032894 0.16305584 0.0542067 0.0051434278 -0.20688038 0.037013967 0.015281747 -0.46610785 0.13059331 0.04082686 0.07262479 -0.60463464 -0.27017492 0.40612513 -0.3590631 -0.04996655 -0.22591387 0.69129217 0.08599441 0.54892594 -0.21974675 -0.5974696 0.2598174 0.32217756 0.053799506 -0.15302524 -0.10543637 -0.01747844
495 -0.8968002 -1.2005985 0.4145394 0.06502941 1.3500277 0.11502796 0.9409284 0.25449857 0.54142374 0.562925 -0.24681719 -0.2965751 0.3444256 0.6490067 0.023927178 -0.3724208 -0.39221668 -0.36296183 -0.1582944 -0.063790634 0.23966633 0.53613615 0.04351976 0.33925274 0.09887731 0.5607545 -0.48952872 0.32100073 -1.008804 0.4865323 -1.0530478 -0.14879355
496 0.11731577 0.20516235 0.6776057 -0.26060444 -0.063281745 -0.5367963 -0.029213263 -0.069326825 -0.2995192 -0.12759066 0.9563744 0.0021069213 0.78513813 0.036001656 0.062930875 0.3409568 -0.44795626 0.27139837 -0.07698411 0.12606958 -0.0913761 0.025524266 0.33281508 -0.39598557 -0.3187879 -0.026329111 -0.57388675 -0.63067204 -0.12982251 -0.48086768 -0.2599666 0.13275866
34 -2.9621298 3.5749304 3.1650128 -0.537298 3.4851213 1.8135548 -0.1423229 1.0023751 1.6910845 -0.66688526 0.46589315 0.87589365 5.314756 -2.4559724 5.902 0.63224816 -0.90681744 1.5628089 0.20757326 1.2005508 -1.4060035 -3.2560828 -1.3689178 2.284839 2.3287249 -1.4285176 0.051407166 -3.7153058 -1.2140054 0.46304774 0.93251604 -1.8939519
498 -2.9891841 3.5411565 3.1631458 -0.6259666 3.5767667 1.7676766 -0.1932669 1.0209982 1.7032036 -0.6249393 0.48865956 0.99006706 5.22935 -2.5279593 5.8054433 0.6768557 -0.99858016 1.3947328 0.27941847 1.251194 -1.2728686 -3.300661 -1.4744266 2.3429995 2.2656872 -1.579214 0.12523904 -3.7736728 -1.1976712 0.49069843 0.8578923 -1.8543309
93 -0.43185228 0.5421222 -0.40429643 -0.14176264 0.10966888 0.2501246 0.014622815 0.6614599 0.07489534 -1.1758442 0.35158664 -0.3388919 -0.21866626 -0.21337323 0.5758832 -0.38991746 -0.48979977 -0.76260006 -1.3296367 0.5054928 0.746124 -0.3121626 0.13150257 -0.14728704 -1.3111824 -0.48523018 -0.6108163 0.35485244 0.21231154 -0.79599977 0.5352974 0.19621369
501 -0.28722575 0.51636124 -0.22533855 -0.14259084 0.07353877 0.12933762 -0.06784803 0.67275286 0.09717439 -0.8438262 0.11254768 -0.30689684 -0.11978291 -0.33189067 0.3523082 -0.2724599 -0.53756595 -0.44606915 -1.0965365 0.43404585 0.68350893 -0.11023204 0.23509711 -0.15676534 -0.9820628 -0.25686267 -0.46342576 0.23852892 0.35805154 -0.46659726 0.5154168 -0.00031197566
54 -0.45192456 -0.10590375 -0.08103391 0.40144128 0.3752997 -0.27465934 0.35830685 -0.31120768 -0.017240142 0.1472322 0.26593134 -0.09258466 -0.07500538 -0.1155681 0.28901017 0.018758552 -0.6297218 0.10883489 -0.15813377 -0.053931665 0.23359591 0.47864464 0.29110447 -0.0027750814 0.042458393 -0.09289531 -0.01405964 -0.36523816 0.011783148 0.21567078 -0.49844527 -0.05878026
507 -0.3026485 0.10146641 -0.3842514 0.2706152 0.11883747 0.13519049 -0.33543348 -0.19384892 0.32355988 0.0026715673 -0.031834625 -0.12460037 0.106204316 0.1891569 0.46608418 -0.3067011 -0.58557415 0.28087908 -0.036319185 0.2250402 0.24352369 0.36023766 0.14813618 -0.05476848 -0.053425256 -0.29156938 -0.3426049 -0.27769533 -0.09660825 0.38121742 0.1751835 0.012662255
491 -0.16826484 -0.18862243 -0.23626132 -0.055125862 0.7275152 0.36905843 -0.4297016 0.09140783 0.24183968 0.3085159 -0.71960795 -0.06905944 0.11921242 0.36730617 0.3388842 0.016020058 -0.4895715 -0.04916143 0.010190674 -0.2893653 -0.14587791 0.3114892 0.064136095 -0.34521618 -0.11196837 -0.37404883 -0.07013928 -0.16714492 -0.27445397 0.18673553 -0.09055176 0.32130843
407 -0.3795881 -0.009796137 0.041428853 0.070426494 0.7203197 0.4675736 -0.06824625 -0.09898997 0.25844443 -0.06408205 0.27573755 -0.7422875 0.16898406 0.5009674 -0.1025188 0.3226393 -0.6791482 0.005585016 0.44601142 -0.46698043 -0.04148582 -0.1119599 0.3563103 -0.47214037 0.08437069 -0.2910608 -0.4027393 -0.23183632 -0.38530076 0.25720015 -0.33457983 -0.7419824
509 -0.7759669 -0.33900183 -0.04604926 0.023012832 0.60650235 0.47164464 -0.15893288 0.10888464 -0.0788845 -0.42768794 0.23606424 -0.56550455 -0.18650343 0.3059178 0.11081984 0.034324322 -0.6747039 0.52120405 0.24581945 -0.37591776 -0.27902663 0.07943381 0.40997165 -0.70831496 0.019864855 -0.15821855 -0.3461522 -0.3998265 -0.39420375 0.358877 -0.5299278 -0.21860607
188 -0.3646772 0.0111231385 -0.12461677 0.32284802 -0.39514735 0.40773296 0.013974808 0.51705307 0.100510344 0.08318681 -0.19388194 -0.93536216 0.012484433 -0.44511688 1.0206689 -0.18785961 -0.64510643 -0.23006296 -0.28202885 0.24111915 0.38927627 -0.050952427 0.64052516 -0.17873242 -0.8571479 0.14475441 0.4542153 0.053811684 -0.028311394 -0.20748481 0.23005122 0.14840524
525 -0.5129163 -0.04311116 0.1626006 0.32057795 -0.66863334 0.28906634 -0.013012961 0.5279708 -0.013579225 -0.09803044 0.18933378 -0.7099284 0.41002914 -0.32699147 0.78856033 0.03279585 -0.3180241 -0.35956785 -0.23667304 0.22733837 0.1568008 0.27620754 0.056847546 -0.1737999 -0.6074715 0.43446806 0.37278816 0.053571157 0.09629259 -0.068889 0.14442958 -0.054910988
526 -0.13271704 -0.29072955 0.24180515 -0.07868883 0.43560025 -0.16092336 -0.51373065 0.18439615 0.21363097 -0.0070078317 0.6417222 -0.08538056 0.09852995 0.3463578 0.21926554 0.2849392 -0.3627937 0.5104607 0.09580775 -0.08087625 0.36646935 0.21868399 -0.08999722 0.30068073 0.064971484 0.07169796 -0.7247016 0.07998291 0.17309809 0.17529584 -0.063505426 0.15031968
533 0.2639389 0.34014106 0.49812466 -0.11076585 0.4813738 -0.24113011 0.39047453 -0.38783386 -0.24270558 -0.4928833 1.0432758 -0.47074917 0.8040852 0.032379176 0.34479204 -0.39636075 -0.55404806 0.05466896 -0.5712968 -0.007007387 -0.0026024226 0.34080708 -0.122301884 -0.21787131 -0.008789421 0.44318002 -0.12469177 -0.46582428 -0.020437036 -0.11155671 0.26296565 0.6149408
536 -0.47994477 0.19943163 0.041021023 0.20779577 0.031179294 0.7614568 0.0037189468 0.47897264 0.088002905 0.035872675 0.7096756 -0.33996645 0.2308339 0.055531077 0.42536303 0.51565355 0.21005765 0.2787537 0.03388388 0.04889807 -0.27674976 0.47626287 0.0008341562 -0.22030912 -0.38864148 -0.12309046 0.076803744 0.2638524 -0.38855037 -0.36980987 -0.12623666 0.428749
298 -0.5674549 0.23762685 0.16688399 0.18999088 -0.29053998 1.0199989 0.05466399 0.5186589 0.055757057 0.04716185 0.35763073 -0.2789239 0.42910805 0.17367253 0.69352186 0.2861669 0.22390586 -0.10016804 -0.13732585 -0.3294674 -0.2527325 0.34724155 -0.1422265 -0.42080596 -0.41613585 0.09086763 -0.10700189 0.30838114 -0.023686571 -0.62105626 0.0004717164 0.30246818
523 -0.4563891 0.5881712 -0.02281164 -0.27811927 0.69887644 0.5372679 -0.18006416 0.4546274 0.26659328 -0.15054104 0.55821353 -0.10127462 0.18194969 -0.058386747 -0.056886833 0.44969705 0.02540971 0.0041718697 0.36551785 -0.09385211 -0.0836926 0.5898706 0.09192244 0.14127156 -0.6555715 0.3369012 -0.29190147 0.3472207 -0.17379814 -0.0047508236 -0.030596795 0.8058916
545 -0.5343762 -0.04584276 0.09588452 -0.2692845 0.20015503 -0.10070099 -0.16401018 -0.06553339 0.016146494 0.111739345 0.1332942 -0.28359455 -0.07203625 -0.03665399 0.41492233 -0.5076675 -0.11529157 -0.041862343 0.015722303 -0.13805203 -0.018879082 0.21115579 -0.014203507 -0.12811513 -0.0712043 -0.4303714 -0.18294556 -0.30607396 0.33760568 0.09721389 -0.09059209 0.3194879
374 -1.0551134 -0.18617202 -0.1654958 -0.48212072 0.08647782 -0.07714232 0.31278265 0.4333094 0.07884423 0.24672453 0.026792744 -0.46297958 0.100568764 -0.642937 -0.15178476 -0.67241913 -0.5157409 0.18299703 -0.14200358 -0.092168614 0.46648544 -0.004459123 0.060572047 -0.30972174 -0.11195916 -0.5106629 0.050238654 -0.34793827 0.86643255 -0.18736157 0.23385565 0.074335374
436 -0.5808313 -0.08297657 -0.07730098 -0.105028525 0.069692925 -0.52231467 -0.39981443 -0.18954131 0.5721831 0.5382092 0.10596598 -0.11012108 0.39156818 -0.004993894 0.63484687 -0.5402547 0.04278039 -0.025338428 0.26876456 -0.3810249 0.15996082 0.45997608 -0.49302453 -0.58078915 0.0069440748 -0.38753185 0.052263103 -0.072031856 0.018747399 0.048811227 0.37039962 0.16837111
446 -0.67547244 -0.167485 0.11006211 0.059275825 -1.0039537 -0.29027283 0.7069891 0.3732686 0.5011006 -1.0229125 -0.21082504 -0.51070404 0.30149132 -0.158485 0.64026684 0.20709613 -0.6669613 0.17311893 -0.55156094 -0.58332974 0.0930207 0.4446071 -0.89113945 -0.020035408 0.22419 -0.22230431 0.27707854 -0.4231548 -0.012679227 -0.07369625 -0.5151629 -0.26854
551 -0.37972873 -0.17065553 0.07705362 0.03484022 -0.66422963 -0.17408867 0.4985718 0.20395382 0.32476035 -0.69893134 -0.1012229 -0.23456687 0.2903882 -0.07571796 0.56361866 0.12040685 -0.52445304 0.14128159 -0.30103394 -0.35969502 0.07065962 0.43528175 -0.6640608 0.14552648 0.23071039 -0.3014683 0.1670103 -0.3906448 -0.16337627 -0.12419509 -0.43367878 -0.23482926
514 -0.11880394 0.003263654 -0.19770803 0.28652775 0.06524721 0.041093085 -0.035047933 0.026671732 0.023949815 -0.38281405 -0.124180794 0.011217238 0.4795776 0.23934926 0.29657137 0.36248562 -0.4936491 0.16565882 0.0046175895 -0.40065718 0.44876158 0.112385124 0.035233375 -0.00863091 0.28970405 0.050742324 -0.01862656 -0.30642897 -0.024389796 -0.5378005 -0.52321094 -0.5213405
555 -0.35545844 -0.2597527 0.42577162 -0.13824254 0.14548384 -0.09280399 -0.35374942 0.026254123 0.24902752 0.074023 0.6078439 0.12872542 -0.03881426 -0.09488806 0.38723907 -0.015109696 -0.1616551 0.25147736 -0.0098013915 -0.30982813 0.4670843 0.04751328 -0.6426394 0.361611 -0.31406546 -0.06851457 -0.12331417 0.32756224 -0.2198161 -0.3449688 0.07252819 0.41310814
182 -0.8068857 -0.16527805 0.29469264 -0.010391569 -0.012885519 0.26585194 -0.10056435 0.30801082 0.50301725 0.14773239 0.8161455 0.02561301 0.05242044 -0.030755812 0.2036536 0.0031958157 -0.0058135055 0.21499936 -0.21760434 -0.27619353 0.59322983 -0.29938245 -0.26149753 0.42754027 -0.28852695 0.3682398 0.13350095 0.63945144 -0.39312404 -0.18102722 -0.4017244 0.19830379
211 -0.51336086 -0.49872655 0.47143912 -0.6783596 0.2601681 -0.3194777 -0.33060426 -0.30544585 -0.35060188 0.5527114 -0.42473832 -1.3004982 0.5438239 0.76532423 0.6943822 0.50622666 -0.84196144 -0.25775906 -0.19215244 0.8237285 0.29918823 0.36400732 0.6520049 -0.18395866 0.47146145 -0.15391807 0.43810865 -0.22345775 -1.0765014 0.69388515 -0.9058402 -0.15863867
560 -0.5113646 -0.14597414 0.3552497 -0.32602572 0.23338343 -0.49840593 -0.50673324 -0.38440633 -0.30444884 0.97273564 0.12354166 -0.7865982 0.61293596 0.41533777 0.7227124 0.24194995 -0.6601519 -0.21602048 -0.08682923 0.8030539 0.27047646 0.6390773 0.5448936 -0.22087595 0.25031158 -0.037170652 0.53959066 -0.063392915 -1.1199604 0.86550146 -0.48432574 0.056603417
561 0.046094973 0.25156003 0.27501622 -0.37285835 0.011889904 0.5456706 0.07125298 -0.13250992 0.22202851 0.046248667 0.22372104 -0.3179955 0.26796725 0.25236708 0.06568597 -0.023498744 -0.53828794 0.2674854 -0.23137204 -0.42623255 -0.26292124 0.26193377 -0.057487134 0.34560284 -0.5829121 -0.05449397 0.41013655 -0.07976145 0.23467341 0.078784816 -0.32073233 -0.104448855
462 -0.1787871 0.76100785 -0.1566187 -0.024871951 -0.05762229 0.6059278 -0.29674113 0.15598166 0.5206288 0.04097955 0.123877965 -0.18931924 -0.2282529 -0.13922216 0.08461297 -0.30637422 -0.49966547 0.009957348 -0.443584 -0.52361864 -0.26367092 0.47579268 0.2754979 0.62567115 -0.43678287 -0.16698363 0.48822695 -0.046774346 -0.18165137 -0.00885802 -0.21511385 -0.20822608
563 -0.5069002 0.3909332 -0.06672248 0.38877407 0.013607732 0.047169253 -0.16323267 0.2104567 0.32000497 -0.1022204 0.15111798 -0.21556436 0.14459102 -0.07366816 0.029489161 0.2340494 -0.15335587 0.1922912 -0.22036347 -0.26600823 0.26268137 0.030001104 0.45030528 0.14909391 -0.562271 -0.25951436 0.36879525 0.22990781 -0.25963134 -0.09326115 0.0878418 -0.23835872
394 -0.56766707 0.39698797 -0.40450305 0.056558304 0.1324514 -0.5070923 -0.45105588 0.06627202 0.14347671 -0.14492713 0.3136596 -0.46171847 -0.059122942 -0.17734581 -0.088534296 0.30818337 -0.12303172 0.032239027 -0.3847863 -0.32486114 0.32511747 0.05398087 0.50938535 0.08781576 -0.48655432 -0.22561003 0.8708979 0.10993957 0.05244026 -0.2635799 -0.19077817 -0.39339778
149 0.31006613 -0.076927364 0.021615222 -0.016974887 0.6810908 0.2723251 -0.21938404 0.43390813 -0.21654014 0.18803251 0.15804026 -0.4067912 0.5179997 -0.17901957 -0.30463824 -0.020034248 -0.10755997 0.3866129 -0.12614036 -0.29583997 -0.2992724 0.42113042 0.1819839 0.062768824 -0.28082448 -0.2073886 0.06110706 0.35637343 -0.32967314 0.066538654 -0.45276538 0.050600193
566 -0.24317656 -0.10482503 0.05890629 -0.50196576 0.5142411 0.52359587 -0.10818951 0.21397933 -0.2336291 0.32079083 0.10082424 -0.14347664 0.85808283 0.29093283 -0.27712166 -0.17982712 -0.48426104 -0.10774423 -0.37799942 -0.2668503 -0.39151412 0.37385944 -0.14148626 0.49665818 -0.22871259 -0.48418528 0.69664127 0.5748731 -0.23215638 0.1889854 0.011002558 -0.063387856
435 -0.38407654 0.23381487 0.34769145 -0.18903436 0.02186092 -0.49559507 -0.4874806 0.10972348 0.15833716 0.24919724 -0.03333771 -0.3328529 0.0041541723 -0.13718253 0.4385463 -0.27951175 -0.5761868 -0.33121365 -0.6425023 0.03238515 -0.22628002 -0.34682173 0.05571627 -0.18941787 -0.54280764 0.46152005 0.24619229 -0.055495232 -0.27108666 0.4413346 -0.26145738 -0.07104573
567 -0.6004459 -0.073795706 1.1173695 -0.6428071 0.38307402 -0.5716731 -0.270489 -0.2618982 0.24276522 0.48026153 -0.67617464 -0.41358396 0.21228553 -0.0334286 -0.05506392 -0.034797065 -0.72019064 -0.12629421 -0.6722959 -0.188401 -0.09060661 -0.027564907 0.49741396 -0.11172233 -0.32550842 0.22868656 -0.16680826 0.40680128 -0.44668972 0.39340904 -0.2202604 -0.9167573
571 -0.13273238 0.07307245 -0.14088431 0.17090853 0.13442591 -0.04296744 0.52433676 0.21392421 0.4060772 -0.33643612 0.30723396 -0.6004415 0.12428261 0.20632523 0.30224827 -0.5025855 -0.37159714 -0.14710844 0.10716905 -0.37601215 -0.05168028 0.27199158 0.023473512 0.2322514 0.0062341653 0.028666679 -0.49192944 -0.036124676 -0.25259644 0.27027914 -0.39053172 0.23261712
572 -0.27532393 -0.16788433 0.081982575 0.055380806 0.47028226 0.050598904 -0.10933093 -0.37697566 -0.008476931 -0.10817338 0.12724102 -0.38627678 0.16757856 -0.104988046 0.26935157 -0.2651438 0.32872397 -0.31802905 -0.054060925 -0.24920669 0.009669693 0.12989618 0.27473828 0.33489254 -0.2119794 -0.48686162 -0.3825109 -0.18880035 0.18306895 -0.08125621 -0.49134868 -0.24678975
477 -0.57169914 0.12164452 0.4204445 0.08977848 0.40489656 0.077405065 -0.4516347 -1.0253706 0.12371811 -0.048607707 0.36814395 -0.43966123 0.28370452 -0.112820975 0.702107 -0.084766276 0.2842759 -0.56328684 0.01868991 0.0025806723 -0.31176516 0.20650126 0.38674444 0.2259849 -0.06442536 -0.43576968 -0.24746202 -0.03319479 -0.004187151 -0.22444628 -0.27859885 -0.13636181
73 -0.2268924 0.18730047 1.1138483 -0.5359444 0.5895893 -0.2468021 -0.4090339 -0.33017758 0.97175455 -0.585225 -1.1534394 -0.22127984 0.73892325 -0.40884587 0.2060226 1.2056689 -0.7704828 0.08222774 -0.41455555 -0.25255343 0.088730715 0.67807734 -0.6029875 -0.29974177 0.1067853 -0.56350535 -0.015497521 0.33878493 -0.12246855 0.9511783 -0.6590413 -1.3512931
573 -0.17308871 1.983533e-05 0.8782619 -0.4628526 0.36675137 -0.14910659 -0.4539968 -0.23562314 0.8041434 -0.40141243 -0.76651216 -0.3337112 0.46248004 -0.27204558 0.057487678 0.8610724 -0.51839757 0.14047782 -0.52430695 -0.3484372 -0.04347025 0.5744606 -0.43077695 -0.08896276 0.03532242 -0.4245082 -0.045346104 0.38804626 -0.10212915 0.77661675 -0.575333 -1.1474395
224 -0.3096243 0.15284795 1.029149 -0.58529305 0.6419506 -0.32402104 -0.63817805 -0.35529122 0.8025747 -0.68498504 -1.245811 -0.35103768 0.73541886 -0.5484598 0.18241724 1.2062095 -0.7283391 0.15075508 -0.44557777 -0.3187363 0.025626112 0.6505412 -0.59293216 -0.18648587 0.1524575 -0.5139856 0.032371297 0.32881087 -0.07590821 0.82400596 -0.50953335 -1.4455693
75 -0.5518291 -0.581356 -0.29606378 -0.1558303 -0.11555996 -0.395005 -0.051240124 0.29790017 -0.28492707 -0.30337465 0.25433278 -0.078956544 0.67678756 0.09492438 0.2957439 0.18270522 0.08782225 -0.21572103 -0.015611885 -0.24064085 -0.24729317 0.16234864 0.2384538 0.5263579 -0.32050502 -0.14073953 -0.22628029 0.22057918 -0.3752385 -0.3400723 -0.07376557 -0.22380416
575 -0.3997397 -0.60621715 0.07135695 0.3959371 0.15077004 -0.41261703 0.17903337 -0.028474558 0.12535575 -0.172298 0.47340402 -0.09846182 0.72572166 0.18764892 0.27420023 0.0030476572 -0.31142727 -0.270085 0.3169776 -0.11916439 -0.49241257 0.13487956 -0.30214128 0.22623047 -0.5602269 -0.05687152 -0.48287243 -0.002925537 0.31273237 -0.2696586 -0.39964864 -0.15303876
577 -0.09274679 0.6834114 -0.34809357 -0.39070886 0.55568135 -0.84905654 0.16826274 0.066772364 0.12003376 -0.35156816 0.5881143 -0.8350335 0.024871716 -0.41564035 0.19043262 0.34278178 0.08038781 0.20071858 -0.8443011 -0.6341755 -0.7348387 0.5234999 -0.14106394 -0.24570543 -0.26177183 -0.08313583 0.27162665 -0.27129266 -0.3652533 0.44117376 0.18348922 0.20163152
373 -0.8307024 -0.3698824 -0.20420654 -0.50997925 -0.899245 -0.03457111 -0.057190992 -0.16296978 0.21026164 0.27799198 -0.70685214 -0.96305764 0.34536657 -0.33089975 0.52982485 0.20764345 -0.6966096 0.03944873 0.14461434 -0.6128845 0.4283289 0.21613102 0.11932967 -0.4517263 -0.061315127 -0.7220324 0.7259816 -0.13360958 -0.43251392 0.15084614 -0.13279349 -0.13704605
579 -0.83604765 0.13967127 0.08323592 0.13417159 -0.34595728 -0.40605095 -0.17617667 -0.085657336 -0.37549314 0.482531 -0.31290355 -0.3308234 0.3422318 0.2797846 0.25386235 -0.36181727 -0.58690876 -0.035213437 0.12854029 -0.07971072 0.4066047 0.43578073 -0.013436912 -0.37476498 -0.19238146 -0.5550712 0.028838 -0.24338943 -0.1926517 0.2596229 0.07502765 0.27048707
519 -0.44423646 0.122003965 0.1345268 0.5188366 -0.0015192095 0.080776915 0.17046192 0.23722132 0.13195594 0.08498143 -0.18675646 -0.07763598 0.25877059 0.16143362 0.40357688 -0.36352146 -0.4071182 0.0014311556 -0.040288948 -0.09556175 0.5347722 0.5647784 0.098333366 -0.5909337 -0.33283758 -0.07793602 -0.3014793 0.20588942 0.29763886 -0.02171363 0.035320867 0.0072866767
580 -0.00075676315 0.43973655 -0.27669874 0.054803044 0.6391505 -1.043781 -0.27508914 0.3149761 0.54837877 -0.4324346 -0.29139036 -0.46623632 0.38102862 -0.5642614 0.6380185 -0.4534234 -0.352911 -0.66786754 0.11568471 0.15148178 -0.4900473 0.6668323 0.13481972 -0.32629535 -0.81283635 0.11693122 0.11767833 0.7032833 -0.60693693 0.13220596 -0.31172514 -0.5182899
582 -0.5824059 -0.4063203 0.017785922 -0.27315825 -0.029997302 -0.43094873 0.15140948 -0.38061148 0.14154573 0.88420177 0.14926462 -0.79972345 0.8945042 0.09973696 0.9106176 0.18993086 -0.67204344 -0.3765434 0.015295488 0.6243221 -0.17476937 0.5590019 0.6318069 0.1172266 0.08056659 0.311663 -0.030141253 0.4093812 -0.57319164 1.271608 -0.78703344 0.059012096
2 -0.69143325 -0.53834206 0.29919294 -0.037698857 0.23861066 0.6341078 0.40580678 0.81676775 0.43363243 -0.02841352 -0.014830298 -0.16075452 0.070386 -0.24388856 -0.5863554 -0.53757006 -0.008493011 0.67717654 -0.88774437 -0.4866985 -0.61781126 1.1163278 -0.4155215 -0.116163164 0.057389416 -0.16104794 -0.506195 -0.86419153 -0.47729748 0.20989966 -0.4680896 -0.7427369
585 -0.6223203 -0.26845875 0.3899974 -0.31983286 0.30819026 0.7958594 0.5226296 1.1033406 0.536099 -0.119425185 0.084379315 -0.14406484 0.17967911 0.17488204 -0.7946061 -0.048885293 -0.26865873 0.6953138 -1.2295345 -0.41904452 -0.6401501 1.083932 -0.046460606 -0.22357671 0.1426552 -0.45910797 -0.48515174 -0.75115764 -0.74029917 0.70524603 -0.6968211 -1.1014421
590 -0.9486312 0.114700586 0.010122669 -0.54051626 0.3201657 -0.055451937 -0.054359857 0.57103777 0.02608329 -0.2183759 -0.22242373 -0.37486732 0.25812095 -0.0663555 -0.17685264 -0.13738124 -0.20267092 0.14704771 0.16276112 -0.06869785 0.25845006 0.055538286 0.15046062 -0.3901807 -0.14306146 0.09486895 -0.5371173 -0.04595479 0.18187982 0.31026378 0.2101312 0.2646114
593 -0.09362881 -0.044734515 -0.6362931 0.0035045273 0.106242925 -0.6521757 0.25178167 0.044099197 0.13462992 -0.03570605 0.46611804 -0.45916277 -0.044469662 0.003816389 0.39978164 -0.18709135 -0.78961015 -0.40160733 -0.28413486 -0.09720274 0.416888 0.07383129 0.43430278 0.284882 0.16048683 -0.119329765 -0.5120249 -0.15409537 -0.1027069 0.029312624 -0.44120613 0.12404398
594 -0.5913132 -0.3728189 0.09654628 -0.17293407 -0.17715791 -0.5768898 -0.11459447 0.15620089 0.56094545 -0.3717611 -0.06675601 -0.35988912 0.22167158 0.06649209 0.4574283 0.08859135 -0.085974336 0.022448814 -0.30157015 0.11759214 0.25300595 0.18149474 0.09005872 0.76382697 0.00023462583 -0.37105843 0.4774882 0.25282395 -0.6700094 -0.0050183358 0.02533332 -0.13953513
554 -0.65047395 -0.2722819 -0.065249324 0.16590036 0.23994067 -0.09810916 -0.059000798 0.73160547 0.11431861 -0.53822863 0.40798733 -0.30540916 0.27085176 0.004898985 0.3525401 -0.0881405 -0.121417254 0.2946007 0.006864587 -0.19796862 0.5891477 -0.08970542 -0.12189216 0.4580914 -0.056846462 -0.675498 0.7046745 0.7513596 -0.28212598 -0.39551815 0.26429573 -0.21002895
570 -0.009772283 -0.16713497 0.055462036 -0.18434109 -0.02854971 -0.3790903 -0.47665128 0.23465917 0.304744 -0.5320775 0.16135179 -0.34644893 0.12802191 0.07367877 0.85909075 -0.07641683 0.14221917 -0.23038422 -0.13030122 0.30325592 0.7881326 0.37220296 0.13372976 0.40600556 -0.23931311 0.33204415 0.28816456 -0.54018 -0.13931711 0.28272834 -0.22686951 -0.1882531
160 -0.7932362 0.22548836 -0.28225344 -0.33855167 0.5911984 0.0877375 0.13484894 0.3339168 -0.35779208 -0.27386665 0.941267 0.112376094 -0.27070916 -0.6061513 0.37597856 0.059682313 -0.8455335 0.44911388 -0.21706453 0.3998253 0.7952321 0.36824447 0.108712286 0.23679043 -0.33994082 0.12111475 0.16372134 -0.1382877 0.08344513 0.025125852 0.57817554 -0.11765669
598 -0.7327543 0.25838888 -0.29682508 0.049239706 0.51628566 0.13442746 0.42627016 0.26707414 0.2828329 -0.09117845 0.58007324 0.1677046 -0.03445548 -0.8491429 0.21227348 0.013249382 -0.6408414 0.25341544 -0.48558846 0.27460212 0.6494328 0.17964251 0.1866319 0.16295637 -0.62593365 0.29193643 -0.09007196 -0.46517843 0.033319842 -0.12414224 0.81208754 -0.47064233
190 -0.87749153 0.32895148 -0.20555075 -0.01029266 0.6442118 0.33020368 0.42886358 0.3275645 0.14110209 -0.21127297 0.54950047 0.21609603 -0.06472662 -1.0266415 0.66407824 0.07080875 -0.73151386 0.48198792 -0.67020285 0.44556507 0.7730702 0.27605048 0.37349367 0.21987867 -0.74120945 0.4378471 0.00048723194 -0.46860245 0.23360741 -0.15830809 1.2166104 -0.6774118
145 -0.4433747 0.2480772 -0.31428128 0.33403897 0.3660986 0.60430527 -0.2447141 -0.21567851 0.10128827 0.436767 0.37134963 -0.32864544 0.38693503 -0.100729294 -0.00041684127 0.38598445 -0.00017280373 -0.2251147 0.07310028 -0.6347787 0.70261097 0.39978585 -0.06467064 -0.3568914 0.31650582 -0.057754528 -0.31472573 0.40664446 -0.36129296 0.07529437 -0.17134218 -0.66681135
599 -0.171433 0.121544965 -0.2937146 -0.05105157 0.6771366 0.24324557 -0.3868263 -0.0063145016 -0.03805544 0.017549526 0.0553544 -0.14089614 0.15067907 0.109431796 -0.19820012 0.4200015 -0.08034649 -0.16239828 0.00063355523 -0.40111336 0.63789356 0.43378597 -0.25625437 -0.17578277 0.10907385 -0.103456326 -0.34667897 0.044167127 -0.061285313 -0.11026594 -0.31521678 -0.5178016
186 -0.38838437 -0.15749395 0.058487814 -0.3226253 0.11905971 0.12827109 -0.07076225 0.17513707 0.032825094 -0.030253371 -0.11891365 -0.5312534 0.11372691 0.31460065 0.19442514 0.4035409 0.38725105 0.15842007 -0.5257758 -0.110938214 0.7710485 0.40957484 -0.12613171 0.026985075 -0.3652988 -0.14050955 0.08673648 0.17353219 -0.21437375 -0.017292054 -0.016632708 -1.0076581
425 -0.7227375 0.28198504 0.034778852 0.28000736 0.25184396 0.32978052 0.11322998 0.117278785 -0.36618593 0.03041259 0.1954423 -0.22322701 0.14944784 0.08590345 -0.27138847 0.5241616 -0.21126856 0.018460901 -0.29021668 -0.61203 0.8074799 0.38174644 -0.12182992 0.15926228 -0.55627817 -0.09841612 -0.3873416 -0.08811111 0.10262173 0.6332877 0.128519 -0.09159312
606 -0.5000787 -0.46668378 -0.059185363 -0.3887045 0.5109077 -0.031002425 -0.6376265 0.4358344 0.023528598 0.7163003 0.24411066 -0.6423563 0.5853539 -0.5929392 -0.7176739 -0.40812677 -0.40940937 0.033212364 -0.09581166 0.6474965 0.48415062 -0.16685641 0.16083924 -0.15195106 0.0075635784 -0.81333405 0.5026392 -0.13181785 -0.19101019 0.0274797 -0.17742509 -0.30173585
607 0.41682822 -0.061977416 0.35187387 -0.091782905 0.060516145 0.17368819 -0.69458735 0.41787076 -0.018126566 -0.46631363 -0.17435908 -0.03271274 0.098001726 -0.33151588 0.26406765 -0.7952714 0.09796041 0.17821431 -0.2240132 -0.36543074 0.30084997 0.10687667 -0.21117523 0.36533675 -0.52987516 -0.31180605 -0.26647732 -0.42535925 -0.138429 -0.087792985 -0.77472305 -0.39543658
404 0.24978404 -0.3018255 0.14813806 0.43618685 -0.0333027 -0.22143933 -0.5131347 0.27207989 0.25219494 -0.185119 0.12756006 -0.013918719 0.41921192 0.1347382 0.17056307 -0.37705547 -0.18704498 0.1991608 -0.31466192 -0.4335103 0.039820645 -0.06755946 0.12393668 0.6107471 -0.111709416 0.15939546 -0.45035625 -0.39097446 -0.43420327 -0.07891552 -0.3726018 0.059179414
484 -0.3317986 0.586654 -0.46392304 -0.52892745 0.054300968 0.01953275 0.102493726 -0.3463514 0.6039401 -0.39716893 0.0931997 -1.2467283 0.46276683 -0.3259598 0.65166205 -0.4046775 -0.27074754 0.21590295 0.13005988 -0.6188453 0.04258553 -0.018739473 -0.12125605 -0.6496914 0.43190536 0.019755889 -0.45593235 0.40329576 0.35844654 0.21632995 0.18231681 -0.21798624
611 -0.56292117 0.17633945 0.1254749 -0.4052683 0.16689077 -0.32515347 -0.004903245 0.14211777 0.7362024 0.031986646 -0.005750001 -0.38077566 -0.099584095 -0.053989675 0.19819316 -0.097635485 -0.2999611 0.092905946 0.17065658 -0.083845146 0.27591845 0.38073865 0.15568778 -0.28864592 0.030705575 0.12763888 -0.21487933 0.0043588816 0.030506779 0.31026113 -0.054278895 0.031015739
612 0.34430057 0.06135789 0.23024476 -0.63841146 0.36021093 0.22925007 -0.10645267 0.117214516 -0.3879546 -0.11555085 0.4786278 -0.056761082 0.23408207 -0.4976073 0.1686201 -0.5860027 -0.6924093 0.3538561 -0.037838276 -0.6621057 0.1436998 -0.059627425 -0.41509283 0.21401605 -0.52693594 -0.30253533 0.14376907 0.14505354 0.15214232 0.5318905 -1.1543709 -0.11634175
613 -0.6210074 0.16694011 0.160982 0.07772361 -0.2656142 0.026169311 0.21372348 0.045529857 -0.02899289 -0.14873207 -0.4155135 -0.78450507 -0.013122805 -0.15024862 0.36121732 0.5301465 -0.26608822 -0.012668622 -0.25221866 -0.5098737 -0.24180107 0.10445277 -0.35714993 0.13719757 0.10570366 -0.18897907 0.076511584 -0.24646209 -0.5294134 -0.044620108 -0.40450725 0.11628922
402 -0.76592606 -0.14525566 0.13883881 0.37050056 -0.22808848 0.06465224 0.14644359 0.7212901 0.09388606 -0.7962733 -0.36189848 -0.8707004 -0.028851388 -0.096763134 0.7718736 0.97865355 -0.15368862 0.39057794 -0.14497119 -0.3442874 -0.24599634 -0.044554677 0.38569757 0.08617349 0.09737804 -0.3757885 0.15481234 -0.46987793 -0.5636232 0.12173343 -0.40521744 0.25199723
619 -0.7816907 -0.11709428 0.45512494 0.07058919 0.36031628 0.09984123 -0.38902622 -0.28038278 -0.32863694 -0.041710064 0.38776413 -0.311313 0.1854114 -0.0024675142 0.48200068 -0.28915933 0.4699423 -0.5211471 -0.16193394 -0.28739196 -0.20515966 0.29825842 0.40398756 0.24700701 0.19549435 -0.543578 -0.21790926 -0.027529828 0.19426125 0.023709415 -0.33119172 -0.19632275
625 -0.3661723 0.24231239 0.46566394 0.2715925 0.06095928 0.13929828 0.18220997 0.5375411 0.03633244 -0.08145943 -0.20530125 -0.2425842 -0.010982896 0.4229579 0.09363292 0.50505036 -0.34198338 -0.07932916 -0.58507067 -0.5333044 -0.62482893 0.8047384 0.13525401 -0.1875632 0.24250916 -0.20647119 -0.16178101 -0.4068643 -0.78492934 0.21927927 -0.551679 -0.054223575
233 -0.53640634 0.12594113 -0.068236545 0.0054463567 0.1377242 0.43913272 -1.153886 -0.20008346 -0.20560366 -0.3543644 -0.490859 -0.45734864 -0.031452153 -0.41362584 0.3515457 -0.408237 -0.35558286 -0.69061136 -0.07058519 -0.45671594 0.7365297 -0.39193416 0.29560512 0.41334683 -0.27010658 -0.27331614 -0.25936705 -0.62972397 -0.54092187 0.61763793 -0.057227157 0.35799134
627 -0.56369305 0.2233602 -0.12825209 -0.30248398 -0.04161334 0.76330453 -0.9812885 -0.12529515 -0.28470173 -0.31408867 -0.6884325 -0.5313382 0.13302082 -0.34179744 0.25313458 -0.27829376 -1.0467696 -0.24070673 -0.237342 -0.33526748 0.8367065 -0.25545576 0.25152886 0.2650802 0.046801638 0.05186323 -0.03087362 -0.61888415 -0.6496997 0.6122343 0.19981265 0.44976392
631 -0.7142648 -1.2249401 0.20504165 -0.1719798 0.5217857 -0.0044252956 0.25834408 0.6550953 0.23308598 -0.25750247 0.44154876 -0.3208312 0.19441888 -0.26715514 -0.25148863 -0.8849772 -0.10086608 -0.104539804 -0.22707357 -0.45709947 -0.15972169 0.6230122 0.09940515 -0.022855697 -0.06386495 -0.3511264 -0.036249436 -0.1706053 -0.8652726 0.3082836 -0.2263581 0.2997473
26 -0.1842238 0.116691135 -0.42822525 -0.13182761 0.24906076 -0.073259145 0.21505673 0.29758537 0.042559512 0.6778642 -0.18731822 -0.1102279 -0.066050515 -0.76524496 0.28943783 -0.13574564 -0.42987356 -0.03002694 -0.35308054 0.14782898 -0.05304099 0.3975404 0.025644772 -0.61385214 -0.6300757 -0.2995003 -0.23399127 0.24945594 -0.30107945 -0.20948373 -0.44031352 -0.9188806
632 -0.6096055 -0.07864554 -0.29929098 -0.17890944 0.021081729 0.35153127 0.099562526 0.23293592 -0.32817176 0.029900977 -0.11855156 -0.10772178 -0.21161076 -0.15284893 0.15943304 0.027249446 -0.6763257 0.12426864 -0.34533393 -0.08343895 -0.33578557 0.82397795 -0.14348689 -0.5537909 -0.27980152 -0.2019947 -0.31075802 0.35997486 -0.23757413 -0.5875395 -0.4523474 -0.39924458
633 -0.3746371 0.01705772 0.12256148 0.39397576 0.13370377 -0.42835572 0.42972764 -0.042983454 0.5521887 0.11501522 -0.22615547 -0.7075361 0.07442528 -0.05532148 0.48995566 -0.55509275 -0.25265288 0.09932265 -0.2981937 -0.363875 0.21527664 0.093378395 -0.09171779 -0.2791659 -0.38937548 0.6184735 -0.26554397 -0.0974215 0.05429365 0.30660346 -0.0872337 -0.4660874
512 -0.6017289 0.001122389 -0.47257742 -0.27712286 0.44269398 -0.49667573 0.013247493 -0.23549576 0.24576122 0.2504212 0.6404859 -0.38742268 -0.041159015 -0.2628203 0.29301387 -0.7756686 -0.110379286 0.33305696 -0.10899824 0.09430847 0.20152219 0.44338307 0.25350684 -0.5284449 0.0114364205 -0.7894179 -0.03504416 -0.30297017 0.4611153 0.2109647 -0.0099151125 0.3942115
634 -0.3576775 -0.15443173 -0.5487675 -0.23007865 0.4887727 -0.1066936 0.516679 -0.40101096 0.5395735 0.18147464 0.8714253 -0.65091544 0.32373652 -0.111394264 0.36842772 -0.352518 0.17287906 0.5556206 0.034848116 0.1334004 0.27403128 0.6334703 -0.0239335 -0.21628435 -0.13141131 0.011836722 0.16353746 -0.042613763 0.5112799 0.09044259 -0.27785328 0.08413693
35 -0.43236157 -0.087289356 -0.25964454 -0.09994667 0.60067475 -0.15864693 0.3777265 -0.21704671 0.66619796 -0.08093305 0.21414316 -0.7257538 -0.046533413 0.4933188 -0.19791451 -0.041883275 -0.37067023 0.017879386 -0.11633479 -0.4094489 -0.15814869 -0.06809824 -0.26940623 -0.047446422 -0.62300587 -0.09198915 0.37821293 -0.22915947 0.21665838 -0.29020858 -0.6022347 0.48870754
637 -0.24445239 -0.095215425 -0.16900267 -0.31757277 0.2682468 0.071507186 0.50832254 0.228782 0.7678246 -0.29106775 0.0661869 -0.66091686 -0.15626378 0.34070313 -0.017830824 -0.15535676 -0.5595974 -0.0329948 -0.2190199 -0.38296127 0.0882075 0.18210897 0.13936962 0.28065747 -0.87557185 -0.3267412 0.5919388 -0.042536113 -0.15664978 -0.025633302 -0.045063425 0.07953923
638 -0.19492842 0.1858069 -0.43487027 -0.5662416 -0.09068559 0.16076204 -0.49617514 0.57349324 0.5186571 0.20107129 0.62472564 -0.70798534 0.4589659 -0.07189574 -0.06086417 0.17620924 -0.3951164 0.3844015 0.4297679 0.40620777 0.13172315 0.12677471 0.28341314 -0.35034853 -0.24349675 0.2938339 0.72461057 -0.8409691 0.3077403 -0.42393127 -0.36466163 -0.29777068
640 0.15579548 0.053929787 0.5030492 0.15598871 0.012551145 -0.16747546 -0.21254508 0.036755074 -0.054292284 -0.563069 0.31879753 -0.40666348 0.21389627 0.46978423 0.20629323 0.06696861 -0.5357615 0.44453806 -0.25080788 -0.12802851 0.12041287 0.35163453 0.02558948 0.34509403 0.008125255 -0.087588914 -0.626107 0.06432073 0.16784443 0.0010498591 -0.2962357 -0.13610636
5 -0.7464286 0.08892541 0.23205747 -0.13183232 0.22288872 -0.22472434 0.06853037 0.0963346 -0.081044555 1.1420065 -0.008990979 -0.12246744 0.6008508 -0.22428991 -0.3437964 -0.19619596 -0.8390557 -0.12361597 0.42028785 -0.02303892 0.5119546 -0.039302018 0.2943288 -0.26001856 -0.6219167 -0.2385249 -0.2830987 -0.5278704 -0.7734825 0.2339627 0.2664298 -1.1328572
641 -0.040401116 -0.044878166 0.032890294 0.087720476 0.47216064 -0.038996533 0.13509277 0.32151347 -0.3630342 0.96732825 0.17990448 -0.446326 0.2471075 -0.6381364 0.18883839 -0.26755363 -0.22109127 0.050417114 0.1609846 0.26890707 0.6869538 0.16289526 -0.048219476 -0.273097 -0.20064119 -0.53661954 -0.18909255 -0.5194754 -0.37344056 -0.060996678 -0.116828665 -0.76372594
84 -0.4738605 -0.114736244 0.39915803 -0.0012873211 0.58368987 0.19557658 -0.059839047 0.12016438 -0.5461879 1.1395512 0.04815874 0.009700874 0.83237606 -0.6994017 0.046499386 -0.37023833 -0.018477218 0.089195795 -0.36141908 0.43800682 0.51975435 0.29531243 0.395642 0.49656692 -0.12579702 -0.51221377 0.24320334 -0.59548366 0.12830131 0.34207195 -0.15024629 -0.97461885
463 0.18820234 0.05687954 -0.38182533 0.6694238 0.42703545 -0.11342583 -0.08762499 0.39441845 -0.052074607 0.23152235 0.3819361 0.10981029 -0.014489437 -0.08409412 0.49090382 -0.0783763 -0.2706084 0.4012359 -0.42671385 0.3630755 0.038022164 0.44748494 -0.45137772 -0.03747281 -0.8674459 -0.3222971 -0.31983232 -0.37621897 -0.24881388 0.10275878 -0.21297707 -0.5796552
3 -0.28169218 -0.3620931 0.07105649 -0.05180536 0.326277 -0.520057 -0.24538223 -0.24848136 0.12945153 -0.48758152 -0.15501212 0.3163311 0.28552753 0.6158205 0.40083954 -0.23662095 -0.46400562 0.3223427 -0.23916924 0.091141015 -0.18854989 0.42362094 0.24103084 0.10721643 -0.2869196 0.035802137 -0.72977406 -0.164505 -0.19562453 -0.14650652 -0.30648553 0.3082351
643 -0.36573184 -0.14021577 -0.2156201 -0.2981022 0.29237655 -0.20619185 -0.026296645 0.114698835 0.16797289 -0.13368127 0.16106021 0.10640618 -0.3269045 -0.13519508 0.4018128 -0.5375219 -0.41199777 0.15829536 -0.5322204 0.106297426 0.12881134 0.2370279 0.19459021 0.09624006 -0.04699297 -0.038929183 -0.6149734 -0.22157495 0.04397945 -0.1406891 -0.19303943 0.44159013
227 -0.5137275 -0.16065206 -0.43511242 -0.32679704 0.57489353 0.015451326 -0.07597142 0.6413577 0.18830161 -0.04108069 -0.010391808 0.064577654 -0.35320902 -0.18220924 0.38890108 -0.64898396 -0.18307802 0.24944405 -0.5610594 -0.2362933 0.05580512 -0.07637875 0.20717084 -0.08590362 -0.026021944 0.049830105 -0.37248486 -0.20338228 0.1215373 -0.033414118 -0.14374682 0.38981393
354 -0.5819418 0.28390673 0.054332037 -0.30283156 -0.5059324 0.39333913 -0.45769897 0.054593958 -0.023721324 0.33771315 0.052788164 -0.026841678 -0.201736 -0.11726914 0.6044295 -0.5141555 -1.0005628 -0.04137926 -0.1640791 -0.16500662 0.093894824 0.39721304 0.02630601 -0.18405762 -0.053723566 -0.13233039 -0.28616998 -0.043174844 0.5103418 -0.3878766 -0.055952713 0.6583185
548 -0.38004565 0.19639206 -0.37774545 -0.10489205 0.36142677 0.22162469 0.3069449 0.430519 0.45848182 -0.30392882 -0.053920854 0.28843427 -0.4136065 -0.053876255 0.30366492 -0.66523564 -0.40161988 0.6393412 -0.33040825 -0.04975387 0.118159294 0.47103584 0.18854575 0.03805985 -0.16868031 -0.18480295 -0.70297873 -0.47322467 0.20215149 -0.089404784 -0.69765264 -0.10800061
645 -0.061431006 0.36056685 0.08420767 -0.4704318 0.13978162 0.8331263 0.17773624 0.5637658 0.24038473 0.16760278 0.12156377 -0.6588164 0.2311785 0.5122717 0.039685998 -0.28533593 -0.50333637 0.373854 -0.7552508 -0.7071668 -0.33927512 0.40227497 0.13316841 0.2967854 -0.6877157 0.22256956 0.6083993 -0.28359836 0.5035271 0.42978555 0.07263011 -0.041062053
650 -0.8065049 0.2794834 0.018508473 -0.4040135 0.21864952 0.58633375 0.00455955 -0.12136416 -0.17286344 0.015200529 -0.013070413 -0.055188652 0.057304196 0.19767499 0.3655116 0.7147152 -0.44516754 -0.6198826 -0.59767604 -0.12348081 -0.3959844 -0.0836711 -0.38573736 -0.19710143 -0.7462838 -0.22142929 -0.5298781 0.55514383 -0.12402369 -0.36848763 -0.0028641878 0.107037395
651 0.26495954 0.23828898 0.06466824 -0.3807081 0.2101548 -0.14027536 0.19783747 0.23385584 -0.077399865 0.33617383 0.16989847 -0.7116889 0.59177214 -0.3320135 -0.3442442 -0.022376165 -0.40370467 -0.12747023 -0.5303751 0.17543857 -0.43944165 0.29252636 0.084547944 0.019272005 -0.51399684 0.075546354 -0.055041805 0.15521471 -0.42789778 0.20971686 -0.58681065 -0.062515885
653 0.15918806 -0.033252437 -0.2838532 0.14840241 0.06959075 0.005190934 0.22660366 0.28352427 0.16257119 -0.0054394444 0.27417183 0.09624406 0.22482479 -0.113317326 0.59635425 -0.08989898 -0.21024041 0.16274576 -0.021268347 -0.16831076 0.0677927 0.47638598 -0.06580479 0.51892173 -0.36124992 -0.045607377 0.13579996 0.009606201 -0.045602914 -0.38213685 -0.47312853 -0.09923843
654 -0.39325225 -0.23444077 0.45590356 -0.07872506 0.16100824 -0.06259419 -0.5694765 -0.09886945 -0.30221233 0.56499535 -0.17548747 0.011428712 0.4973402 0.16379353 0.39487094 -0.019280352 -0.25413373 0.1847205 0.014998529 -0.30045155 -0.247449 0.4360169 0.015252833 0.13349858 -0.03768259 -0.100460865 0.10640678 0.31635538 0.40491498 -0.45225328 -0.2710989 0.4181543
656 -0.10231189 0.25473702 -0.23466809 0.5874423 0.24286114 -0.053699333 0.2127485 -0.008958532 0.27188364 0.22086082 0.22928672 -0.19406286 0.4363946 -0.3820885 0.21769334 0.42263308 -0.17086235 0.21551809 -0.32713422 -0.40378514 -0.23885652 0.4816489 0.14052185 0.19272627 -0.11717581 -0.2385202 -0.09520292 -0.022790179 0.522731 0.107539624 -0.21599291 -0.07897907
658 -0.14974354 0.6140459 -0.26183647 0.17388365 0.8858013 0.11589222 -0.267876 0.29532582 -0.27880368 0.27442205 0.117658876 -0.021040916 0.27107725 -0.18912657 -0.2969366 0.25306734 -0.035753127 -0.30445915 0.29310805 -0.9168168 0.26730293 0.38829774 0.092121184 -0.25470814 -0.15727171 0.17080314 -0.4040734 -0.44800687 -0.10673988 -0.22037885 -0.13476618 -0.5319372
660 -0.48578182 0.52579516 0.060480475 0.34489983 0.19010818 -0.15883203 -0.30995467 -0.013574946 -0.035336062 -0.16533041 0.33275855 -0.12120467 -0.3173743 0.3282161 0.21472935 -0.37676582 -0.3328081 -0.14189789 -0.7037899 -0.4995271 0.00088776014 -0.35448363 -0.12653407 -0.55486137 -0.6325665 -0.25974193 0.21260166 -0.07626375 0.26864368 -0.15365003 -0.7853136 -0.34946197
665 -0.16085958 0.11780129 -0.29456678 0.50426877 -0.33404708 0.31773672 -0.1894385 -0.30212507 -0.14542848 -0.4292961 0.19350745 0.017632654 0.9725683 0.22763593 0.51112014 0.20809518 -0.5725137 0.28482398 -0.9652686 -0.48221877 0.29122466 0.36495826 -0.22644773 0.16723311 0.06749864 0.44626656 0.6864759 -0.11810143 0.3619417 0.07779989 -0.28134683 0.019230073
666 -0.3145681 -0.18285798 -0.29189423 0.2789217 0.016326433 -0.4239046 -0.23941931 0.26578045 0.03059384 0.12195817 -0.60197157 -0.31153816 0.38053244 -0.36100194 0.28075314 -0.41592318 -0.16463639 0.14468774 -0.16365945 -0.17588612 0.0032589012 0.0011335778 -0.42289546 -0.16541684 -0.037519116 -0.15187761 0.0015535008 -0.24608596 0.06229101 -0.35705948 -0.42765585 0.2204153
312 -0.5098889 -0.118593626 -0.43706876 0.66198313 -0.034116674 -0.24226913 -0.31741682 -0.012545385 0.032894872 0.39999625 -0.90834934 -0.7638437 0.25244853 -0.11548464 0.5396448 -0.41577968 -0.010317538 -0.37000072 -0.15454997 -0.77875876 0.27407733 0.11762453 -0.6471659 -0.10583151 -0.18935855 0.122192286 0.1275152 -0.21257523 -0.77088106 -0.62168384 -0.14301918 0.18705137
600 -0.32252324 -0.35146153 -0.3793778 0.12091391 0.19563217 -0.20418717 -0.040199768 0.3184815 0.40743133 -0.12653023 -0.5664604 -0.5864953 0.06274275 -0.5239253 0.55458665 0.116784945 0.14976248 0.43771094 -0.27549937 -0.14643812 0.12904212 0.53364587 -0.049216364 -0.2789961 0.4852695 -0.3329947 0.029724939 0.19656892 0.16259806 -0.56386024 -0.82004315 -0.03420692
668 -0.55982864 -0.48100844 0.3016159 0.5716809 -0.10132843 -0.43291038 -0.37375054 0.44819468 -0.46142215 0.6666746 -0.38034818 -0.029026296 0.5663016 -0.18845735 0.8167979 0.12729073 -0.42185766 -0.2474256 -0.476932 -0.12747025 -0.17551412 -0.052920718 -0.17302124 0.05017803 -0.0453717 0.49884138 -0.037454147 0.42664474 -0.026963633 -0.47042373 -0.38622198 0.30569714
670 -0.38756225 -0.47210836 -0.09290153 0.171676 -0.016016826 0.043515448 -0.23421513 0.122863956 0.00035799234 0.32312602 -0.09568916 0.253367 0.8269283 -0.1559442 0.15544668 -0.4457662 0.05079796 0.56284076 0.12525101 -0.11895584 0.53322923 -0.08348494 -0.31238657 -0.28892848 -0.5395261 -0.19967754 -0.45172665 0.17447126 -0.79262894 -0.011913728 -0.3728478 0.5495601
674 -0.4542512 -0.33337542 -0.22221106 -0.34830984 0.1850363 -0.3713745 0.15699686 -0.18369122 0.43208492 0.59495705 1.0815734 -0.26621893 -0.03815535 -0.39444005 0.7241741 -0.14203219 0.16828458 0.45987606 -0.025529472 -0.21797292 0.26227 0.8280852 -0.6619275 -0.30368328 -0.10199312 0.16569945 0.24504694 -0.14556277 0.55904263 0.020713003 -0.4328473 -0.019099623
500 -0.13476802 -1.4001191 1.0115098 -0.23086825 1.2695402 0.5312352 -0.8753435 -0.3000522 0.38370004 0.99698025 -0.31574506 -0.28743038 -0.22966434 -0.32576203 1.0154166 0.81301755 -0.7688041 -0.21005128 -0.5314773 0.87980235 -0.17539287 0.53901833 1.7388788 -0.20186009 -2.0895329 0.82374436 -1.2501376 -0.5773159 -0.5502748 0.15360478 -0.16359615 -0.4154085
679 -0.3561149 -1.8570706 1.480076 -0.11158947 1.7860732 0.48130253 -1.0106131 -0.89027154 1.1376601 1.7247257 -0.7056004 -0.30415806 -0.61077845 -0.039087735 1.4617395 0.8830439 -0.7269556 -0.09263941 -1.136618 1.0977113 -0.6019129 0.7580945 1.991236 0.04642121 -2.9351068 0.81876177 -1.4396633 -0.7940181 -1.186047 0.07607051 -0.41288263 -0.91640645
687 -0.26450542 -0.13153484 0.31063592 0.1267743 0.31563368 0.13030306 -0.50228804 -0.17092612 0.03920056 -0.31267667 0.0700299 -0.097867504 0.14065996 -0.12332523 0.2770383 -0.225731 0.32250506 -0.40371627 0.08548257 -0.2506039 0.04800202 0.3090184 0.19902581 0.17348239 -0.15940261 -0.31095478 -0.26364598 -0.118572146 -0.109262094 -0.12241645 -0.70280015 -0.20644623
581 -0.26851553 0.31995755 0.16997313 0.11879369 0.26411948 0.11508861 -0.21722615 -0.05199378 -0.14656751 -0.48354125 0.25063792 -0.0319027 0.031056402 0.065951265 0.075774066 -0.281267 0.11190685 -0.6402086 -0.17229162 -0.4167041 0.25677088 0.060846634 0.32761666 0.3414407 -0.1953353 -0.23877051 -0.71747607 -0.30590764 -0.5753243 -0.08820022 -0.76476896 -0.13521188
688 -0.028974753 0.45403486 -0.062326435 0.34875292 0.063871704 -0.4769011 -0.1254387 -0.034081057 0.41797176 -0.17044398 -0.024465758 -0.12654957 0.34516636 -0.5589406 0.003057064 -0.0053580115 0.039516546 0.08748806 -0.18679012 -0.28026628 0.22849032 0.37516385 0.3933388 0.42499942 -0.7253002 0.038979944 0.15817052 0.03549437 -0.30365476 -0.2593559 -0.26635736 -0.23740627
604 0.12540276 0.055732504 0.4811207 -0.019224048 0.34300143 -0.8572344 -0.16217637 -0.5106952 -0.18180919 -0.16372225 -0.04970964 -0.091202624 0.7272917 -0.4052992 -0.10071322 0.43002638 -0.21871506 0.07794232 -0.46023822 -0.06696522 0.35501602 0.18602537 0.28753746 0.10096292 -0.8707474 0.5489511 -0.0229722 -0.1830045 -0.4671861 -0.2822867 -0.4567831 -0.25724438
409 -0.8144513 -0.23553865 0.08435934 -0.47686067 0.38830993 0.33580154 -1.1040269 -0.6402311 0.13421206 -0.42075065 0.15094368 -0.55146295 0.2883984 -0.6045135 0.02199634 -0.0355753 -0.4051026 -0.057711594 -0.2829089 0.49888423 0.37443277 -0.43475994 0.49726042 -0.44683617 0.09100614 0.50615585 -0.23765996 -0.12684731 -0.21883671 -0.17820492 -0.11651191 -0.14447904
692 -0.9968997 -0.09016811 -0.19110096 -0.7020621 0.43428865 0.5337562 -0.87428695 -0.54122555 0.2714706 -0.45318663 0.19536851 -0.6479595 0.28915283 -0.97186154 0.0051459633 -0.077869624 -0.32608533 -0.047890164 -0.13025925 0.479657 0.2650082 -0.40319228 0.531191 -0.33068484 -0.061268322 0.56175953 -0.32706526 -0.13245317 -0.035200767 -0.43057823 0.112330884 -0.1395146
517 -0.35431686 0.04286425 -0.38553593 -0.25529036 0.4570923 0.092599116 0.7205574 -0.08545246 -0.10350881 -0.12697886 0.57194096 -0.080303535 1.3011326 -0.47179472 -0.7125325 -0.8262425 -0.3835871 0.48719487 -0.34656623 0.23271826 0.13949174 0.700222 0.40918761 0.29641113 0.60936177 -0.86163914 0.080876194 -0.31671336 -0.9468879 -0.34467903 -0.5629351 0.5552023
693 -0.12978053 0.003462223 -0.28755966 -0.15604189 0.5097952 0.17691115 0.4205272 0.04305467 -0.049311902 -0.034547277 0.32135177 -0.004051581 1.0180839 -0.3990274 -0.40189734 -0.6052601 -0.31117857 0.4058076 -0.32806915 0.09333657 0.10310352 0.58213407 0.45946106 0.067141704 0.6142493 -0.6236587 0.31528264 -0.30960104 -0.8359397 -0.41972923 -0.26783502 0.36288944
694 0.051194146 -0.057795625 -0.0018506072 0.019765949 -0.2237888 -0.016936602 0.33537245 0.09264193 -0.18358445 -0.23114102 0.115317285 0.098356776 0.5191477 -0.2722315 0.6072057 0.13088237 -0.07254456 0.24484062 -0.4576469 -0.2341717 0.5198288 0.52018005 0.08575666 -0.07560807 -0.46963453 -0.15412736 0.26016602 0.1545263 -0.2178666 -0.7231315 -0.022883289 -0.56050277
695 -0.49148482 0.18635146 0.19561052 0.46700734 0.45484775 -0.2918534 -0.116953336 0.3442619 -0.85832375 -0.6327607 0.04239858 -0.43269432 -0.015078027 -0.12397123 0.6034285 0.29667583 -0.53055644 0.23952562 0.24816519 -0.08061672 -0.1782764 0.9243223 0.15503319 -0.053131185 -0.44259107 0.13218302 0.08500569 -0.018500306 -0.42738646 -0.25684506 -0.23665288 0.086391404
305 -0.14206079 -0.20484363 0.29336575 0.9189817 0.7153686 -0.45410666 -0.81974846 -0.023087412 -0.44180697 -0.105168186 -1.071578 -0.42684948 0.112218216 0.025443356 0.6318989 0.1264118 -0.16163549 0.20365824 -0.80281544 -0.03031126 0.75673693 0.46413618 -1.0344 -0.07219411 -0.3867415 -0.98190004 -0.5762655 -0.34574607 -0.38450614 -0.047908664 0.715313 -0.01675408
700 0.02124544 -0.12142365 0.015042635 0.67744184 0.7205699 -0.22034875 -0.60990727 0.24532627 0.021368155 -0.33392572 -0.6493061 -0.20158583 0.24920979 -0.14362802 0.0072086584 0.22705458 -0.054145765 0.34298113 -0.5690302 0.24366267 0.5150584 0.3126599 -1.1028478 0.12413087 -0.34627488 -0.2993912 -0.51516855 -0.47607312 -0.31602356 -0.31626266 0.036617827 -0.23796743
332 -0.084733866 -0.10125444 0.16491853 0.8155303 0.7861886 -0.2680048 -0.829317 0.10614788 -0.09696653 -0.5229115 -0.74035585 -0.25342694 0.20208721 -0.26731715 0.109185435 0.35157207 0.07188581 0.2691802 -0.71409476 0.5261579 0.53234684 0.301294 -1.2241274 0.16853249 -0.5711037 -0.5313491 -0.6796846 -0.8113075 -0.48833477 -0.52868927 -0.10195032 -0.29377943
