7572 32
1 -0.21187052 -0.26155385 0.2733996 0.23292692 0.20344916 0.25580636 0.2268624 0.20298083 0.20648167 0.123697154 0.25482032 0.21375094 -0.08748682 -0.33225942 -0.19799843 0.29698166 0.15337336 -0.17503223 0.23474932 0.29474837 0.25649524 0.29635796 0.30691063 0.28914636 0.24957018 0.32159472 0.341188 -0.3040592 0.20419136 0.29685846 -0.27856132 0.22589783
11 -0.21617153 -0.37393725 0.29264334 0.26093107 0.18391734 0.39966837 0.19493221 0.10516167 0.32624236 -0.041981556 0.24662952 0.22010407 -0.039257985 -0.29014796 -0.30298483 0.25780755 0.20606776 0.002084118 0.26923 0.29805422 0.2793294 0.31908306 0.22572447 0.30394647 0.28060535 0.32369474 0.389555 -0.41140723 0.25003275 0.38731876 -0.37876993 0.15429698
17 -0.2571655 -0.30748254 0.22600952 0.254652 0.40271786 0.23110856 0.056911293 0.076860934 0.3468469 0.32040665 0.30095762 0.36313686 -0.28028473 -0.33742514 -0.30295658 0.18837015 0.200742 0.3098859 0.39090484 0.22089659 0.24239796 0.37297317 0.15341632 0.24060865 0.33409974 0.26526764 0.355751 -0.12279653 0.14697304 0.24636166 -0.3024681 0.39612207
31 -0.23287426 -0.28071666 0.23658775 0.2840353 0.44070363 0.22846064 0.052147888 0.15402584 0.2833623 0.19345379 0.31253132 0.365925 -0.2279934 -0.33247954 -0.24481821 0.15198275 0.33356923 0.16039301 0.35246405 0.23347463 0.26620415 0.30065328 0.14181447 0.096787706 0.3991366 0.31198692 0.2981605 -0.14679565 0.15472202 0.30407196 -0.27764732 0.40210956
15 -0.22791666 -0.24566428 0.2515262 0.18661349 0.20770428 0.18278752 0.120287575 0.24375539 0.17796457 0.15405776 0.21078603 0.25492296 -0.1349139 -0.2606093 -0.20800142 0.2595215 0.19198354 0.13131242 0.21282229 0.16202746 0.2011344 0.20523635 0.18329987 0.21094437 0.20378815 0.16932115 0.2232813 -0.23042549 0.2092134 0.25420752 -0.19108693 0.23749386
39 -0.2972306 -0.3434197 0.20373768 0.32548353 0.38140222 0.18530248 -0.08334712 0.0042529916 0.31383145 0.3447659 0.3332705 0.40812078 -0.18637124 -0.3267053 -0.35302883 0.1739132 0.2451103 0.40214336 0.44368464 0.28610533 0.17952912 0.36886644 0.22591384 0.3310199 0.4477107 0.23949979 0.41319093 -0.1312876 0.1847662 0.26800686 -0.2948062 0.4591978
27 -0.21716303 -0.25273737 0.17005001 0.21260057 0.2270479 0.16326809 0.0907093 0.19234055 0.1825707 0.15152718 0.20170204 0.24348165 -0.23514326 -0.23966146 -0.19488615 0.18811598 0.15803915 0.0015438505 0.15894884 0.23031527 0.21546426 0.22704494 0.17819518 0.3019925 0.22310257 0.23198095 0.22201851 -0.22024706 0.14322838 0.18001793 -0.20162416 0.18557663
83 -0.12984687 -0.30689406 0.26228943 0.26008058 0.27956897 0.26210558 0.09167217 0.25776598 0.25801903 0.050029468 0.24043453 0.18565935 -0.21875472 -0.25231788 -0.29369015 0.27103102 0.12778367 -0.054020323 0.1684976 0.2167411 0.22316138 0.27988067 0.28225297 0.26288787 0.29303944 0.34474102 0.32408598 -0.31559372 0.22783418 0.34187368 -0.33471265 0.27690905
100 -0.17109527 -0.30081487 0.22997403 0.29771468 0.20472698 0.22408502 0.21109556 0.16173886 0.39781192 0.2773721 0.3989298 0.40272945 -0.15412657 -0.42183965 -0.29929975 0.23573944 0.25766897 0.043778148 0.24994794 0.21840136 0.30153945 0.24837482 0.26060262 0.31229976 0.3478937 0.29155818 0.3878742 -0.16488138 0.29177377 0.30976778 -0.2473927 0.24562453
42 -0.09227273 -0.052743208 0.040131625 0.08618666 0.082373194 0.09713968 0.078347 0.09703225 0.11710738 0.11112641 0.11929603 0.091441125 -0.06287917 -0.122681566 -0.08775227 0.08658893 0.11701193 0.009605706 0.15878883 0.06462581 0.13100386 0.053434625 0.095853716 0.10492065 0.13130848 0.056828674 0.07085167 -0.0638928 0.05768833 0.07173004 -0.06224163 0.10210977
20 -0.23989433 -0.23565821 0.21194836 0.15284193 0.17248906 0.25178993 0.17047949 0.20522113 0.21963915 0.26216328 0.25999972 0.22217607 -0.1596586 -0.23552267 -0.23698425 0.13593177 0.22128342 -0.07149137 0.17934056 0.21830805 0.25254518 0.22074303 0.21978329 0.21395984 0.22329384 0.2155603 0.24416375 -0.17426501 0.22759284 0.27518284 -0.13326815 0.09913261
102 -0.13306114 -0.09775853 0.07048782 0.033380546 0.025907464 0.088519275 0.10255097 0.12126252 0.08429646 0.09220252 0.10158597 0.12821737 -0.09849101 -0.14728318 -0.060597636 0.08962335 0.07228719 -0.053254303 0.063625716 0.09826461 0.13269234 0.0863085 0.11412022 0.112943046 0.08109997 0.063976265 0.090697706 -0.032984097 0.13159461 0.10654696 -0.0636737 0.068411686
80 -0.13116293 -0.2954565 0.18222728 0.18233626 0.056737255 0.18935469 0.20661874 0.12766194 0.31115532 0.21475445 0.19407193 0.20901817 -0.13907455 -0.16452947 -0.20634179 0.26621756 0.17630072 0.06818098 0.16750723 0.117149666 0.21473242 0.21595016 0.1256062 0.22631952 0.18164977 0.14171773 0.27992514 -0.2205844 0.15030879 0.15285227 -0.1832104 0.27671352
107 -0.13237222 -0.33978376 0.20981106 0.25997487 0.30291027 0.27346522 0.14218374 0.2757777 0.2980844 0.046618734 0.24289665 0.24493662 -0.22777289 -0.2509629 -0.2863946 0.2256725 0.26377365 0.05318885 0.16317275 0.21329938 0.27152237 0.27190924 0.3354581 0.2736144 0.27206087 0.18916833 0.28449142 -0.21413246 0.23340328 0.2501887 -0.29784557 0.22898486
112 -0.2144355 -0.24977891 0.21979779 0.27072975 0.2097414 0.28387612 0.14049602 0.21822849 0.31374276 0.06613415 0.24196917 0.22418167 -0.17215584 -0.1837513 -0.19421123 0.19188505 0.19218744 -0.08266069 0.16031273 0.19684312 0.20175447 0.21803328 0.280529 0.2504982 0.30972183 0.27869493 0.2412217 -0.23260017 0.20202327 0.24549682 -0.2757138 0.23299725
79 -0.33228967 -0.3223062 0.3172139 0.14672591 0.23485707 0.37018743 0.2362053 0.2428925 0.32693437 0.15722051 0.28128654 0.20001201 -0.07336489 -0.26906365 -0.2596289 0.22985357 0.19211018 -0.12064434 0.15252456 0.27596775 0.28016537 0.3614445 0.24897887 0.22438058 0.24432027 0.28257006 0.2991392 -0.36135226 0.2580595 0.33569276 -0.28204367 0.21253733
115 -0.114380985 -0.10206598 0.07563289 0.082093254 0.13174859 0.18391064 0.13278826 0.081112914 0.12992214 0.054664794 0.09818188 0.12010606 -0.03363075 -0.145608 -0.13973941 0.12733512 0.17068225 -0.15371723 0.1157736 0.10501839 0.1287976 0.11003574 0.10255944 0.04684912 0.07669398 0.11730304 0.11731044 -0.13349944 0.07758886 0.10675787 -0.1121433 0.1459842
119 -0.20921439 -0.23578984 0.21056233 0.2245062 0.24451968 0.21272773 0.16671361 0.3136161 0.19429915 0.13042171 0.24691765 0.20632307 -0.2603243 -0.20193584 -0.25605237 0.19392939 0.1604204 0.05026474 0.10122537 0.27349266 0.18664536 0.2721692 0.2558689 0.20114689 0.290135 0.2308513 0.2777736 -0.22888099 0.2529612 0.24909411 -0.28849533 0.109188244
140 -0.20654805 -0.32344264 0.35640687 0.15614747 0.24767241 0.3724812 0.34761223 0.18647255 0.35516962 0.12496927 0.378149 0.25888515 -0.06638313 -0.33346617 -0.2882348 0.23908688 0.116039254 -0.023112694 0.22101028 0.36572614 0.29466283 0.2702835 0.20633449 0.22414422 0.21630505 0.35382128 0.33746555 -0.25765467 0.30463618 0.4138444 -0.31245443 0.30119106
138 -0.23711139 -0.20724896 0.21365857 0.26615435 0.18040027 0.23576128 0.24949382 0.28021097 0.22275689 0.21202664 0.2353319 0.23929094 -0.24951741 -0.245502 -0.2877956 0.267329 0.17653547 -0.17609662 0.17687581 0.28303882 0.25540796 0.23416595 0.3075841 0.22159797 0.19563268 0.25042054 0.2528668 -0.121017955 0.26576546 0.24903469 -0.25334704 0.2176469
142 -0.23385386 -0.20227307 0.23283522 0.3300853 0.24114603 0.34431785 0.3139009 0.13271604 0.27284032 0.2748239 0.31127965 0.30023825 -0.39900613 -0.30041385 -0.21224369 0.21867089 0.15520902 -0.09509582 0.201276 0.27448046 0.2604259 0.17064579 0.26847374 0.25377733 0.3044352 0.22204924 0.22331266 -0.17939109 0.17249678 0.25448933 -0.27571258 0.27700144
32 -0.22264998 -0.16298813 0.2168275 0.23016576 0.30615383 0.26634994 0.18960133 0.14316255 0.18041654 0.1770483 0.22344574 0.19906597 -0.06011356 -0.20571558 -0.27987328 0.111078545 0.15117556 0.012551568 0.102975845 0.18368953 0.20645614 0.2295512 0.19088434 0.18995513 0.17179324 0.22958222 0.13107333 -0.14414683 0.19096139 0.1905623 -0.21815343 0.15321937
143 -0.21734089 -0.30470917 0.26090598 0.19534509 0.23319411 0.33550224 0.30698097 0.15415709 0.18363026 0.2416277 0.22398923 0.2431022 -0.20036918 -0.21684058 -0.33234733 0.31788537 0.16154286 -0.13180076 0.17876363 0.23150969 0.21353573 0.2375995 0.28169692 0.2013067 0.2953598 0.258417 0.28538278 -0.24513294 0.2096538 0.29892436 -0.33190313 0.22746952
19 -0.1839794 -0.30640665 0.26830292 0.26836967 0.17157458 0.24019986 0.20983788 0.22644794 0.22746107 0.2403495 0.24435575 0.21130118 -0.050780285 -0.29473647 -0.2708467 0.18657468 0.18828012 -0.17000815 0.24963814 0.25602856 0.20579189 0.35617286 0.34592387 0.30892086 0.29584494 0.35887894 0.26903966 -0.2431021 0.35195532 0.2380283 -0.3789837 0.20607506
157 -0.28116012 -0.33355597 0.25669885 0.22197387 0.1746861 0.40156233 0.13778481 0.34546372 0.26330596 0.0032985602 0.29521483 0.31771144 -0.14249374 -0.23241033 -0.18498117 0.1645181 0.2739914 -0.010643116 0.1447595 0.27196333 0.35473132 0.36458847 0.28829864 0.34343773 0.30181283 0.24040864 0.41588113 -0.24443679 0.18300313 0.36235958 -0.28669557 0.179097
38 -0.1717567 -0.2371958 0.15521184 0.15058726 0.124010235 0.25669697 0.13602678 0.08215838 0.23973984 0.14097755 0.1933503 0.31073526 -0.2697085 -0.27859882 -0.29619327 0.24461178 0.2568807 -0.2291672 0.12421722 0.10593179 0.22150868 0.28335705 0.32358465 0.2568918 0.3441621 0.19430666 0.27200618 -0.17684196 0.19655134 0.27537867 -0.16162206 0.24534535
130 -0.20960514 -0.18391944 0.118754916 0.2294034 0.16841827 0.18179345 0.1388197 0.10106664 0.18988076 0.08448821 0.18232137 0.18806599 -0.23774791 -0.25459835 -0.23441955 0.2126655 0.27984753 -0.16101828 0.18451512 0.20909962 0.23396455 0.27324516 0.2643541 0.18389219 0.23763275 0.22227505 0.24261571 -0.120310836 0.13859506 0.22951217 -0.19250499 0.13118455
150 -0.37306273 -0.27905247 0.23985024 0.10968514 0.27227378 0.1553044 0.24386415 0.137807 0.30020177 0.41204533 0.33574116 0.30255464 -0.27167252 -0.32981116 -0.21339855 0.30756006 0.20130831 0.06766394 0.15611732 0.16693895 0.21554552 0.24446009 0.44331822 0.19383799 0.21117258 0.1796229 0.28975213 -0.31754145 0.15575626 0.29098183 -0.28687894 0.25754973
159 -0.37621742 -0.26581696 0.23841292 0.13335866 0.306586 0.13803808 0.29831067 0.09967616 0.23134544 0.3633474 0.34405142 0.2780054 -0.23662774 -0.31413704 -0.24495457 0.26395556 0.19270882 0.10738315 0.15182342 0.18323043 0.21479358 0.19649865 0.36693653 0.1722326 0.23640054 0.24141313 0.29790482 -0.36521932 0.14117032 0.2130004 -0.19792826 0.26784107
163 -0.25033903 -0.283741 0.27895254 0.28621554 0.12222583 0.29172423 0.22813557 0.22366956 0.31451055 0.13247955 0.2767904 0.17439507 -0.10416123 -0.2527558 -0.2791747 0.1789354 0.33358788 -0.18549165 0.0604756 0.25693563 0.21847126 0.32523277 0.26340535 0.17008707 0.37080517 0.21391916 0.30819872 -0.12541926 0.27870744 0.3603 -0.25851905 0.27013057
71 -0.24826841 -0.23752928 0.19955897 0.10579019 0.23777364 0.15088044 0.25788042 0.20772423 0.22391665 0.3508095 0.2893221 0.30746865 -0.27646348 -0.27641296 -0.23224607 0.19812796 0.22926682 -0.24381524 0.1299137 0.273281 0.2331774 0.27332476 0.20385465 0.24013913 0.25751296 0.25064054 0.272267 -0.17802031 0.31427804 0.23210098 -0.24741481 0.15935047
168 -0.14623778 -0.23348682 0.118950136 0.10408626 0.13715304 0.18364076 0.20139658 0.109358795 0.2671556 0.19894283 0.20591946 0.21582685 -0.16458432 -0.1908995 -0.2054394 0.19382554 0.20698836 -0.04892453 0.2035531 0.14540897 0.2257568 0.14898042 0.1363081 0.14365831 0.21361917 0.21546912 0.21853341 -0.12139686 0.1733412 0.20195408 -0.15894628 0.13816407
95 -0.08634041 -0.06990973 0.123949744 0.10012585 0.049042024 0.14239366 0.08153125 0.06343299 0.15845078 0.09443564 0.045053713 0.098013595 -0.053503003 -0.07929586 -0.048459183 0.1170909 0.09625412 0.04748102 0.04362621 0.15707633 0.10817628 0.15203312 0.12382646 0.089850895 0.11193731 0.067661814 0.1357822 -0.11077635 0.15091951 0.15013249 -0.07063948 0.08275652
169 -0.28191894 -0.3202654 0.2653601 0.17773835 0.21441713 0.26005402 0.23236512 0.12862007 0.30649126 0.12447585 0.28628236 0.27110806 -0.16648974 -0.22016543 -0.25762096 0.22271132 0.18899047 0.010768849 0.13981983 0.2845612 0.18640737 0.285981 0.19550571 0.3177971 0.2423316 0.29981396 0.38142487 -0.30261752 0.28227195 0.32240808 -0.3227208 0.1910646
177 -0.25181946 -0.34247187 0.34914196 0.22930631 0.34306112 0.18151394 0.09077471 0.14633927 0.29324815 0.24740134 0.39299503 0.39442822 -0.14974646 -0.3926372 -0.35971224 0.22772382 0.29631108 0.088261165 0.3141386 0.26528484 0.32465705 0.36690554 0.28777367 0.12871742 0.27000937 0.21520893 0.3625165 -0.21420895 0.28243795 0.323508 -0.2501321 0.27952662
144 -0.20841181 -0.21876357 0.19871433 0.18360578 0.175521 0.16540404 0.17598182 0.1974452 0.20143679 0.113695 0.2500533 0.20243639 -0.17547375 -0.22460037 -0.25620276 0.23119815 0.31637907 -0.014249106 0.37643832 0.15334181 0.19431432 0.22209819 0.1179592 0.12821265 0.16007921 0.21562287 0.16751353 -0.11108389 0.16280301 0.20656173 -0.17670481 0.22804724
172 -0.26888233 -0.30718163 0.2277284 0.098946296 0.30776832 0.14963225 0.18157242 0.1471599 0.26588872 0.25684485 0.33136648 0.25842884 -0.21802956 -0.24526314 -0.22520587 0.2792828 0.24663952 0.12107507 0.1408306 0.17816468 0.26305392 0.1916118 0.21644787 0.11590534 0.17836753 0.19153759 0.31089976 -0.18957137 0.19873829 0.26972613 -0.2746571 0.37470978
9 -0.30767518 -0.19998892 0.16190611 0.1218416 0.27654442 0.23422928 0.15333863 0.16612683 0.25330988 0.22559609 0.31011322 0.2503373 -0.2766416 -0.30039197 -0.30218682 0.21206927 0.2848226 0.04673266 0.04025431 0.17410958 0.26459405 0.32015142 0.2753569 0.2847968 0.24280196 0.21678747 0.29539186 -0.17670502 0.31717405 0.28506488 -0.30088496 0.16112329
181 -0.25946876 -0.29038328 0.26001173 0.07022801 0.29966426 0.27381727 0.20738144 0.18062407 0.43147525 0.10679196 0.27639 0.23002625 -0.2650086 -0.29632565 -0.29812068 0.23823889 0.41085055 0.11254103 0.08928571 0.22266068 0.23313275 0.27353758 0.26110703 0.2058285 0.36271465 0.29125446 0.39778852 -0.2650971 0.2365834 0.40080398 -0.39511463 0.16137722
109 -0.19594008 -0.14729851 0.20823763 0.16770229 0.17283058 0.23654272 0.13808677 0.14701717 0.25408226 0.13991861 0.10771675 0.13123798 -0.1814941 -0.19669817 -0.19652008 0.20752402 0.2213452 -0.015651982 0.19024882 0.1672855 0.13583559 0.1995928 0.11706235 0.14673111 0.18251869 0.2539332 0.21142584 -0.22481492 0.09449655 0.21873431 -0.20757742 0.23678239
206 -0.17573322 -0.30723602 0.32806337 0.26395765 0.16506477 0.35877484 0.22014317 0.1948441 0.24284095 0.087476656 0.31811827 0.24497557 -0.24922286 -0.32280815 -0.29523996 0.27051502 0.18624559 -0.0035384188 0.19486852 0.2873174 0.36770043 0.2656527 0.16406043 0.3234589 0.25532982 0.32467237 0.3636731 -0.28471723 0.17615458 0.37944713 -0.30682927 0.18625872
76 -0.26918587 -0.26957637 0.15640652 0.18863808 0.20929283 0.22729123 0.14674649 0.24439399 0.230496 0.19595467 0.19947977 0.17869478 -0.20482463 -0.1874341 -0.18625043 0.3129822 0.110349245 0.08196101 0.10989983 0.1698181 0.2814344 0.1961339 0.23244412 0.1794644 0.16939387 0.21257547 0.12332317 -0.21361063 0.19199292 0.18882108 -0.22647795 0.24488477
207 -0.36222538 -0.36770362 0.31020433 0.18249308 0.22228457 0.2150066 0.18802637 0.1837416 0.29004738 0.054928444 0.25200662 0.3624943 -0.10823869 -0.35558334 -0.3187805 0.28504783 0.20546995 0.0049274713 0.25105938 0.2584624 0.35837033 0.30499557 0.31697425 0.06733459 0.21302782 0.28846475 0.37453794 -0.25539556 0.2714473 0.35230067 -0.2667806 0.32405463
203 -0.26205587 -0.31367287 0.15372792 0.2430584 0.18240535 0.21409567 0.14084107 0.14781602 0.16992061 0.19857731 0.3042758 0.19876534 -0.23694459 -0.21591401 -0.28396478 0.18256454 0.16805786 0.07880121 0.2446723 0.3419256 0.25634217 0.19981205 0.27260193 0.28118175 0.16940902 0.34406438 0.22939014 -0.15403141 0.2311658 0.3446771 -0.24615611 0.34584296
209 -0.24012734 -0.26368937 0.25423956 0.21128678 0.40015972 0.17736925 0.08865195 0.27265885 0.26390693 0.23323508 0.2752554 0.3846369 -0.26860526 -0.33567926 -0.2515886 0.15545483 0.28632036 0.15505165 0.3234782 0.24200651 0.22099991 0.2739725 0.17535467 0.2062811 0.34487653 0.4004376 0.3204132 -0.1927076 0.10345644 0.31373328 -0.2683437 0.36182997
215 -0.3174204 -0.19058292 0.23722416 0.18624744 0.25393772 0.23550451 0.1770269 0.21855582 0.24415015 0.17985357 0.20625748 0.2992198 -0.14459711 -0.30109206 -0.19895804 0.20257843 0.17520094 -0.13826853 0.15789339 0.21189047 0.27194133 0.21279229 0.2669123 0.3146715 0.23128271 0.29086578 0.27242145 -0.14276004 0.14864774 0.293052 -0.2290217 0.24467951
104 -0.13886167 -0.27856272 0.22471091 0.18532312 0.14739436 0.24401306 0.21530603 0.13570164 0.20976979 0.11743917 0.22952355 0.23006353 -0.17119269 -0.19759594 -0.1937677 0.10752119 0.25212908 -0.017124392 0.15954307 0.21008936 0.19158712 0.17734541 0.17687587 0.15578155 0.18004578 0.28841522 0.22373843 -0.1866668 0.2165034 0.23659515 -0.2525058 0.2629663
246 -0.17888883 -0.21016183 0.16072045 0.13854505 0.18372886 0.28659058 0.23766652 0.1680317 0.23967814 0.08201005 0.21504442 0.17199354 -0.13036057 -0.26531282 -0.1664636 0.21295688 0.13191396 0.04029904 0.1802922 0.13795766 0.20304893 0.18839763 0.23857191 0.16627671 0.17776625 0.19606768 0.19903867 -0.19655316 0.10855087 0.16934285 -0.2396409 0.2366349
248 -0.246636 -0.21675771 0.2494415 0.11034806 0.2315396 0.20529135 0.19935311 0.15948977 0.23048598 0.096017174 0.27096787 0.23046352 -0.21330084 -0.30127487 -0.20316806 0.2655257 0.26507697 -0.08844024 0.1459362 0.19636588 0.26950365 0.21933214 0.19103888 0.16837047 0.22767678 0.14633438 0.24849385 -0.24720223 0.17064549 0.23012096 -0.2620866 0.2660022
208 -0.3640172 -0.24738322 0.30640596 0.15621623 0.20327121 0.3711887 0.16985404 0.112346075 0.2902534 0.22437404 0.31727424 0.26486105 -0.20644473 -0.22227138 -0.2512113 0.25521526 0.16360041 -0.00023561137 0.20630917 0.24081363 0.20928997 0.29307696 0.19088686 0.17738946 0.2865976 0.28396663 0.2921127 -0.23865135 0.20147029 0.34215558 -0.34471107 0.21613911
252 -0.31339765 -0.27190647 0.23385029 0.23505042 0.2434542 0.2974505 0.33744743 0.2916257 0.22028826 0.20031781 0.22482122 0.24160941 -0.09732794 -0.2835691 -0.31787953 0.09074379 0.16281824 0.021554679 0.26675585 0.2331244 0.2360462 0.2630122 0.26164487 0.28490597 0.26485705 0.2995729 0.352791 -0.3094392 0.2696389 0.29473895 -0.30138987 0.28759444
223 -0.22230995 -0.24934271 0.26251078 0.18978144 0.12337164 0.17285098 0.13848121 0.22217014 0.2518963 0.09433748 0.23048252 0.24106516 -0.1172839 -0.27306628 -0.26347134 0.11623059 0.15554017 0.046029724 0.07546637 0.24079883 0.2624917 0.33758363 0.24756847 0.1938847 0.26247683 0.33765975 0.33338907 -0.21291281 0.24714254 0.29307723 -0.27433205 0.26353678
255 -0.22438318 -0.27596703 0.27903417 0.33178338 0.3203465 0.1754941 0.033568025 0.16239595 0.27171174 0.24469396 0.29174307 0.43882573 -0.23492506 -0.35836086 -0.25398785 0.17952718 0.30289745 0.21865618 0.5165881 0.21543722 0.26659143 0.3709893 0.14603966 0.20076814 0.25354806 0.15999033 0.3533557 -0.11301815 0.22537303 0.24716857 -0.28387 0.47679937
195 -0.16787213 -0.08871417 0.102930576 0.12978248 0.0746933 0.1929886 0.12569346 0.08805925 0.13506064 0.20721635 0.17857601 0.056159597 -0.07658701 -0.12341644 -0.15256964 0.08118944 0.13860497 -0.04045065 0.08848556 0.14405397 0.108867496 0.123921014 0.15323226 0.08747418 0.13590904 0.14726642 0.12911396 -0.09173745 0.11999343 0.13086344 -0.15446895 0.11042591
256 -0.25026628 -0.18930689 0.20367534 0.29258996 0.16498308 0.2919926 0.25623605 0.19818263 0.2532447 0.33728242 0.27872798 0.20686814 -0.08114064 -0.2017045 -0.3113391 0.23069443 0.20209248 -0.10044517 0.27228057 0.25099903 0.24122855 0.26233724 0.30241752 0.18018389 0.19832796 0.27694017 0.28164384 -0.16870698 0.21274899 0.24867572 -0.25658625 0.14976043
58 -0.24652375 -0.28410769 0.18926388 0.29680246 0.11005127 0.21826757 0.35098666 0.19914013 0.24066576 0.10349002 0.32340464 0.29133508 -0.19012524 -0.34688896 -0.3443649 0.19976306 0.25932497 -0.05661127 0.060864788 0.2603522 0.35262465 0.29280218 0.20555013 0.26018313 0.27598542 0.2228043 0.24963403 -0.17040952 0.275829 0.31457344 -0.29237264 0.2488685
258 -0.09738117 -0.18079379 0.131371 0.1421232 0.06585435 0.1431343 0.11116027 0.102433905 0.14558795 0.110069126 0.11284011 0.11845526 -0.08989686 -0.1324871 -0.15942557 0.10908679 0.104210675 -0.009353682 0.1015312 0.15253288 0.062556565 0.12906554 0.11850622 0.19068217 0.15623012 0.096833855 0.12122027 -0.11562112 0.07376456 0.19717541 -0.17602511 0.12981075
165 -0.2878772 -0.19213195 0.34746584 0.08874995 0.32495457 0.3113773 0.09031356 0.290763 0.32477045 0.0026443878 0.2697929 0.2913697 -0.28534842 -0.31536373 -0.22077924 0.24588911 0.3437683 0.030484641 0.019572835 0.19322434 0.31171352 0.25364038 0.32129765 0.35398236 0.38936287 0.33337197 0.31628478 -0.2709089 0.2969721 0.37153065 -0.20228356 0.27593395
259 -0.30834967 -0.24117957 0.3140214 0.15170874 0.25173938 0.21097918 0.1320212 0.12627342 0.26229113 0.0841133 0.33731455 0.35246572 -0.31510222 -0.3206622 -0.24077408 0.18572335 0.36503148 0.1446586 0.035445828 0.15987194 0.2826925 0.32920823 0.28229287 0.3703214 0.37851134 0.2516267 0.38857555 -0.26720038 0.3093696 0.46298677 -0.26832378 0.18685661
263 -0.23750828 -0.26266342 0.21396728 0.35789764 0.062036615 0.20433679 0.28376988 0.22691269 0.2634071 0.18981117 0.271174 0.22939329 -0.12838276 -0.30506533 -0.21829575 0.24377549 0.19959807 0.059543997 0.029802915 0.18494314 0.32406688 0.42370838 0.3441528 0.20929644 0.22749385 0.20449463 0.22253372 -0.24802114 0.24298492 0.34244058 -0.23315687 0.18186408
268 -0.18696828 -0.13921495 0.24551018 0.1619445 0.21712412 0.1383514 0.18769397 0.1935756 0.26119366 0.268319 0.23129943 0.19347934 -0.23935573 -0.16588826 -0.13890453 0.103197254 0.17908092 0.13149522 0.12954952 0.20252816 0.19179116 0.18029925 0.1209584 0.13667051 0.1786979 0.21093662 0.16737755 -0.12998308 0.1488528 0.14262187 -0.14659178 0.22832157
270 -0.23290123 -0.25379845 0.27352706 0.21787483 0.091921195 0.33778274 0.292261 0.25266933 0.2874935 0.14394635 0.21992661 0.15594809 -0.21497703 -0.18310782 -0.19864637 0.2620615 0.13078287 -0.07115519 0.2739509 0.16505024 0.26887324 0.24483682 0.1666917 0.20905158 0.149967 0.2194321 0.18602082 -0.28503236 0.16095868 0.21828763 -0.20645738 0.20017791
271 -0.27457905 -0.24999067 0.2949554 0.21226718 0.38101378 0.1935972 0.16565491 0.37085018 0.25978276 0.04186042 0.2291529 0.29014152 -0.17678443 -0.3281653 -0.28275052 0.25960156 0.09932894 -0.12515098 0.13745683 0.18206751 0.28051016 0.24418196 0.1772182 0.16408034 0.2225772 0.28866425 0.23803996 -0.22162735 0.22268417 0.31523627 -0.2158732 0.29253474
274 -0.24640866 -0.29492918 0.3054387 0.24615349 0.2363344 0.19244106 0.21412525 0.16488086 0.24749269 0.12314206 0.19718713 0.1607236 -0.09975137 -0.21342507 -0.29805845 0.23026365 0.22203071 0.06570683 0.15886039 0.23167896 0.17040792 0.1941681 0.2137762 0.21002185 0.1927883 0.20241529 0.2457435 -0.22154418 0.2676179 0.21711938 -0.30245772 0.22683892
279 -0.20465595 -0.24136418 0.2357483 0.13561842 0.25437063 0.22308047 0.11419787 0.20801486 0.24965101 0.26082078 0.2245282 0.24631605 -0.2047874 -0.259992 -0.16666019 0.24909806 0.24776074 -0.12989517 0.120641164 0.18987666 0.24039687 0.24481031 0.19762787 0.17665479 0.24260055 0.20551881 0.30422032 -0.27096936 0.32149014 0.24705328 -0.14872639 0.17968166
291 -0.10649053 -0.18947847 0.115179375 0.17216565 0.13500074 0.2025027 0.1833586 0.11300197 0.12531681 0.072942756 0.19208865 0.16919751 -0.18433328 -0.09613813 -0.17403525 0.14838868 0.14327832 0.050020713 0.12573926 0.14561756 0.20085508 0.13134749 0.089948 0.1710289 0.19095936 0.11749796 0.1627211 -0.09647668 0.104944944 0.17913665 -0.0904398 0.18963875
101 -0.19778526 -0.1311681 0.14857143 0.17175865 0.0814704 0.20175321 0.13760266 0.123127766 0.1784526 0.042288836 0.1198569 0.12672025 -0.07915949 -0.22191976 -0.10122561 0.14801264 0.072538525 -0.016525723 0.098233566 0.19237682 0.13248956 0.17325038 0.17815429 0.1311505 0.16774566 0.1875875 0.1678031 -0.14272207 0.0876537 0.16592482 -0.16565342 0.13043837
310 -0.23094046 -0.1644138 0.15752327 0.13177425 0.08436515 0.19016878 0.11654547 0.1360169 0.25314596 0.12197306 0.18163632 0.20384492 -0.13092533 -0.15892808 -0.21055432 0.13453335 0.17901385 -0.052098047 0.06963894 0.18042998 0.17946434 0.17738989 0.18798433 0.08304458 0.22670674 0.22695723 0.20727047 -0.2192161 0.15155198 0.19391115 -0.19354199 0.17669097
311 -0.19468273 -0.18533723 0.18751214 0.094097115 0.1448106 0.17494081 0.17068031 0.25528193 0.13573593 0.30642346 0.16830279 0.20995846 -0.106014945 -0.19511873 -0.16311347 0.12398977 0.14611539 0.035742544 0.19174127 0.10204835 0.10516803 0.13881387 0.21744484 0.16972187 0.21490417 0.19028226 0.17643693 -0.24155942 0.110803954 0.16132763 -0.22804664 0.200504
313 -0.15787941 -0.17960839 0.32450023 0.16322742 0.14461973 0.18210621 0.20171912 0.19023973 0.18048841 0.02588637 0.15900923 0.15051067 -0.16332819 -0.15644719 -0.18212311 0.13104154 0.20760338 0.095949925 0.22543852 0.16569108 0.20072937 0.29131407 0.13604328 0.20594135 0.29138634 0.29898092 0.25894073 -0.25755945 0.13190934 0.29042524 -0.23352723 0.22831029
301 -0.18589641 -0.2654804 0.29190415 0.17919227 0.2701227 0.19186822 0.092176884 0.23315594 0.38319042 0.32625082 0.19675456 0.39048818 -0.31466067 -0.3023169 -0.27057838 0.2929189 0.24917902 0.11870607 0.32884842 0.17625155 0.25688758 0.2576926 0.1258233 0.12164183 0.2994007 0.25412333 0.26814696 -0.2628391 0.2207863 0.24565473 -0.31357425 0.33466038
314 -0.08612222 -0.14040211 0.13497561 0.10281692 0.1086762 0.124800004 0.034794506 0.17333116 0.13267823 0.12527284 0.10542972 0.13543566 -0.14399529 -0.10786373 -0.13487019 0.11718884 0.10759147 0.028081043 0.13935772 0.07405477 0.09298891 0.0601521 0.05344157 0.056861572 0.13727947 0.12194645 0.08544988 -0.15561603 0.15661797 0.08454626 -0.15904567 0.14355755
315 -0.16744402 -0.19857237 0.10516075 0.15902944 0.16131358 0.112096086 0.15014228 0.21576571 0.20599732 0.076569155 0.19219138 0.13568246 -0.23204774 -0.1590852 -0.14272194 0.23417652 0.1819131 0.025580283 0.067851 0.20953786 0.2014714 0.1836529 0.21956001 0.20841661 0.15263765 0.079811856 0.11436962 -0.09621429 0.23923749 0.24474248 -0.13364235 0.11679305
316 -0.16455068 -0.25695115 0.24048808 0.25960723 0.21488199 0.25547755 0.1743368 0.16286583 0.29034016 0.19683231 0.23477872 0.25359786 -0.19287957 -0.24273284 -0.26058364 0.1851508 0.11736642 -0.12301107 0.24136999 0.25220135 0.3269459 0.21859226 0.34649166 0.2453878 0.27815074 0.34397444 0.25743467 -0.21392447 0.21873221 0.24316807 -0.2999469 0.21040289
97 -0.19320288 -0.31892005 0.23150644 0.18579264 0.22261277 0.23804085 0.20149761 0.26637435 0.3155145 0.16328721 0.23287271 0.4043349 -0.15580703 -0.30481872 -0.32633352 0.1981156 0.22177753 -0.12922722 0.34457877 0.2519993 0.26736772 0.1943121 0.20748138 0.21849778 0.296896 0.32485822 0.2584611 -0.30756202 0.25805703 0.33760244 -0.3120213 0.3137169
320 -0.19471437 -0.24445118 0.23450927 0.1760747 0.27109745 0.28472912 0.24320306 0.16734192 0.2962677 0.3041255 0.1785293 0.31361738 -0.09580128 -0.24655229 -0.3954565 0.13505688 0.2634124 0.114773005 0.13577199 0.28872478 0.18121596 0.24689741 0.2110232 0.11429918 0.24306005 0.32210124 0.33350867 -0.21147284 0.30207264 0.2953402 -0.28756598 0.34740037
323 -0.29690278 -0.21437356 0.29604343 0.14372206 0.33168826 0.31231222 0.16118717 0.25897238 0.34170842 0.06460491 0.30522478 0.29604524 -0.2015644 -0.29557508 -0.15527816 0.16392101 0.30350244 0.08140992 0.08157735 0.199417 0.2810572 0.29350728 0.14318377 0.3030935 0.29833454 0.19798616 0.35693368 -0.25428954 0.24709241 0.26893672 -0.22917914 0.12901
88 -0.22298583 -0.18918279 0.24446794 0.19705382 0.17944728 0.24623354 0.29493362 0.16817635 0.1540264 0.16099763 0.16928242 0.2479438 -0.2004508 -0.25752312 -0.2664416 0.20651814 0.25336787 -0.169268 0.21820574 0.26291227 0.26916242 0.24341081 0.2780103 0.29149073 0.27094805 0.22130713 0.2329854 -0.1518761 0.20745817 0.25497442 -0.19197299 0.22056344
333 -0.1920581 -0.29493535 0.280469 0.38158977 0.31346557 0.25843433 0.2723398 0.19361426 0.32581702 0.24738674 0.32535005 0.39768767 -0.26537475 -0.33226272 -0.32664496 0.18760802 0.18822375 0.1412678 0.123522095 0.33744413 0.3397385 0.31964582 0.32470182 0.2810433 0.27649397 0.28874764 0.37797588 -0.21987502 0.29770944 0.39704987 -0.25000408 0.25906095
239 -0.09400175 -0.14427535 0.17329621 0.18136021 0.13540238 0.12577483 0.18501662 0.1368602 0.1176723 0.15607108 0.1459245 0.13257523 -0.17682989 -0.16119099 -0.15586472 0.013354629 0.18757221 -0.062560156 0.13273983 0.15403685 0.121397264 0.15487753 0.19907485 0.20271337 0.16345097 0.15157278 0.10579091 -0.10314578 0.17985725 0.13886502 -0.147019 0.19298011
280 -0.14541364 -0.21682419 0.23186976 0.22372566 0.14227639 0.24009304 0.25743827 0.26117694 0.17485566 0.2275189 0.27314332 0.23049599 -0.19851999 -0.20622309 -0.2508292 0.15309073 0.22192335 -0.023631614 0.07981559 0.18128888 0.20646806 0.18623118 0.20406085 0.20822 0.20970269 0.1409548 0.14412685 -0.1046333 0.19624175 0.17413527 -0.21464765 0.21134421
338 -0.15098968 -0.30544764 0.33277443 0.30153087 0.29267132 0.26237822 0.30834663 0.3341474 0.31689644 -0.01094703 0.21598712 0.21909536 -0.17664753 -0.33986503 -0.20466661 0.12566306 0.16023321 0.11584745 0.15038171 0.22169256 0.18626986 0.23887755 0.24739319 0.25133884 0.31439412 0.35386696 0.30138126 -0.3401041 0.16440685 0.3411208 -0.40733337 0.16787179
174 -0.24664058 -0.32725474 0.31168577 0.13350837 0.21243992 0.34567845 0.24710229 0.30082104 0.32135472 -0.040323835 0.2810222 0.3146798 -0.050362915 -0.32408288 -0.28377444 0.23089032 0.21772626 -0.41756168 0.20462315 0.2603749 0.253994 0.33245733 0.2832742 0.31551367 0.36123264 0.31271777 0.369934 -0.22292951 0.22190198 0.35079616 -0.33276996 0.25010625
340 -0.23890084 -0.21074654 0.18667138 0.09487902 0.1171113 0.15547726 0.21081519 0.12265101 0.11062076 0.08434589 0.19700763 0.1755966 -0.20508017 -0.23315832 -0.16988863 0.22611272 0.16532418 -0.045466863 0.1675268 0.20843142 0.18710354 0.23152 0.22445026 0.23795679 0.16279417 0.17435661 0.2561491 -0.15869029 0.17408451 0.21076697 -0.18279676 0.15934013
282 -0.10452398 -0.13155428 0.21691462 0.09465648 0.15135449 0.25764498 0.16952617 0.18554375 0.17382018 0.082795255 0.24134399 0.20536722 -0.3092022 -0.15659314 -0.12910247 0.22147462 0.1766235 -0.1686289 0.16707686 0.16593592 0.2073978 0.21443197 0.08557131 0.14279553 0.17119335 0.1809631 0.19097936 -0.11508148 0.13626157 0.15956916 -0.20856658 0.12851451
341 -0.28406045 -0.18230508 0.31741148 0.24579445 0.21092969 0.33660218 0.17233843 0.27718008 0.2513117 0.1516587 0.23457457 0.29393303 -0.23262782 -0.22901763 -0.24058203 0.26512933 0.2707465 0.020518446 0.2133236 0.21993497 0.25350738 0.33323368 0.22905405 0.2636631 0.27152118 0.30049443 0.33805022 -0.15139222 0.23808222 0.26051593 -0.2958131 0.14833935
155 -0.24202769 -0.22065307 0.2201353 0.17251676 0.1252613 0.25350285 0.18039031 0.13754305 0.18824494 0.12130978 0.09845095 0.19225435 -0.044538632 -0.2300094 -0.21098608 0.15849832 0.08476819 -0.10625174 0.09803692 0.18070896 0.14223737 0.23386134 0.24732643 0.25891244 0.20926967 0.1918957 0.27290085 -0.22211803 0.19290161 0.1634046 -0.17088455 0.23791994
342 -0.25968942 -0.22765653 0.21787259 0.23763019 0.16650777 0.31056646 0.3176844 0.22642636 0.19683455 0.1149848 0.2678635 0.24789365 -0.15331209 -0.27053607 -0.30427048 0.28186774 0.24136405 -0.10366672 0.04147268 0.23693976 0.28180778 0.35190058 0.32145435 0.28935513 0.27359197 0.24095845 0.3029929 -0.19286032 0.27481166 0.29749787 -0.2935666 0.22135054
347 -0.22242811 -0.27065596 0.21520995 0.1243377 0.15696529 0.27637523 0.21983422 0.21025167 0.24208482 0.12594976 0.2012473 0.2272265 -0.13434663 -0.24128364 -0.21340548 0.23862971 0.22705416 -0.11831478 0.19211364 0.2956305 0.24973033 0.26160607 0.17343004 0.2044278 0.17698024 0.2213555 0.23707327 -0.2569922 0.15879755 0.24356024 -0.19542688 0.17511185
355 -0.18474048 -0.20951267 0.30952415 0.24831213 0.17698628 0.14937896 0.27821198 0.17869134 0.22232942 0.20263006 0.24810597 0.31518373 -0.27008143 -0.34363368 -0.22916996 0.17973594 0.14383505 -0.10501868 0.09868715 0.2561713 0.23015146 0.28525797 0.25537682 0.2107051 0.28004017 0.18468222 0.2633437 -0.23783502 0.30006573 0.19959114 -0.19616455 0.21987072
356 -0.2712531 -0.24008833 0.26821777 0.1997768 0.27194372 0.26883408 0.19008735 0.20238523 0.2601522 0.300306 0.26923603 0.31315857 -0.21904275 -0.25163192 -0.21667793 0.34845522 0.19038805 -0.040600788 0.14069174 0.13465971 0.26829794 0.2309793 0.23167281 0.24447823 0.3284791 0.1638497 0.32375643 -0.14594139 0.20205909 0.27758795 -0.2666381 0.18280172
357 -0.26565856 -0.23787217 0.25240895 0.09627713 0.26396975 0.16084616 0.20525585 0.118821874 0.2371762 0.25482395 0.20269004 0.3633601 -0.14492819 -0.20194077 -0.32452175 0.24576835 0.1200632 -0.11426015 0.22416008 0.26230624 0.22750984 0.26693696 0.24595824 0.13490431 0.17645964 0.24822193 0.19102295 -0.31554765 0.29908386 0.27813208 -0.22698684 0.21862441
171 -0.2323143 -0.23489372 0.2599673 0.20211123 0.116437525 0.28789008 0.13509506 0.23416728 0.23838612 0.20746702 0.29893914 0.2809938 -0.15487614 -0.24511768 -0.23108478 0.1670913 0.17095827 -0.26550373 0.25099996 0.15850048 0.17329074 0.23841442 0.24860601 0.26740858 0.26702815 0.2662191 0.21395881 -0.22395588 0.16189237 0.33260214 -0.18201345 0.29808468
359 -0.16878887 -0.13181314 0.059227165 0.0783525 0.04769632 0.16453671 0.04868924 0.108359076 0.070329845 0.07266292 0.119116634 0.13414556 -0.04583543 -0.099607356 -0.07490988 0.04667748 0.027384473 -0.049072802 0.10887876 0.08931378 0.052689195 0.051760543 0.10735424 0.18824457 0.08455429 0.06853398 0.048295286 -0.06873322 0.061953485 0.1385971 -0.057942826 0.13843739
360 -0.17064771 -0.20258957 0.19998252 0.17317148 0.12890163 0.21993393 0.16923179 0.13546567 0.16808622 0.032371644 0.14028305 0.17978564 -0.10502195 -0.15677446 -0.1403062 0.1356415 0.20153092 0.008083079 0.2126067 0.18863097 0.2853412 0.16562498 0.14610894 0.18082736 0.18959758 0.15848255 0.15910058 -0.25593206 0.2058246 0.28296494 -0.22181325 0.13809004
147 -0.12454203 -0.11967329 0.1442291 0.10442739 0.089759685 0.12052494 0.12840238 0.06302468 0.12916385 0.05894722 0.12597498 0.125196 -0.11186209 -0.16276717 -0.19357876 0.11338036 0.24089982 -0.035875447 0.22000743 0.08302018 0.15681332 0.12213382 0.10904876 0.043585278 0.15863675 0.0797446 0.19991186 -0.13239047 0.13144062 0.120648526 -0.1490989 0.121694185
362 -0.25989807 -0.2617059 0.2865006 0.21164164 0.14876479 0.23948517 0.26582637 0.2044911 0.3253307 -0.06744682 0.254139 0.3314041 -0.079019755 -0.31542188 -0.2931687 0.26794976 0.19764464 -0.23453298 0.13529949 0.30336264 0.26962346 0.34310323 0.27211952 0.27810732 0.37890014 0.27740678 0.3667747 -0.28220323 0.27106324 0.34134284 -0.32238272 0.34183058
210 -0.21247663 -0.28196046 0.23268698 0.229142 0.08313332 0.23464909 0.32964656 0.19594344 0.1876874 0.09441214 0.24880823 0.29322237 -0.11215641 -0.31915498 -0.2862925 0.26408565 0.23503694 -0.11766278 0.14911424 0.22239508 0.25644338 0.27751794 0.3187777 0.24693218 0.2888834 0.19337152 0.3580392 -0.23089993 0.28723803 0.22581232 -0.25117087 0.14756224
237 -0.1435176 -0.2403363 0.21288402 0.15011682 0.17417365 0.21325529 0.14445986 0.06434008 0.20053068 0.07003568 0.17997327 0.16902938 -0.18233308 -0.20211546 -0.19899704 0.20992863 0.19290477 -0.046623368 0.18272124 0.22123478 0.19214904 0.25047573 0.22322625 0.16681382 0.22888136 0.2120174 0.22050115 -0.22229524 0.20751484 0.20129937 -0.2181259 0.21700586
364 -0.09130657 -0.10014275 0.08826233 0.1643442 0.038953956 0.14622824 0.09701544 0.15574554 0.17858785 0.0794459 0.098045245 0.1406501 -0.106168844 -0.14347531 -0.22467235 0.14940387 0.08219071 -0.054709673 0.1020223 0.14336017 0.09904144 0.12594143 0.09996131 0.12953699 0.1651389 0.12955533 0.1415485 -0.15998237 0.18480678 0.15912108 -0.10753517 0.12972572
156 -0.28273827 -0.27121204 0.29613122 0.29665062 0.24885736 0.22062603 0.2098585 0.2146063 0.18686455 0.18167444 0.23774518 0.267557 -0.115131244 -0.31449947 -0.28223744 0.19800588 0.20962822 -0.093522936 0.22696505 0.21651407 0.24783444 0.31733966 0.271238 0.2180095 0.19852588 0.23151292 0.254979 -0.23410065 0.19595091 0.25004512 -0.27012983 0.14975333
365 -0.28890517 -0.2058093 0.26517406 0.23237602 0.2527696 0.3095246 0.21530464 0.21471795 0.21797699 0.20973106 0.32823136 0.31580305 -0.11506769 -0.3260296 -0.37426203 0.15908694 0.2818921 0.059101693 0.19333862 0.28135237 0.22899584 0.28642958 0.27458817 0.15625842 0.29814833 0.32478532 0.3369988 -0.2459872 0.24261867 0.3214915 -0.30584434 0.40691307
371 -0.28533486 -0.26518342 0.2592864 0.13333756 0.25356832 0.25752267 0.23146814 0.31544644 0.3760538 -0.034463145 0.3852493 0.3394992 -0.29088733 -0.3407195 -0.19854231 0.22912532 0.27645776 0.09722797 0.034021784 0.22906776 0.26758975 0.33621287 0.33187497 0.2952985 0.39445153 0.29396456 0.35198376 -0.29794773 0.35545057 0.37298235 -0.26217118 0.16920647
293 -0.1884538 -0.2001609 0.21749657 0.21762316 0.21802533 0.11873138 0.11632309 0.2593608 0.2755863 0.0068729036 0.17879891 0.27289528 -0.3401914 -0.23180373 -0.30442858 0.23361036 0.41137704 0.06998341 0.014227019 0.19226235 0.17408127 0.17880574 0.30763757 0.27823645 0.31665042 0.23034655 0.22986493 -0.20327903 0.29609162 0.21273787 -0.20721918 0.2521891
372 -0.19257256 -0.18286362 0.15902549 0.26425317 0.19538762 0.20362636 0.14546052 0.18142204 0.20279542 0.091290556 0.23210172 0.19842234 -0.20946205 -0.22015251 -0.22442408 0.30165297 0.22475109 -0.048025843 0.23075357 0.19899762 0.19898564 0.24400826 0.17621142 0.18604706 0.24989252 0.1946585 0.21537507 -0.20149179 0.12687057 0.27330798 -0.15403433 0.22471394
379 -0.080725595 -0.110555165 0.10130117 0.039697517 0.11882469 0.08119753 0.06265913 0.11063774 0.11930845 0.13957965 0.11521203 0.12210503 -0.142235 -0.10065087 -0.16218217 0.116799325 0.11247562 0.028320612 0.112265676 0.08794292 0.1252973 0.0965942 0.052879106 0.09498254 0.128012 0.12493701 0.07804171 -0.14086543 0.13532405 0.062628195 -0.116325036 0.15816136
382 -0.17290275 -0.17276685 0.16229565 0.12810567 0.11081476 0.1406284 0.19253083 0.16171496 0.23743947 0.118311994 0.16307545 0.081290215 -0.19955437 -0.17677698 -0.15382463 0.18008122 0.16902158 0.019436572 0.06144507 0.15466507 0.18733732 0.20450819 0.24911068 0.16377173 0.23926727 0.10465705 0.14966895 -0.16412209 0.21195371 0.18213113 -0.18767656 0.0999376
96 -0.15140799 -0.16290195 0.12892492 0.20037483 0.1565359 0.17072436 0.18438944 0.15311033 0.15950838 0.089580856 0.17208573 0.14456317 -0.12758748 -0.121556185 -0.16388376 0.13504599 0.15505633 0.00015967485 0.16283205 0.17223494 0.12431006 0.10985369 0.11240884 0.116306506 0.13581403 0.1604988 0.09284565 -0.15395081 0.1630561 0.15393835 -0.13170788 0.060957998
411 -0.19469282 -0.2949738 0.198782 0.25539064 0.16731161 0.17663029 0.2874382 0.17943329 0.21991488 0.13401498 0.29906505 0.20227535 -0.1394566 -0.21306786 -0.21210614 0.19204825 0.21787912 0.009410766 0.11299309 0.2268787 0.20752221 0.17734262 0.23529565 0.17795017 0.26311344 0.20565866 0.18585718 -0.24796233 0.29757044 0.24439052 -0.28842244 0.065660544
72 -0.07592652 -0.12811233 0.18784676 0.086992025 0.11665037 0.14707978 0.09407558 0.21061982 0.20112531 0.044874594 0.1078243 0.19541386 -0.094156705 -0.17290474 -0.13643536 0.18117958 0.113134675 0.1445189 0.16068089 0.18260565 0.16705564 0.12864465 0.13240547 0.10905828 0.19237736 0.17484637 0.18066035 -0.1642818 0.16781144 0.15248843 -0.16179079 0.09538213
418 -0.10373145 -0.111454085 0.10721815 0.048698913 0.0686859 0.10709557 0.10155767 0.09052517 0.13579206 0.10721111 0.0908635 0.1057373 -0.10690985 -0.08537317 -0.12823771 0.1035374 0.08628677 0.10548075 0.08283317 0.13856156 0.072188884 0.086640656 0.14322591 0.09778439 0.098327726 0.12829211 0.122078136 -0.062255204 0.108818084 0.052270472 -0.15810731 0.047871146
421 -0.10935102 -0.119800106 0.12218905 0.13866982 0.2336155 0.17471178 0.23448615 0.06991765 0.11723796 0.22088699 0.12317195 0.14878437 -0.13824461 -0.1316823 -0.19920893 0.12233367 0.18816705 -0.012034222 0.16688648 0.1215911 0.18822674 0.1337539 0.16056988 0.112006344 0.13177599 0.14431743 0.15397435 -0.095704995 0.0925521 0.121086046 -0.19814396 0.17082666
368 -0.21883208 -0.3413501 0.37369183 0.2286044 0.3234479 0.34770456 0.24295717 0.024112994 0.24509405 0.22005272 0.36760125 0.30087778 -0.12049281 -0.3527178 -0.3601617 0.29738215 0.3433799 0.049867753 0.03107356 0.22032245 0.25348347 0.38258138 0.19746879 0.20916213 0.4141734 0.38515502 0.38153347 -0.35751083 0.2139511 0.39149997 -0.4864799 0.35640347
89 -0.193696 -0.28990182 0.18707485 0.119699426 0.11030378 0.2501665 0.10517545 0.21390562 0.19584195 0.16225111 0.23780543 0.2770983 -0.07365409 -0.20507249 -0.28367937 0.25135458 0.15500966 0.071287975 0.029677004 0.24170218 0.16451141 0.22649126 0.14707327 0.3363294 0.24931271 0.24615638 0.26531282 -0.17527026 0.25783736 0.2781246 -0.23063207 0.18174672
427 -0.20207466 -0.32601508 0.18647361 0.21973224 0.29893905 0.23657097 0.37820193 0.20003557 0.28498125 0.26002812 0.30632764 0.191357 -0.21376123 -0.27189076 -0.23428132 0.13687038 0.2328229 0.13087994 0.16563183 0.15741889 0.20951644 0.29917422 0.2592673 0.20344739 0.31559053 0.2412223 0.29364485 -0.18967883 0.29297343 0.30709627 -0.29619113 0.20716426
64 -0.18577297 -0.17461829 0.15565479 0.12942758 0.15963282 0.19439809 0.112420395 0.22347899 0.11721785 0.13168925 0.19310006 0.12400699 -0.12054092 -0.17642373 -0.1799123 0.30261764 0.1433678 -0.13582015 0.09391368 0.19740643 0.21071489 0.12377447 0.29591155 0.1930256 0.22937703 0.23695669 0.18909682 -0.24358821 0.15605456 0.157568 -0.14726138 0.10324002
428 -0.22041777 -0.25680548 0.21052223 0.23716316 0.2261547 0.2402165 0.23889366 0.11371198 0.2686158 0.12638663 0.18146454 0.2165701 -0.25503582 -0.20663705 -0.22289902 0.2626448 0.15509492 0.034589317 0.22279538 0.17165828 0.25440836 0.19669074 0.24298595 0.21531901 0.2769067 0.24739344 0.20469564 -0.22768494 0.24994971 0.20375356 -0.19486965 0.15087706
429 -0.103665516 -0.16092575 0.13002932 0.24736534 0.15343395 0.22017255 0.2787673 0.19010845 0.20661809 0.071999095 0.17636272 0.16159894 -0.19431402 -0.15662187 -0.17584662 0.19438972 0.18758169 -0.009263943 0.26173538 0.14866512 0.1831795 0.14089023 0.12484092 0.15607403 0.17724961 0.2005171 0.15419415 -0.15479936 0.118529595 0.18359207 -0.17319825 0.17724134
175 -0.18805104 -0.16637349 0.15965888 0.11680248 0.28634858 0.15018982 0.11048528 0.16636415 0.24039449 0.19569087 0.15998662 0.2176662 -0.12325403 -0.19206128 -0.2038264 0.18772101 0.2903758 -0.13751808 0.10721393 0.23309658 0.13939945 0.199853 0.099725276 0.04911657 0.20924182 0.16008972 0.26649153 -0.18985762 0.2679345 0.22380155 -0.20543455 0.20744428
434 -0.2400855 -0.202512 0.17051138 0.13455483 0.15333895 0.19134496 0.09898263 0.06222478 0.1642987 0.099592574 0.23547833 0.20732555 -0.1318826 -0.15313385 -0.21433632 0.14497277 0.10291075 -0.09227493 0.086256325 0.20109136 0.13219258 0.15209526 0.1377099 0.10278918 0.18468471 0.13688575 0.23722628 -0.120673195 0.21670157 0.19088219 -0.18992038 0.13554293
441 -0.245627 -0.18856174 0.2377172 0.1294131 0.23947932 0.15738072 0.12209359 0.0568001 0.22422262 0.21491104 0.19819713 0.23725326 -0.249273 -0.2625496 -0.15622479 0.17531663 0.22987129 -0.0009629243 0.20089331 0.13737433 0.25134626 0.20128047 0.15270115 0.1581852 0.23745702 0.19486931 0.23482774 -0.26528168 0.09928051 0.21806066 -0.14932081 0.16565341
442 -0.2263495 -0.26040328 0.2855752 0.15143852 0.26590225 0.25317723 0.21939902 0.15940693 0.3205666 0.216691 0.29565924 0.19048926 -0.28390053 -0.19905877 -0.1911991 0.23987183 0.19736159 -0.13104124 0.1266899 0.25943092 0.29895306 0.28174993 0.2777673 0.20123652 0.28655955 0.1513936 0.34679163 -0.25089362 0.27320892 0.31624836 -0.2808671 0.17153683
353 -0.13386498 -0.22569788 0.18671393 0.16707273 0.23436452 0.19477658 0.14431505 0.23722477 0.22916514 0.22360711 0.16089532 0.18943882 -0.16568257 -0.22542399 -0.18149255 0.114487275 0.23365241 -0.1259694 0.18003346 0.21452422 0.24061386 0.21002646 0.18476722 0.2233418 0.16242325 0.17621306 0.20180641 -0.26789993 0.20522685 0.27136475 -0.24023163 0.14381266
447 -0.22693154 -0.22801496 0.24063157 0.2992285 0.21203128 0.1891232 0.16798212 0.28025293 0.22618657 0.2985474 0.19091925 0.24603303 -0.11923616 -0.3246079 -0.18809585 0.19197409 0.2188397 -0.021320788 0.1281833 0.27527615 0.23027043 0.29220018 0.3082663 0.19535261 0.23245019 0.2969862 0.23482884 -0.17089848 0.24913643 0.23902453 -0.26865095 0.26459253
330 -0.111231 -0.15551183 0.17523561 0.13380784 0.13236041 0.1387471 0.081865415 0.13423973 0.12615216 0.16574787 0.16955933 0.110863864 -0.120063946 -0.18430303 -0.21907435 0.1635312 0.13963619 0.001635074 0.11855874 0.14351152 0.17538142 0.16984852 0.15910932 0.149042 0.13148686 0.23601364 0.22491373 -0.11989209 0.13539445 0.15808105 -0.17421006 0.124519154
450 -0.17976373 -0.25719526 0.18134584 0.22806975 0.1355521 0.15527737 0.18708162 0.22344196 0.2445837 0.18211344 0.25221673 0.1762286 -0.17908023 -0.18105617 -0.239255 0.19736171 0.116535895 -0.12643035 0.19635579 0.2624503 0.28799397 0.19325095 0.33025417 0.29378527 0.18961158 0.2399038 0.24297978 -0.18148781 0.18272236 0.2289501 -0.15190178 0.1699758
451 -0.21713272 -0.20932266 0.28632703 0.15548357 0.20995556 0.20892376 0.10637169 0.18959412 0.19856767 0.19986172 0.20675394 0.2475555 -0.1734437 -0.24634305 -0.167522 0.19451772 0.2340627 0.06117517 0.1846613 0.18252073 0.16464464 0.20340824 0.19762757 0.19901378 0.16509557 0.22555292 0.2502222 -0.2059999 0.18219337 0.22418733 -0.23658669 0.2111026
45 -0.17830257 -0.21024837 0.20692702 0.18014942 0.16886653 0.15675268 0.08407025 0.12350757 0.28756043 0.218498 0.23830591 0.23153988 -0.27057117 -0.19971913 -0.2872371 0.17797118 0.12427084 0.010879828 0.099648505 0.22834077 0.24611668 0.22947846 0.16404797 0.13028975 0.29400152 0.23455848 0.2182065 -0.20575611 0.16102338 0.21140829 -0.24939716 0.21052516
452 -0.1567685 -0.2248815 0.248594 0.21927178 0.117421225 0.18895933 0.24263926 0.16787498 0.26648426 0.17286293 0.2502215 0.28474873 -0.21756499 -0.22093832 -0.2718543 0.14383675 0.1813273 -0.025686376 0.10966183 0.25653028 0.29261032 0.29387027 0.20984903 0.21376307 0.32143542 0.24931791 0.23821461 -0.148792 0.16102728 0.21539341 -0.18422632 0.20783623
456 -0.13787585 -0.14636491 0.22255877 0.14467634 0.13968517 0.1740814 0.1456731 0.26485914 0.28168416 0.18758234 0.15461032 0.20819673 -0.05518301 -0.17534623 -0.19757406 0.19704361 0.10876671 -0.0285914 0.14635178 0.20291549 0.22723834 0.13644001 0.14580056 0.13606796 0.18765773 0.14466567 0.21299168 -0.22513583 0.28790668 0.14235204 -0.11496958 0.084692076
50 -0.20344307 -0.24610718 0.28841928 0.21689606 0.17281248 0.2580834 0.32331493 0.11612739 0.18021122 0.11971634 0.2852832 0.122755945 -0.16148865 -0.34772444 -0.23539062 0.26855978 0.25373238 -0.1499336 0.08959733 0.19650432 0.3611252 0.2286105 0.28133518 0.14131565 0.31918308 0.3070446 0.28447923 -0.16514876 0.22916465 0.26681337 -0.18716541 0.1908207
465 -0.30340996 -0.18978691 0.30912706 0.17531927 0.21166068 0.33000034 0.20523086 0.22127724 0.17063548 0.22370124 0.2508745 0.2340905 -0.3034721 -0.26051578 -0.1767493 0.2703029 0.23939481 -0.15044715 0.1928917 0.26615193 0.25565797 0.24400988 0.2884633 0.20156488 0.18929826 0.23785897 0.2295177 -0.25933543 0.13214536 0.24416061 -0.21441174 0.24923244
472 -0.2022485 -0.2104151 0.20254388 0.2896744 0.16561253 0.14988248 0.23000118 0.15131925 0.18902135 0.19908184 0.24654633 0.27150983 -0.19940339 -0.15669206 -0.2377182 0.23996212 0.2370628 -0.15052399 0.15960968 0.24391723 0.27183405 0.24319322 0.32994142 0.19157557 0.19320932 0.18566324 0.23026106 -0.22519001 0.18675077 0.17558575 -0.2388197 0.15912846
473 -0.13540718 -0.12402939 0.20235333 0.08362424 0.16974553 0.1065976 0.16964334 0.15904903 0.083263494 0.11220694 0.2165148 0.12080352 -0.03030716 -0.1452512 -0.11865416 0.11081966 0.13000737 -0.042685878 0.10078639 0.13428882 0.16336611 0.110627 0.12442367 0.114655025 0.2085397 0.20977409 0.1666612 -0.10456772 0.18021432 0.17792965 -0.12511483 0.17440794
474 -0.24266477 -0.25811762 0.25176057 0.27896225 0.26609734 0.22431272 0.18438472 0.21134381 0.18425566 0.115680374 0.2231725 0.24359283 -0.21024564 -0.28883418 -0.29929915 0.24341585 0.2883024 -0.06099276 0.14137189 0.2735256 0.24011122 0.29068813 0.3366455 0.24677426 0.2898642 0.31075945 0.2899598 -0.24520339 0.28357363 0.31171253 -0.22039472 0.16801402
318 -0.19454615 -0.21932653 0.2145357 0.17313673 0.12884367 0.1652877 0.17738888 0.2707392 0.22761367 0.16054912 0.2212237 0.26455554 -0.22327758 -0.16796514 -0.19891194 0.20733567 0.24891448 0.0028957818 0.21137773 0.23058887 0.255034 0.20425269 0.24881646 0.23192497 0.21190405 0.18295807 0.22993954 -0.2197062 0.19593957 0.18679027 -0.20154017 0.15343381
478 -0.33930957 -0.25478977 0.27751765 0.20601512 0.31518567 0.37692237 0.21222034 0.23996863 0.22779539 0.23849411 0.25335875 0.23071283 -0.24854022 -0.2614142 -0.2842906 0.20651336 0.2271069 -0.034824856 0.16991 0.20823579 0.2048035 0.22057703 0.27181506 0.16470656 0.26163635 0.21119443 0.22924577 -0.1602134 0.17174774 0.27262634 -0.28006402 0.28680083
232 -0.26169437 -0.22477965 0.22998111 0.22359975 0.23263644 0.22311153 0.11877665 0.15611291 0.19679214 0.093500905 0.25979656 0.26391712 -0.15596776 -0.2777826 -0.23821996 0.22314325 0.19216132 0.121551774 0.25048843 0.22705106 0.239017 0.24130537 0.23283885 0.22253539 0.17281583 0.23433807 0.22508122 -0.22135426 0.15376376 0.2659262 -0.17684513 0.14759608
479 -0.11016904 -0.26408088 0.23318718 0.17019524 0.17151597 0.20583028 0.18973757 0.07850986 0.2620935 0.07778676 0.32792822 0.31943047 -0.04119168 -0.24834353 -0.25654972 0.16598791 0.25111914 0.17904502 0.21061383 0.2712372 0.231806 0.21422634 0.21272425 0.22541992 0.21737328 0.14676344 0.29731506 -0.1504216 0.24918823 0.2999764 -0.23382577 0.051388625
481 -0.20674464 -0.25391868 0.31435707 0.20140573 0.20691398 0.20640226 0.18553431 0.17831294 0.25684786 0.15121298 0.21237645 0.23830731 -0.20969765 -0.34644517 -0.3139742 0.102210835 0.19357747 -0.082116134 0.15711471 0.20138258 0.27793416 0.24461353 0.33011505 0.18287352 0.22472097 0.26958105 0.26662928 -0.19418101 0.30113864 0.33497238 -0.30897647 0.24636982
363 -0.23010062 -0.25041148 0.34168726 0.28395742 0.19466999 0.27368414 0.21891724 0.2241524 0.2608204 0.1591397 0.28816935 0.2670453 -0.22263208 -0.34015182 -0.3049682 0.17793313 0.25331149 -0.14177647 0.21735297 0.21576394 0.27041024 0.2932862 0.31265372 0.35622498 0.294545 0.24647649 0.34580204 -0.1574471 0.29624838 0.2608768 -0.27595183 0.2439047
236 -0.14459138 -0.21351364 0.18453118 0.14870834 0.1342288 0.14770178 0.27156872 0.281463 0.15879448 0.17026833 0.21814558 0.24022081 -0.015530584 -0.16532527 -0.24277212 0.104109354 0.16539362 -0.22568494 0.13817614 0.17466539 0.19535683 0.22407486 0.18919258 0.20878267 0.13650355 0.17745993 0.15402669 -0.1330255 0.17882608 0.21328345 -0.16837603 0.1723731
487 -0.25535208 -0.263721 0.15203148 0.21408361 0.21758245 0.2404716 0.13298 0.24962047 0.2722773 0.1616982 0.28177106 0.25094214 -0.0829898 -0.24205732 -0.27902037 0.12918179 0.25485727 0.12753144 0.15443821 0.2580979 0.24133399 0.25111917 0.23521973 0.25146696 0.19974999 0.2543086 0.23911293 -0.1292497 0.24143313 0.2664431 -0.17998993 0.18597722
120 -0.15495193 -0.14397581 0.108165376 0.08626724 0.19176327 0.13367306 0.120895706 0.10948871 0.13117748 0.06514729 0.1817369 0.16187425 -0.15114678 -0.094288945 -0.1708809 0.062012084 0.09749902 0.00081793364 0.13788046 0.18590367 0.120421745 0.1610673 0.14472607 0.0971323 0.14165124 0.12510231 0.16974358 -0.09606251 0.13969703 0.11828195 -0.15943718 0.096351124
489 -0.26888877 -0.19220693 0.10448432 0.20062423 0.15476257 0.09027217 0.26500872 0.12144023 0.14459166 0.08952032 0.19543089 0.20421113 -0.09677208 -0.21940863 -0.116334 0.106857575 0.26548788 -0.010643848 0.1979086 0.13364823 0.1940478 0.21962193 0.22266787 0.19044635 0.1751692 0.17101294 0.16924807 -0.11594079 0.1821569 0.19721286 -0.20655765 0.18497561
490 -0.26963603 -0.2648264 0.2639122 0.25971645 0.18031873 0.19357757 0.1652513 0.2284417 0.30718693 0.24529774 0.29688004 0.21206467 -0.18022351 -0.28988042 -0.3081229 0.16587542 0.14162773 0.028549492 0.12682086 0.22084676 0.17891335 0.17955141 0.19743432 0.2838484 0.298809 0.20560694 0.28757796 -0.17246749 0.2146808 0.26209998 -0.27466664 0.2485637
495 -0.17215014 -0.28366405 0.23866975 0.2625745 0.18722259 0.14957912 0.088505596 0.18983926 0.21552446 0.22783168 0.19252557 0.1334631 -0.14085555 -0.16900268 -0.33019203 0.19075722 0.20857932 0.03263412 0.15533137 0.22831571 0.26145595 0.17181349 0.2057995 0.1704371 0.16736832 0.19647661 0.20630836 -0.16775978 0.30626586 0.25869486 -0.1407122 0.19708322
496 -0.15249197 -0.17518674 0.15381058 0.06793873 0.19134119 0.12038689 0.06254377 0.0916253 0.1673701 0.2392038 0.06418516 0.13033278 -0.16910449 -0.16429731 -0.21816082 0.13602567 0.123808146 -0.01479444 0.1641916 0.08533332 0.07838591 0.15815966 0.1174526 0.1443107 0.14930885 0.15354198 0.115909256 -0.11010925 0.20830254 0.11010922 -0.11932325 0.13176054
34 -0.03193426 -0.08635021 0.09764293 0.12452834 0.07832423 0.06095085 0.09498147 0.15985848 0.10289248 0.07632036 0.036710553 0.143992 -0.016209349 -0.14118476 -0.054217573 0.045665108 0.10655918 -0.025910566 0.030829502 0.07864668 0.08286048 0.044311218 0.07927291 0.13615133 0.073466435 0.16106385 0.110441335 -0.13717137 0.031072661 0.07369964 -0.11980756 0.14094496
498 -0.07838325 -0.12081973 0.13180383 0.10635652 0.12612166 0.076628976 0.09140687 0.13357142 0.12138981 0.07999208 0.04750905 0.14860007 -0.037966993 -0.116418794 -0.05497664 0.09209568 0.115600616 -0.083638884 0.10304222 0.093566 0.08734449 0.09584416 0.09220243 0.14013848 0.12213419 0.14821991 0.13794471 -0.14347097 0.087983355 0.088996604 -0.10606484 0.09891132
93 -0.109228455 -0.16133812 0.13306119 0.0928302 0.09773602 0.11976717 0.08478619 0.038780462 0.13715567 0.05703716 0.17730953 0.16563089 -0.10965926 -0.116479665 -0.12418578 0.072840065 0.14091212 -0.085815996 0.098095566 0.08430401 0.11903687 0.12800403 0.16463749 0.15507297 0.12453866 0.1319162 0.11725828 -0.06330359 0.08771179 0.14899494 -0.13209291 0.033310078
501 -0.17703742 -0.19215286 0.17398754 0.1545528 0.1266941 0.17510691 0.16055365 0.16251144 0.14528649 0.08011443 0.23446101 0.19083516 -0.11888169 -0.21688873 -0.19653367 0.08507537 0.1874272 -0.07703929 0.20820965 0.15978983 0.1631469 0.17180696 0.19933434 0.20864531 0.15835963 0.21401791 0.1352216 -0.13052323 0.20875533 0.17469095 -0.19833954 0.14170471
54 -0.23209359 -0.24712968 0.30288512 0.25803885 0.20776701 0.27179423 0.17587258 0.16258867 0.28909978 0.1903019 0.24567077 0.29265136 -0.26796502 -0.3512212 -0.3279 0.23334722 0.14521766 0.05790204 0.35923243 0.31849384 0.22624578 0.3346373 0.21973619 0.25862083 0.35094142 0.28803933 0.34944576 -0.149757 0.1760135 0.29334104 -0.35614952 0.19080584
507 -0.25436142 -0.34912765 0.26652983 0.21819955 0.17490433 0.22275537 0.14339027 0.19640955 0.2509079 0.107250825 0.31731588 0.29120576 -0.21722767 -0.41061538 -0.22371012 0.26052237 0.09338803 -0.13220501 0.20220678 0.28093576 0.30830264 0.2909885 0.24572475 0.29143068 0.23385072 0.25213686 0.37887013 -0.24173363 0.3003925 0.27718788 -0.22933921 0.24184823
491 -0.14000982 -0.2810853 0.25185153 0.26940057 0.19174431 0.32420176 0.20130862 0.15995008 0.3023931 0.2219773 0.21875969 0.21822438 -0.09382851 -0.31101868 -0.2602035 0.17847127 0.09299564 -0.079716004 0.116357245 0.24676889 0.14839104 0.26225528 0.18755907 0.25105098 0.16318049 0.2936454 0.25865567 -0.19374636 0.21472326 0.17101903 -0.27002367 0.17036432
407 -0.36585957 -0.28016388 0.30810416 0.23671687 0.32071203 0.29246426 0.15786931 0.16698729 0.30839372 0.25173193 0.2443031 0.33396065 -0.1609279 -0.30497023 -0.2661044 0.19744779 0.24911642 0.048561633 0.12902617 0.24392304 0.18400511 0.22659822 0.23689936 0.33554983 0.24145389 0.24438763 0.30496153 -0.1516884 0.30297256 0.32969716 -0.21236403 0.29645652
509 -0.2928107 -0.24249275 0.22766118 0.16005103 0.23637924 0.21060051 0.090482116 0.09805545 0.2239306 0.23191065 0.22577526 0.19794618 -0.28555125 -0.20015407 -0.11762914 0.21409667 0.25041914 0.16272794 0.17073163 0.20077722 0.1314165 0.22450365 0.17941207 0.24657255 0.17285909 0.17316091 0.24207425 -0.22096616 0.2115884 0.22757435 -0.1816902 0.24228705
188 -0.28735393 -0.20795622 0.19165269 0.20075302 0.21009035 0.27326247 0.25779966 0.13580005 0.15796582 0.21689112 0.15890934 0.193063 -0.20936783 -0.18866915 -0.2219737 0.19717997 0.2098586 0.07573427 0.13842784 0.2219957 0.22651923 0.1978358 0.1884214 0.19420877 0.21449062 0.18888642 0.21567766 -0.22373879 0.21925542 0.24328141 -0.16831616 0.13334645
525 -0.25565246 -0.16101077 0.3393667 0.21648586 0.11940862 0.3116903 0.13696064 0.1227916 0.25393912 0.2971679 0.29470545 0.27669418 -0.21940234 -0.264886 -0.30912414 0.21917956 0.1545614 0.11464233 0.13239479 0.21306403 0.27737924 0.33958462 0.1613898 0.24290328 0.252643 0.24494845 0.32747704 -0.15824826 0.22774296 0.32855833 -0.23263678 0.2938454
526 -0.29925942 -0.3563989 0.3292272 0.2521189 0.08467135 0.3692049 0.21344176 0.36974964 0.37279865 0.070560694 0.25568658 0.28339365 -0.25618085 -0.3299155 -0.25489867 0.2998333 0.19258551 -0.08687075 0.29529366 0.34307626 0.225484 0.34512144 0.1448537 0.19095245 0.28688005 0.3278205 0.35007632 -0.36041948 0.13129668 0.27011272 -0.3792104 0.17238213
533 -0.1132703 -0.15702328 0.19023295 0.064161874 0.15100005 0.15798251 0.0803408 0.113118485 0.100312606 0.19419044 0.109294966 0.14039862 -0.107416146 -0.1509228 -0.17939186 0.17873631 0.10740816 -0.027488863 0.16692019 0.10349558 0.12738833 0.09321722 0.10537227 0.10596544 0.11751432 0.14596485 0.15460137 -0.16693927 0.14230761 0.1411297 -0.16917133 0.2555676
536 -0.2931291 -0.25627035 0.26163 0.23625018 0.14446765 0.24733138 0.15890035 0.31167507 0.33430967 0.30886245 0.28565475 0.2696182 -0.30107975 -0.37844715 -0.3283655 0.13791299 0.17922455 0.123797365 0.12682006 0.29339066 0.25153276 0.31722555 0.26424932 0.2884615 0.19813737 0.27308223 0.34914187 -0.19748363 0.29639453 0.28534442 -0.25390977 0.3175649
298 -0.19405532 -0.13027333 0.1395958 0.1706449 0.15919453 0.15825883 0.16533853 0.13179387 0.12522246 0.20680754 0.1864744 0.11132407 -0.18736492 -0.20090131 -0.23920377 0.19884062 0.12509412 -0.032580353 0.075193755 0.21589577 0.20294724 0.16919275 0.16291912 0.12192285 0.13415632 0.22816034 0.15372172 -0.11362472 0.19107793 0.11562054 -0.096909575 0.21768542
523 -0.13184099 -0.23330735 0.24415305 0.17099865 0.23268189 0.117312185 0.17334971 0.19256459 0.26678443 0.21489386 0.15115313 0.12679844 -0.27526549 -0.1963286 -0.17897506 0.10830161 0.14521798 -0.04367476 0.12120623 0.1970295 0.2111217 0.1982483 0.19392523 0.2291505 0.18187357 0.20693427 0.235059 -0.19519082 0.28740054 0.26929772 -0.2519964 0.21951082
545 -0.27145284 -0.22716644 0.29789734 0.23922859 0.22814724 0.21893638 0.22961488 0.23031566 0.3223796 0.06696474 0.3869913 0.22669259 -0.09127835 -0.342323 -0.25126904 0.25500527 0.14448532 -0.11822929 0.23157613 0.26238555 0.3233918 0.198542 0.35180706 0.2575329 0.3156599 0.30441806 0.35179853 -0.3469601 0.22435443 0.32155117 -0.3302403 0.22083265
374 -0.23724945 -0.2039942 0.22296204 0.33302107 0.1389598 0.29144415 0.18200251 0.27990717 0.21404575 0.116607286 0.21035391 0.19146648 -0.21568935 -0.19899961 -0.2149299 0.19226387 0.1653182 -0.060923178 0.06274462 0.20302013 0.24172054 0.15027238 0.3094051 0.20686206 0.28968188 0.2812829 0.21049556 -0.26528725 0.24439122 0.2384542 -0.28209463 0.1931454
436 -0.28158012 -0.27248082 0.29977593 0.29920223 0.22498037 0.2652396 0.2244574 0.21858443 0.30047008 0.16312525 0.22210272 0.28504592 -0.17543404 -0.2919531 -0.22614922 0.16480991 0.101603605 -0.1981266 0.24592723 0.20135736 0.22406486 0.23430854 0.22779697 0.25770435 0.26776108 0.25394917 0.25554138 -0.27332133 0.318332 0.26960057 -0.27599123 0.20034505
446 -0.14172223 -0.13887396 0.10376054 0.16106462 0.13845165 0.12649083 0.09350967 0.10616685 0.14385374 0.094725646 0.1529282 0.09890235 -0.1511044 -0.07652834 -0.1263313 0.080212824 0.17444707 -0.08141969 0.14051096 0.10523528 0.12684348 0.11112578 0.112265915 0.12174333 0.102126196 0.08230002 0.15276892 -0.091978945 0.1275845 0.123554 -0.14129914 0.1524765
551 -0.18542269 -0.2653257 0.14309774 0.303703 0.24330461 0.22702347 0.23539816 0.15473889 0.25739586 0.14503363 0.24415061 0.2662748 -0.14989471 -0.22074065 -0.19301915 0.13254265 0.23806553 -0.07206324 0.07825018 0.2109651 0.24011068 0.23268978 0.24909918 0.25063404 0.2457068 0.20559071 0.2581543 -0.12563105 0.24558684 0.23315406 -0.25340825 0.20662707
514 -0.18693757 -0.31478643 0.28889978 0.20850934 0.1477213 0.32132408 0.26037318 0.2442384 0.22828005 0.20394933 0.30491257 0.2953929 -0.22912174 -0.23398994 -0.26104042 0.18867125 0.2539481 -0.22101416 0.21581182 0.182236 0.26889095 0.31965303 0.240275 0.27081615 0.2540844 0.2747265 0.2245332 -0.23712674 0.24888878 0.34364495 -0.33802217 0.26070952
555 -0.2597667 -0.24394497 0.34082302 0.16427638 0.15916613 0.37398088 0.23434208 0.31288344 0.31100446 0.082573295 0.24114479 0.20597231 -0.18589175 -0.25059113 -0.21749936 0.22313389 0.20846608 -0.07190415 0.25376534 0.23158967 0.17811948 0.236727 0.2502386 0.23456375 0.2698901 0.31156063 0.2890383 -0.22910674 0.17165606 0.21823274 -0.3258096 0.1833255
182 -0.19650295 -0.12844193 0.1609194 0.20925784 0.18345238 0.17976265 0.17408504 0.22084588 0.17145453 0.09818646 0.13940461 0.15441528 -0.12250255 -0.14014176 -0.15132394 0.23957956 0.2020504 -0.050537247 0.12656315 0.10514669 0.13289219 0.16295737 0.14920756 0.14502755 0.2378378 0.21277629 0.15915716 -0.13361421 0.17872402 0.15308416 -0.19713363 0.14711387
211 -0.11481777 -0.09135245 0.16907933 0.11767542 0.0941805 0.11497078 0.111950815 0.07431944 0.107487634 0.121916845 0.08515349 0.07264087 -0.05502143 -0.13513075 -0.13205011 0.117411785 0.10809247 0.06006467 0.10707263 0.093360655 0.13183443 0.12652431 0.13405733 0.08913079 0.09670252 0.10635327 0.06848173 -0.11638576 0.059922576 0.14191858 -0.12387804 0.12351753
560 -0.23671906 -0.26794863 0.42406815 0.25424004 0.23836242 0.36739367 0.19096264 0.15400437 0.26051304 0.19890171 0.25918022 0.27947935 -0.12601484 -0.30710673 -0.2515546 0.1353255 0.2744669 0.19755928 0.089386724 0.28055105 0.29885533 0.26182947 0.2286801 0.33665836 0.25809354 0.2779945 0.3216801 -0.27296922 0.24594784 0.33507174 -0.2607073 0.1888696
561 -0.2818833 -0.27345333 0.22152987 0.35249254 0.27178043 0.21123578 0.17603225 0.2542175 0.382707 0.0042210966 0.28522873 0.30861846 -0.16710891 -0.3167469 -0.3140759 0.20607725 0.19009621 -0.20650274 0.1485189 0.31047544 0.24046251 0.37908822 0.3099693 0.2488511 0.2818084 0.26428124 0.3314631 -0.2753043 0.31734827 0.33498842 -0.28519452 0.22423604
462 -0.21772079 -0.23753816 0.21379635 0.22576432 0.15512994 0.23117244 0.24664387 0.26669526 0.2743016 0.042090278 0.2080518 0.23519133 -0.3077324 -0.3377459 -0.28862336 0.26245317 0.30229756 -0.20421068 0.2234216 0.26289296 0.2927787 0.17730139 0.28071234 0.30469686 0.3143228 0.23725785 0.23316191 -0.13124426 0.1743205 0.35633883 -0.26140097 0.21214809
563 -0.2968605 -0.3204893 0.25916383 0.34084037 0.123223014 0.2448011 0.2663395 0.15620379 0.3058829 0.18070543 0.22971483 0.27235913 -0.21445759 -0.25696677 -0.319918 0.2443175 0.13558681 -0.13245012 0.04568524 0.29161504 0.26902315 0.22616142 0.26675352 0.17012465 0.34712958 0.3045754 0.3269493 -0.28308538 0.22627077 0.20867541 -0.26593447 0.28916347
394 -0.23187043 -0.24576509 0.24782404 0.23017992 0.14610237 0.19678107 0.19224721 0.10439505 0.32273227 0.20116116 0.17760353 0.25035888 -0.13012496 -0.2743313 -0.22195184 0.14396669 0.20550731 -0.034154736 0.23428832 0.20641625 0.20901611 0.24108355 0.21393773 0.1642388 0.2531253 0.28099442 0.21270369 -0.23327701 0.22446138 0.24106693 -0.23100956 0.1897374
149 -0.16965765 -0.27612427 0.32725465 0.19650184 0.22874357 0.20144676 0.1076007 0.23400009 0.28418902 0.21095924 0.24856777 0.16275173 -0.13071088 -0.29064783 -0.27251434 0.1273336 0.23093137 -0.0789015 0.063776776 0.21177018 0.20948344 0.2857292 0.26998338 0.2620458 0.29992366 0.32550547 0.29644793 -0.16296811 0.22594924 0.34016207 -0.2326096 0.30910128
566 -0.1783817 -0.23222432 0.28133252 0.16997415 0.23981358 0.26271746 0.2847364 0.20211457 0.28307608 0.1792535 0.3049398 0.19854951 -0.21838745 -0.19426218 -0.31711623 0.1017349 0.22658801 0.015468121 0.18264592 0.26211584 0.21582529 0.29926598 0.22100952 0.19987424 0.27156156 0.24462466 0.27825353 -0.17321633 0.30190453 0.2924361 -0.20422427 0.30056748
435 -0.22599503 -0.24262585 0.2658602 0.2891821 0.18866459 0.28981486 0.19422859 0.15694757 0.20812877 0.09167449 0.23759808 0.21815096 -0.050022583 -0.22511041 -0.27754143 0.30151916 0.18052536 0.03037415 0.11176317 0.32595965 0.29542118 0.2924445 0.23818184 0.22975639 0.2933916 0.3164681 0.24761158 -0.28548667 0.15479216 0.28673175 -0.22381696 0.2212894
567 -0.25389028 -0.27120623 0.28534272 0.16751035 0.14259073 0.25166696 0.15108337 0.19852655 0.14629343 0.04610345 0.18121018 0.17464703 -0.18949221 -0.1738293 -0.27852142 0.1101364 0.109014146 -0.0016160095 0.2551494 0.17598473 0.22186668 0.19753297 0.16392702 0.22879237 0.21484005 0.18847427 0.18501121 -0.16330981 0.18587302 0.17890514 -0.20971228 0.120631576
571 -0.19380902 -0.28338352 0.23406348 0.22771558 0.20441367 0.2623147 0.2547363 0.21438648 0.28839192 0.13722153 0.27727044 0.18948755 -0.19536984 -0.27796534 -0.23410504 0.27448854 0.17079377 -0.045941826 0.26283246 0.240556 0.32577157 0.24507797 0.28101066 0.2516391 0.35985798 0.21759515 0.25928798 -0.2642009 0.373077 0.32210436 -0.34920177 0.30636752
572 -0.20314851 -0.2541203 0.27260223 0.16773586 0.30774292 0.24939328 0.1554907 0.24038748 0.21846332 0.11533316 0.23606654 0.31415236 -0.3356919 -0.2804419 -0.2825409 0.20281097 0.3772297 -0.18943629 0.02354208 0.2652906 0.29238787 0.26030686 0.28640258 0.3077158 0.40205237 0.2759121 0.31050897 -0.22373739 0.3003663 0.399105 -0.21962896 0.22269864
477 -0.234425 -0.24711935 0.26381224 0.13210934 0.2367474 0.32804206 0.16173337 0.24716534 0.29255286 -0.023552874 0.31975037 0.24916528 -0.16628173 -0.288604 -0.24311996 0.19437627 0.28224057 0.17766654 0.044331945 0.19933587 0.21047746 0.30869147 0.19640727 0.36029485 0.39444613 0.3434116 0.30217925 -0.26350424 0.29778525 0.3357491 -0.24753398 0.18078224
73 -0.079913564 -0.0913106 0.071178 0.09875198 0.09045777 0.112296 0.06188286 0.06069802 0.11875123 0.12052553 0.101150535 0.18051103 -0.10168674 -0.08328174 -0.0940709 0.071554035 0.060660142 0.049562015 0.12687536 0.13371912 0.06500961 0.083550364 0.056867152 0.07587246 0.055400096 0.10607682 0.088986784 -0.08560783 0.10128948 0.05999564 -0.08809613 0.045043048
573 -0.20772599 -0.27983773 0.17984417 0.31915957 0.269633 0.26079035 0.14962757 0.068804294 0.24497609 0.08414573 0.21789308 0.3041344 -0.23331298 -0.19398654 -0.25753835 0.2061727 0.21029538 0.100181594 0.3052233 0.28602347 0.1956939 0.29863727 0.22246578 0.27924025 0.18926549 0.2293118 0.2516779 -0.15993886 0.26764548 0.23861273 -0.27220035 0.25128928
224 -0.08144482 -0.06679985 0.11634015 0.083142236 0.08061555 0.07611455 0.110574506 0.030883195 0.114902966 0.06394802 0.14606221 0.13607308 -0.057450015 -0.08838552 -0.03465827 0.0120456405 0.08818376 0.05672006 0.08705206 0.12688966 0.069006145 0.093773216 0.12347583 0.08493937 0.033775926 0.10411983 0.047916103 -0.003932472 0.11683476 0.087595075 -0.07862885 0.09527328
75 -0.15202522 -0.189524 0.24266765 0.1885949 0.29193997 0.21350707 0.23608401 0.17033768 0.12616713 0.19570445 0.16463727 0.24382338 -0.13120916 -0.23392348 -0.22921719 0.2240822 0.24260901 -0.1317004 0.25207928 0.26701686 0.2518123 0.24954511 0.20528299 0.15135513 0.2374615 0.31820384 0.20780401 -0.19421348 0.21098995 0.22156915 -0.23702727 0.25105828
575 -0.25400382 -0.35988766 0.2837387 0.13728157 0.23043495 0.32670376 0.0821251 0.1923014 0.23449257 0.18817909 0.31845447 0.2832007 -0.026642727 -0.33332855 -0.30516306 0.18218338 0.1667157 0.02705869 0.21266524 0.2765677 0.3361623 0.3962144 0.23806076 0.30974692 0.33935642 0.31202912 0.4548829 -0.31032485 0.26417863 0.4388495 -0.36608422 0.21656811
577 -0.086416215 -0.14194855 0.07043368 0.15387496 0.124893196 0.07922759 0.16082719 0.10283678 0.07539425 0.14645441 0.076670654 0.084990405 -0.07379058 -0.14784409 -0.04851422 0.05030523 0.08809773 -0.0054444713 0.09292537 0.09721236 0.08730172 0.13504846 0.07298992 0.08526534 0.08289969 0.13976276 0.11201003 -0.08682322 0.060795728 0.13882071 -0.13850842 0.15667708
373 -0.24889785 -0.2210257 0.27804452 0.11574905 0.20819633 0.24252534 0.32263228 0.22219616 0.24043028 0.19808355 0.18357919 0.21739683 -0.14411102 -0.16309416 -0.22443719 0.097408205 0.18789019 -0.121527694 0.10348701 0.15826671 0.3091147 0.27259585 0.21635571 0.12874754 0.19546291 0.09519567 0.23411232 -0.16007115 0.1699539 0.24788123 -0.15365538 0.24252601
579 -0.30001035 -0.32310215 0.34006116 0.180169 0.2546278 0.3279187 0.2839058 0.20140183 0.19062659 0.15366139 0.3661079 0.19578715 -0.21286441 -0.30074212 -0.28769344 0.2882153 0.16876246 -0.23540385 0.23171715 0.26822513 0.40723613 0.32696748 0.29100782 0.2600274 0.28841916 0.23321055 0.34684205 -0.19504467 0.28594506 0.3164249 -0.28309515 0.21585959
519 -0.257552 -0.29905024 0.268354 0.21003641 0.23429024 0.2951056 0.36615044 0.20601627 0.3100973 0.12578964 0.30399784 0.24035369 -0.27893445 -0.30850977 -0.1720365 0.30589682 0.22897573 -0.024162007 0.23494929 0.24556006 0.223684 0.23563372 0.22421631 0.23605517 0.2375682 0.1912722 0.19401182 -0.2632314 0.21824181 0.23713009 -0.30117118 0.15510207
580 -0.1781175 -0.20006627 0.2066853 0.14614831 0.1961756 0.1364341 0.18021293 0.12151284 0.18929216 0.1441413 0.23360531 0.19565561 -0.16011256 -0.18046522 -0.2088139 0.22125547 0.13582125 -0.05360939 0.21452616 0.115462095 0.18096866 0.17121542 0.1497155 0.13319427 0.17170976 0.20893677 0.17100826 -0.16952515 0.195698 0.28021815 -0.11857249 0.120124064
582 -0.2235465 -0.22399595 0.15352152 0.19485645 0.15904799 0.1731435 0.08803769 0.13481277 0.16067605 0.109744534 0.19693956 0.16296197 -0.12038361 -0.19935113 -0.21887071 0.19316188 0.14170274 0.10231288 0.16012833 0.1328318 0.17914307 0.24555975 0.11225965 0.2520682 0.23055528 0.11083773 0.19283685 -0.23298684 0.1219574 0.23953685 -0.16380964 0.20217642
2 -0.17069751 -0.17726041 0.19046424 0.14320058 0.09528805 0.11716834 0.20031382 0.06632367 0.13724773 0.08779766 0.16808935 0.12873775 -0.13342418 -0.22238998 -0.19881786 0.15431869 0.116147324 -0.0022063383 0.105172 0.15130726 0.12664555 0.15705459 0.13943322 0.14197208 0.12982978 0.16805287 0.16429387 -0.14821123 0.14970167 0.13883689 -0.1439015 0.1593152
585 -0.259929 -0.24899705 0.22324018 0.20762113 0.22463773 0.18324055 0.22395329 0.15108557 0.15236565 0.2575551 0.1495451 0.22546177 -0.17057718 -0.27625677 -0.23998892 0.15820993 0.17452137 -0.045290597 0.24111447 0.28316104 0.28995505 0.20659193 0.19615142 0.15637349 0.20336695 0.11127387 0.23665649 -0.15371986 0.19623286 0.21071737 -0.21703978 0.22088948
590 -0.23866636 -0.34741136 0.4200277 0.22918662 0.1866778 0.31103072 0.23271519 0.29017764 0.37872535 -0.011056409 0.22927776 0.33751535 -0.13185382 -0.30145264 -0.37692827 0.30692714 0.1900053 -0.22487378 0.26999673 0.26567116 0.22116376 0.3591535 0.26394993 0.27571172 0.21359687 0.23624519 0.34598815 -0.25938222 0.24981977 0.3018516 -0.24607281 0.16187833
593 -0.062742755 -0.16690376 0.19998261 0.06120755 0.16767472 0.13192634 0.16441171 0.15016066 0.1093692 0.08576529 0.15442158 0.10296358 -0.059001934 -0.17549954 -0.17543271 0.15597221 0.16879687 -0.006865745 0.12572916 0.093248226 0.19337937 0.16653988 0.1439787 0.23292577 0.09509328 0.15321048 0.1671952 -0.09412973 0.11380162 0.1816273 -0.142485 0.095692106
594 -0.31771442 -0.28630632 0.29585755 0.22012424 0.20969616 0.35209587 0.25719613 0.101820655 0.2391056 0.1669854 0.34008348 0.33307582 -0.071894154 -0.3620767 -0.24971963 0.2577739 0.25823766 -0.064508416 0.14322123 0.3330532 0.31418422 0.22204128 0.2136337 0.20996675 0.29357356 0.2539177 0.3523313 -0.23999819 0.27340278 0.36721727 -0.40606433 0.22828001
554 -0.20993446 -0.096413426 0.15476796 0.17286964 0.26595205 0.20001999 0.18040273 0.23078175 0.1402104 0.12428692 0.1870218 0.17678918 -0.1315212 -0.14078887 -0.10494419 0.12334786 0.19186972 -0.006333159 0.15079501 0.25008342 0.18653238 0.15259106 0.13339716 0.24174155 0.19244316 0.17816901 0.13147777 -0.13705367 0.13151498 0.2032809 -0.15793234 0.17013451
570 -0.16822152 -0.1647178 0.27566895 0.14627677 0.22338161 0.24467303 0.19582087 0.16150957 0.19965449 0.15625373 0.19660017 0.2512527 -0.15592888 -0.22721937 -0.23181747 0.22922748 0.2049716 -0.08033528 0.036228336 0.25551537 0.21366493 0.21661 0.052462496 0.232282 0.24131355 0.14756846 0.20524108 -0.21938775 0.19405465 0.26235104 -0.20597424 0.1855912
160 -0.13094687 -0.14153972 0.08843197 0.15646632 0.12552486 0.15419474 0.05240508 0.1175566 0.11900533 0.156866 0.1028096 0.1406936 -0.19709833 -0.1502628 -0.14894071 0.12590435 0.1802522 0.10123322 0.19312908 0.14333889 0.1380191 0.16191946 0.115940765 0.13114639 0.1609103 0.086243756 0.12267588 -0.15217833 0.1314033 0.1338766 -0.16521266 0.11929104
598 -0.28574735 -0.27786174 0.24820805 0.27984154 0.07208954 0.21528466 0.14554806 0.04875603 0.15653637 0.18713199 0.23774104 0.2554627 -0.20800847 -0.3028095 -0.23553003 0.22842395 0.15365812 0.102550596 0.23542562 0.2671628 0.34451213 0.26958093 0.14811406 0.30740768 0.2776159 0.2953936 0.3537764 -0.16333844 0.33125535 0.2745433 -0.29193 0.22989675
190 -0.095947035 -0.088474825 0.10291704 0.107167065 0.026900934 0.07673196 0.110449865 0.04203973 0.08923357 0.11622312 0.0467203 0.11966969 -0.10932327 -0.12257596 -0.08293986 0.13089813 0.03625193 0.021702059 0.05983637 0.04014375 0.12536919 0.11792126 0.08700289 0.119003765 0.07266671 0.06690745 0.13031526 -0.048794616 0.13174842 0.07275729 -0.09595256 0.08913644
145 -0.17029305 -0.17998037 0.18589553 0.10577633 0.15370186 0.2498541 0.19472751 0.18586779 0.14773715 0.14258899 0.16719204 0.1774158 -0.26213977 -0.06157299 -0.13407259 0.15897419 0.15034865 -0.0518217 0.033185724 0.19744809 0.14104162 0.19315358 0.1258205 0.19538662 0.18699518 0.10632652 0.14725034 -0.17236066 0.15943387 0.10927822 -0.18600684 0.114284776
599 -0.25097445 -0.32276958 0.339159 0.2421627 0.14129418 0.3413937 0.2106129 0.30983284 0.21829009 0.07915149 0.30781448 0.21415885 -0.19943525 -0.1827365 -0.21535243 0.23617648 0.22740272 -0.1709552 0.13949674 0.2482805 0.30937877 0.33522016 0.17556594 0.20638548 0.22293176 0.2893263 0.2875803 -0.3411999 0.28058043 0.28782225 -0.28992343 0.22709967
186 -0.17593066 -0.26576406 0.21147595 0.20876853 0.20156011 0.12193737 0.22534806 0.17740782 0.22797628 0.16881481 0.2467439 0.17123164 -0.21971494 -0.2552398 -0.23697677 0.19669607 0.2386627 -0.01881793 0.13011026 0.252474 0.27186212 0.24003062 0.20190664 0.19555797 0.23302177 0.21945223 0.26640022 -0.18872279 0.22565511 0.25595933 -0.22643414 0.12447565
425 -0.2719688 -0.27737322 0.2486124 0.16912305 0.31302103 0.20162311 0.0994663 0.16428865 0.2638069 0.17593254 0.26881948 0.26265275 -0.12256939 -0.27453372 -0.29276988 0.22913525 0.2180313 -0.2327285 0.09707472 0.21152787 0.2165697 0.2989577 0.28447884 0.2413707 0.2729718 0.225374 0.2868239 -0.33525616 0.24732625 0.23236687 -0.29501966 0.23563847
606 -0.24391693 -0.33188593 0.39190596 0.14249171 0.16695234 0.27349108 0.19465779 0.25787446 0.29318923 0.11550836 0.25700152 0.27740142 -0.14772673 -0.24575146 -0.21870779 0.14351344 0.25637013 -0.25371996 0.2530106 0.23023419 0.29824024 0.26591605 0.23730153 0.24216354 0.3185144 0.2991167 0.3481781 -0.32163128 0.23891988 0.36772677 -0.31965896 0.09471671
607 -0.331231 -0.38124627 0.27423456 0.13633758 0.2019709 0.2255566 0.27368787 0.10410249 0.20277426 0.18167925 0.31752858 0.36204723 -0.26901668 -0.34483355 -0.29760876 0.22896893 0.26002076 -0.2787755 0.16916953 0.21312752 0.20257992 0.26783493 0.17832942 0.32862082 0.3151311 0.3393023 0.32370058 -0.3292509 0.21729966 0.32783258 -0.23806632 0.19833408
404 -0.17147747 -0.27491462 0.19183452 0.05677143 0.12578058 0.20452063 0.16542925 0.1390628 0.14029926 0.17061149 0.21890779 0.16814904 -0.26828507 -0.20836304 -0.18091933 0.23949574 0.13828465 -0.1422137 0.122949444 0.24681254 0.16212425 0.25373852 0.23149817 0.17115353 0.20565234 0.19905113 0.18896677 -0.18893605 0.17844632 0.24479473 -0.21263057 0.11636689
484 -0.16075929 -0.16769467 0.17326915 0.11503313 0.135642 0.13372913 0.20836791 0.19181032 0.15617597 0.18827637 0.20683248 0.19486201 -0.121863194 -0.1639932 -0.2294893 0.11405915 0.18720697 -0.04111171 0.17502667 0.1433806 0.20180482 0.2405101 0.16702862 0.15669538 0.16228165 0.18385546 0.16820945 -0.13834085 0.19427107 0.20593025 -0.15345754 0.16483662
611 -0.26842412 -0.2564414 0.2675902 0.19559611 0.09906539 0.21329908 0.22390611 0.20582953 0.39802575 0.24804138 0.25796184 0.27110118 -0.12517431 -0.31095105 -0.223846 0.2362641 0.16557334 -0.18869844 0.2544606 0.25012553 0.22754358 0.3243631 0.1887222 0.19503091 0.15267508 0.1923342 0.27405834 -0.23040542 0.25421354 0.29254872 -0.211032 0.17526923
612 -0.25505337 -0.19284774 0.2173165 0.20031679 0.12262814 0.27004075 0.16787304 0.20171195 0.25167665 0.072998926 0.19462547 0.25079125 -0.12490058 -0.20659837 -0.16126259 0.16128366 0.17160186 -0.0970495 0.20106414 0.18178141 0.1503905 0.20732908 0.22361992 0.13880044 0.21674642 0.16729644 0.14665669 -0.22875224 0.13092712 0.24794494 -0.1314605 0.29289848
613 -0.21894899 -0.35249 0.28500336 0.19507428 0.32469612 0.27963635 0.24716717 0.19478287 0.39219138 0.11462668 0.22210701 0.30875182 -0.13635363 -0.2457029 -0.315765 0.22011295 0.25980526 0.002242018 0.23958068 0.33448973 0.36546028 0.40972018 0.33406627 0.21763451 0.3054027 0.21950234 0.31576973 -0.2422004 0.18267927 0.40020078 -0.2750876 0.2585929
402 -0.09597002 -0.19316442 0.07566341 0.18368183 0.16848823 0.10925829 0.20539276 0.13171716 0.13818377 0.1304841 0.092885196 0.15245268 -0.162279 -0.14857711 -0.12849165 0.12399365 0.12765981 0.0021151174 0.15055604 0.12664628 0.12698016 0.17543654 0.16438296 0.1286308 0.12507227 0.08547645 0.11365186 -0.1308553 0.07688356 0.1289018 -0.15117936 0.11352252
619 -0.30621436 -0.20282112 0.3346221 0.12151706 0.32731575 0.22780228 0.076263756 0.28119555 0.23450503 0.033736426 0.3008128 0.3216214 -0.35137907 -0.3373834 -0.22688337 0.28990757 0.2884679 0.19738875 0.047796614 0.18507457 0.25482222 0.24557348 0.30005023 0.27312878 0.4661747 0.29254928 0.2927717 -0.19871455 0.2726417 0.3093417 -0.26953265 0.2684644
625 -0.13579367 -0.17115936 0.18001592 0.12180469 0.17692216 0.17644112 0.13990036 0.17853591 0.1698637 0.17521732 0.13208085 0.14158632 -0.16648744 -0.2142341 -0.18870293 0.07536653 0.14591083 -0.0477803 0.16751623 0.17368568 0.20565303 0.22283407 0.15579133 0.094265714 0.1761955 0.14034466 0.15939645 -0.16808172 0.16235444 0.16112569 -0.12000151 0.21982253
233 -0.14352669 -0.1984753 0.16379625 0.09222967 0.2211438 0.11235659 0.15898098 0.11468076 0.13925456 0.106347814 0.09423225 0.121806644 -0.11318684 -0.11112532 -0.14814548 0.19320135 0.21729067 -0.07035704 0.11316135 0.13808618 0.11746849 0.13856389 0.120336115 0.08143619 0.11701379 0.11683298 0.14700669 -0.1435034 0.13418056 0.16500382 -0.1691446 0.16966495
627 -0.19701765 -0.24070126 0.21574582 0.16659205 0.25288194 0.16597268 0.19466804 0.11779452 0.21625996 0.20843937 0.22750533 0.20045264 -0.19038275 -0.22114258 -0.15725778 0.13216174 0.18629804 -0.030169578 0.14254317 0.1975385 0.106949694 0.2225073 0.13422571 0.22775918 0.17148551 0.19891132 0.24043824 -0.15850078 0.14057235 0.1877193 -0.20640717 0.18303794
631 -0.1429777 -0.14295709 0.14269945 0.15554774 0.13082896 0.104244664 0.13748977 0.060729675 0.16185378 0.20600876 0.10247879 0.13211916 -0.065256864 -0.15181114 -0.07495747 0.13099597 0.06974275 -0.093507566 0.20165351 0.09775121 0.15419595 0.099317044 0.12074053 0.1717007 0.18012528 0.12359912 0.12857558 -0.17028254 0.10042812 0.1350783 -0.12450592 0.141529
26 -0.16409627 -0.16250825 0.120192595 0.12574126 0.1882282 0.10548549 0.20734029 0.22837067 0.17667107 0.18397337 0.18218687 0.14161585 -0.12597246 -0.13648379 -0.19514471 0.11147725 0.21561298 -0.18405381 0.17451504 0.15521124 0.15866649 0.22310422 0.12343025 0.12226191 0.18912178 0.20268133 0.19283314 -0.16709208 0.15555139 0.17241514 -0.16080868 0.10187712
632 -0.18536302 -0.26544684 0.24442343 0.115317166 0.23795563 0.09385626 0.21722846 0.30213827 0.24800478 0.13228142 0.23436135 0.2722286 -0.2616275 -0.15589929 -0.15664662 0.14788334 0.22682598 -0.10926272 0.27275434 0.18354736 0.21841839 0.29511547 0.20572516 0.14606011 0.2616016 0.25017947 0.26803547 -0.14872068 0.14190829 0.25288224 -0.29751575 0.23043586
633 -0.19451338 -0.21375772 0.18800463 0.099374644 0.1312687 0.12764825 0.2974106 0.15246338 0.19347136 0.08960647 0.20533724 0.15785226 -0.14938675 -0.23313448 -0.18019487 0.14409544 0.15658078 -0.056944136 0.14258778 0.15420145 0.16119099 0.17429678 0.2178735 0.13884872 0.2277896 0.16625847 0.1412656 -0.16695304 0.21451738 0.22530025 -0.2394641 0.13754629
512 -0.24838348 -0.28588468 0.26684067 0.12555684 0.08963165 0.22932677 0.19397113 0.17410628 0.18550217 0.17419061 0.20772052 0.17047352 -0.15389429 -0.21288261 -0.17763966 0.16329384 0.19921787 -0.03678335 0.24254537 0.20050396 0.17155647 0.26341987 0.20768262 0.26826382 0.24363615 0.21395032 0.24093811 -0.12633923 0.22776297 0.2748159 -0.3164284 0.13924274
634 -0.32084066 -0.30119455 0.2997602 0.20567496 0.17836362 0.20776077 0.24400131 0.17982826 0.27815452 0.09917338 0.31170657 0.20775896 -0.19469605 -0.27307233 -0.21598026 0.23814844 0.2153955 -0.015430055 0.10359861 0.29618454 0.18840736 0.3149411 0.21830499 0.25412408 0.2442467 0.30868366 0.3269521 -0.18368606 0.2863901 0.27890402 -0.17328496 0.28950343
35 -0.20701213 -0.20651515 0.2283151 0.1914685 0.21765652 0.17304495 0.10604558 0.15352948 0.2513948 0.18641908 0.21274646 0.19207184 -0.12710243 -0.16460373 -0.1413561 0.18089798 0.19139849 -0.17327003 0.21416925 0.18388237 0.19509055 0.24960738 0.16171084 0.27744496 0.14933933 0.2854176 0.21897855 -0.12685661 0.24121967 0.21284582 -0.15438361 0.2200956
637 -0.23250495 -0.2526786 0.16804901 0.2542345 0.17059751 0.19559109 0.26623952 0.17468119 0.22845563 0.17058961 0.21910259 0.23286672 -0.15713681 -0.20020877 -0.354668 0.23237954 0.1814522 -0.17015642 0.17999291 0.17820197 0.21532707 0.28037634 0.28768706 0.19511501 0.26816016 0.21072143 0.3055436 -0.27657533 0.20914368 0.29078937 -0.2157649 0.17094535
638 -0.27213386 -0.35798332 0.44491798 0.294402 0.21719135 0.29668385 0.10245476 0.3205391 0.270338 0.015929708 0.32859877 0.24623212 -0.06272152 -0.23018575 -0.3140324 0.12669437 0.33830184 0.14954142 0.279 0.2839362 0.33668554 0.3102589 0.2858093 0.32887954 0.3060995 0.3899841 0.40585 -0.20301363 0.22134364 0.3214766 -0.27064425 0.18201129
640 -0.26831907 -0.322028 0.2642188 0.26594794 0.15526772 0.37354988 0.16826765 0.27513605 0.36271444 0.056591805 0.31634963 0.21095982 -0.09325908 -0.31013516 -0.30091116 0.2751933 0.14233308 -0.15749264 0.24231401 0.2936499 0.29297066 0.38910726 0.15021895 0.29656187 0.21219304 0.27549937 0.36603495 -0.35139748 0.17595953 0.32386732 -0.36670822 0.29401812
5 -0.1716705 -0.10746929 0.13338886 0.12375611 0.097799964 0.15458119 0.045364097 0.1087598 0.19021483 0.0690924 0.114515066 0.12702653 -0.06984957 -0.17636956 -0.17244093 0.13491742 0.19032972 -0.0377408 0.124571234 0.15958224 0.20041782 0.21545513 0.12500897 0.1603925 0.13268317 0.15297638 0.13641006 -0.054712307 0.18562542 0.14009234 -0.09625164 0.094512366
641 -0.338452 -0.30168724 0.30677977 0.19737256 0.28472438 0.2958614 0.12860438 0.19671644 0.304679 0.24778573 0.3114776 0.33864486 0.0031314893 -0.3380067 -0.3908404 0.21502508 0.18505305 -0.14066458 0.3040249 0.3426741 0.34660324 0.36031076 0.25016373 0.32039708 0.24698286 0.38580474 0.4148193 -0.36287302 0.24631971 0.38446692 -0.34436148 0.15145665
84 -0.21152176 -0.18393263 0.21569905 0.11517194 0.2699188 0.10345404 0.15769473 0.20900422 0.18683377 0.20896244 0.1859588 0.12614276 -0.2091834 -0.22085916 -0.15171969 0.21770367 0.1678986 -0.029741662 0.1550204 0.20258762 0.23503815 0.20265338 0.12624688 0.20650955 0.12974718 0.1807703 0.18478914 -0.12606882 0.23310502 0.16253756 -0.17440051 0.11943409
463 -0.25331086 -0.24543141 0.21374723 0.17120385 0.2154344 0.24082826 0.1876843 0.044142626 0.14623973 0.16646434 0.21578206 0.2168991 -0.13540561 -0.24592127 -0.15513954 0.09873922 0.20281197 0.063121915 0.21593706 0.16990407 0.22677566 0.20521009 0.06768392 0.18223847 0.22624531 0.28849074 0.23236611 -0.1564302 0.17929965 0.27660346 -0.21070696 0.27105466
3 -0.20956102 -0.29293078 0.2142596 0.20100233 0.12048202 0.26080182 0.13182725 0.18318388 0.16183725 0.012103168 0.1812146 0.31869373 -0.11532653 -0.3009816 -0.21030648 0.21353 0.22787127 -0.07368246 0.23602559 0.2883618 0.30056748 0.22615351 0.18160655 0.21296646 0.22877708 0.29473218 0.30781972 -0.28067002 0.2743273 0.2990445 -0.28242987 0.20655946
643 -0.23806699 -0.32032305 0.28317612 0.29092312 0.21965444 0.3009037 0.21104334 0.23042934 0.32466942 -0.009910818 0.24840736 0.2465315 -0.16888067 -0.35157993 -0.27215973 0.21840964 0.21699591 -0.088076726 0.20601046 0.30503312 0.331794 0.20832647 0.26566744 0.27582613 0.33037284 0.3684411 0.31226268 -0.24164945 0.203978 0.33875147 -0.29039916 0.23162633
227 -0.10516434 -0.10705321 0.15428989 0.17325188 0.081238575 0.15062234 0.11497872 0.18178444 0.15408964 0.14492688 0.12870552 0.1569364 -0.12819105 -0.14989763 -0.18032372 0.12676096 0.11950812 -0.09958139 0.099855915 0.22613439 0.18885754 0.09860625 0.21432391 0.20424059 0.14687319 0.11017348 0.16885185 -0.09518554 0.09426984 0.14322968 -0.09553573 0.10693368
354 -0.25355834 -0.2535256 0.19447117 0.26136708 0.18394227 0.32535902 0.07262339 0.19708246 0.18420675 0.1078067 0.13313267 0.14698832 -0.14050083 -0.19040753 -0.20851283 0.26847088 0.16021499 -0.07836358 0.16335283 0.22766837 0.13497993 0.20363079 0.22894394 0.20122842 0.18406688 0.29015473 0.30263957 -0.23672594 0.15634012 0.22048026 -0.22591946 0.15103899
548 -0.18660986 -0.24583761 0.19529717 0.13973449 0.11242513 0.21574472 0.14148037 0.14819723 0.12762561 0.11859353 0.15160081 0.23347667 -0.19383717 -0.20501919 -0.23164059 0.110232815 0.14933605 -0.08196497 0.16626947 0.23508953 0.21691528 0.15373142 0.22054258 0.2234827 0.16734937 0.2037156 0.18432046 -0.21985105 0.20784542 0.20760071 -0.20155904 0.2213207
645 -0.14521532 -0.14731807 0.14941853 0.20647497 0.17254898 0.049294107 0.08285696 0.17623353 0.1587449 0.032769423 0.1326353 0.16198443 -0.08951277 -0.15901645 -0.23905402 0.15598845 0.095935024 -0.054243185 0.1154835 0.16333266 0.11846803 0.16513664 0.17703512 0.0695166 0.14230016 0.16640589 0.14904281 -0.20960139 0.11476564 0.19130538 -0.12387611 0.1572447
650 -0.18514958 -0.15734118 0.22860986 0.2974601 0.14024185 0.24565455 0.06813877 0.23091899 0.20948917 0.14611112 0.23481292 0.16804674 -0.14309491 -0.1800119 -0.19368128 0.15466776 0.18984243 -0.1483945 0.10173569 0.17178713 0.17728294 0.17976709 0.23193136 0.18360731 0.23823848 0.21236922 0.20861726 -0.19528906 0.19760132 0.19847421 -0.26119542 0.117763795
651 -0.18838653 -0.19632828 0.16387315 0.2402216 0.23640029 0.2145572 0.10353166 0.22977528 0.2178458 0.12278652 0.21123111 0.24050602 -0.16498275 -0.24467435 -0.23390684 0.28558278 0.16934101 -0.19253103 0.19196713 0.19344804 0.23616187 0.17718019 0.2983381 0.20956168 0.17664097 0.15386848 0.2493219 -0.26553154 0.22538069 0.25799564 -0.23532408 0.1615892
653 -0.24352925 -0.2803921 0.34699106 0.11348091 0.15006694 0.3316311 0.3800953 0.27161124 0.25103506 0.12087542 0.24136837 0.3047435 -0.019773768 -0.32079268 -0.30580422 0.2717758 0.20989238 -0.12965071 0.15220088 0.25013086 0.32033032 0.37764364 0.22539888 0.29242447 0.24404107 0.34022537 0.2832824 -0.23450251 0.22231154 0.346356 -0.29430437 0.24713612
654 -0.2784217 -0.34168634 0.25063646 0.17944385 0.17528264 0.30124664 0.17912412 0.19145344 0.26577428 0.25293183 0.283244 0.23520724 -0.18600708 -0.21725944 -0.21883501 0.16415814 0.2864725 -0.23215513 0.16837911 0.21206672 0.20346013 0.28604308 0.25174916 0.26559907 0.17069538 0.29507592 0.29189226 -0.20933907 0.26666048 0.3200531 -0.2957682 0.18319573
656 -0.20755303 -0.2653137 0.37534592 0.22202553 0.24961348 0.21899842 0.26431268 0.20707868 0.21258844 0.13737077 0.26158667 0.3379136 -0.23988451 -0.29266903 -0.32399282 0.19601038 0.25598198 -0.038989626 0.109022655 0.2700725 0.40877154 0.26360136 0.30600336 0.22521935 0.28179356 0.24128246 0.33566248 -0.20513752 0.22023973 0.3605231 -0.19622794 0.32608518
658 -0.2017018 -0.1982054 0.23541997 0.15875293 0.18225093 0.20804386 0.1705 0.08052744 0.18092872 0.12572578 0.2096254 0.21765822 -0.19998929 -0.17410801 -0.1407778 0.12356585 0.16101104 -0.06800841 0.06540997 0.19211712 0.19823353 0.26449898 0.17704286 0.12829836 0.167501 0.17148633 0.17878444 -0.21064967 0.21896695 0.15824498 -0.19019738 0.12386782
660 -0.15229942 -0.16050819 0.14565516 0.1851631 0.16964 0.18296668 0.13622735 0.08249076 0.19179145 0.061291814 0.1261576 0.12711002 -0.14845859 -0.123134 -0.13299765 0.17414066 0.16591792 0.110167615 0.14144443 0.16946924 0.14989896 0.07466388 0.1349321 0.15227462 0.21177237 0.15969284 0.09443055 -0.13698146 0.119209 0.12283324 -0.18958443 0.13279237
665 -0.14210421 -0.18459772 0.23888627 0.2335849 0.21553601 0.21248896 0.16041362 0.15950857 0.20384319 0.15681715 0.10504642 0.22761087 -0.18426031 -0.2002307 -0.23332414 0.21289653 0.14202514 0.06702781 0.092173524 0.13372633 0.18764475 0.24135983 0.21793379 0.15715699 0.21427383 0.12937258 0.1905495 -0.16379733 0.21634433 0.21374325 -0.20596448 0.21423303
666 -0.27003503 -0.2744964 0.31840134 0.10223807 0.28124446 0.31271034 0.23976961 0.07459584 0.30109882 0.20129511 0.3336205 0.20250726 -0.23423155 -0.3881428 -0.30485287 0.13812499 0.1798966 -0.17650902 0.13694271 0.2606942 0.2423013 0.35046786 0.24156938 0.34178624 0.32517785 0.31328627 0.29535255 -0.34325564 0.36779398 0.40734357 -0.38664335 0.2607318
312 -0.11732556 -0.23197907 0.17795037 0.15590231 0.12659886 0.14406434 0.14743115 0.11058614 0.119374424 0.082934454 0.16927955 0.16953863 -0.1661967 -0.2125882 -0.10282941 0.15283872 0.12341435 0.019949127 0.14790294 0.2022557 0.14367503 0.17618759 0.17017516 0.1825912 0.18355824 0.17532206 0.11017054 -0.16466627 0.16511863 0.1160971 -0.18496141 0.07297731
600 -0.1457849 -0.22718757 0.12925576 0.1732125 0.17040944 0.10756529 0.2269772 0.14096764 0.16213177 0.14797676 0.22318557 0.22484446 -0.122299284 -0.17303254 -0.2283447 0.10668266 0.1219051 -0.060776033 0.13237244 0.21733087 0.16351594 0.19544442 0.16897188 0.21686663 0.19208318 0.17905687 0.17439003 -0.25533137 0.20584336 0.21960986 -0.25287694 0.146527
668 -0.20051761 -0.20526819 0.22280334 0.19666757 0.11544715 0.22233938 0.17982794 0.18068278 0.20309146 0.1979677 0.16377333 0.19082546 -0.019944683 -0.13519856 -0.22748607 0.17253587 0.12278592 -0.062297158 0.14524774 0.16070996 0.17847136 0.20270783 0.12456841 0.15953366 0.17475174 0.18074743 0.1826685 -0.23329212 0.18015753 0.15960594 -0.23788793 0.065590225
670 -0.1656611 -0.24638066 0.22667088 0.23422192 0.24056266 0.22150338 0.1627595 0.29950768 0.18364841 0.13988337 0.28703442 0.25444037 -0.14604841 -0.2282646 -0.30267307 0.18938337 0.13142866 -0.20456989 0.10905255 0.22914693 0.20841205 0.21382296 0.20812035 0.21509443 0.19138642 0.22717854 0.26828665 -0.21344437 0.31622967 0.2746373 -0.3043649 0.14065348
674 -0.1519403 -0.14909822 0.17172602 0.15239258 0.11630155 0.10462723 0.16508093 0.06813618 0.16873965 0.09389053 0.15276402 0.11067421 -0.2405506 -0.11756971 -0.17098516 0.12532663 0.16103543 0.0563994 0.13839759 0.13841747 0.11516014 0.13122816 0.14589697 0.15686715 0.1335445 0.17037266 0.11850718 -0.11894854 0.104515985 0.1303396 -0.094349824 0.12704852
500 -0.11514458 -0.0903236 0.11682468 0.14074425 0.12318925 0.09962582 0.13272133 0.16687499 0.14439549 0.19337785 0.14539081 0.15547074 -0.06932782 -0.08238138 -0.08558459 0.077947415 0.06846459 0.015190062 0.04901644 0.11803147 0.1467696 0.08502805 0.11266828 0.08290281 0.14001477 0.13091971 0.07853077 -0.12769774 0.14277685 0.06627672 -0.06068309 0.17119342
679 -0.28955325 -0.28286758 0.26326683 0.17638747 0.16073725 0.26026896 0.19736779 0.14552714 0.29914176 0.20510933 0.2974299 0.14633736 -0.1285694 -0.22020428 -0.23521444 0.20269877 0.22310407 -0.037926618 0.11705142 0.27655435 0.25607586 0.26062015 0.2637996 0.23363665 0.22883663 0.21011572 0.25855905 -0.24000104 0.21222726 0.19234282 -0.2162603 0.28775534
687 -0.307295 -0.24760066 0.20031655 0.16145086 0.2772931 0.2465723 0.25374907 0.18276584 0.25363493 0.058627002 0.22039947 0.27308226 -0.36898974 -0.34972805 -0.25845152 0.23039608 0.34168595 0.15843613 0.084058315 0.22650148 0.1854023 0.23772955 0.30091128 0.32731217 0.34384492 0.29068527 0.29703093 -0.29485276 0.36565346 0.2804502 -0.253141 0.25325423
581 -0.24659686 -0.3084562 0.18889923 0.18652558 0.20885304 0.27983487 0.2627397 0.24819289 0.26035637 0.15247029 0.21157436 0.2558647 -0.38206708 -0.29776815 -0.31181452 0.3523082 0.30289647 -0.044394843 0.14849672 0.20825781 0.2126258 0.20291688 0.18619667 0.31394634 0.30194408 0.16941406 0.3162067 -0.15426779 0.31987014 0.3090004 -0.23917674 0.21503909
688 -0.21280791 -0.27694422 0.35416406 0.16881873 0.13607839 0.20763654 0.26612598 0.1984631 0.24192291 0.13877346 0.23865195 0.3494721 -0.1437647 -0.34328154 -0.3598008 0.12085166 0.22435118 0.00013075379 0.024549004 0.33443835 0.32129902 0.3739279 0.25183317 0.33688 0.38420576 0.22721438 0.4059342 -0.23898318 0.20370895 0.29054222 -0.18888898 0.2796198
604 -0.11034359 -0.14145681 0.18962517 0.12251584 0.1307282 0.15086702 0.17396696 0.22210467 0.16770451 0.11855577 0.23199451 0.12466334 -0.1399566 -0.16258162 -0.17690398 0.1555612 0.1951969 -0.00016192533 0.030170815 0.16865237 0.22843133 0.16931295 0.22831954 0.15746184 0.19360659 0.2178488 0.1244468 -0.17084536 0.18885496 0.16900815 -0.19892623 0.20105061
409 -0.27107674 -0.2822748 0.18840401 0.15018858 0.15482439 0.16233209 0.27551505 0.18237433 0.3028915 0.10263944 0.24092387 0.2680433 -0.3521518 -0.2290247 -0.28109434 0.25630134 0.29133627 -0.043929227 0.19578035 0.2127958 0.3086111 0.35077068 0.26819453 0.22647111 0.2652446 0.2661348 0.28197822 -0.25516123 0.24652167 0.26450095 -0.24184473 0.18309996
692 -0.20463099 -0.1483039 0.14818166 0.07286697 0.034585673 0.09911542 0.130397 0.19231017 0.18591425 0.104373254 0.13928357 0.15811142 -0.15819113 -0.12703177 -0.12286058 0.13764837 0.15298977 -0.104736336 0.07974955 0.09735264 0.198842 0.17074934 0.18416706 0.18359211 0.122977905 0.1605162 0.13095325 -0.1860129 0.16906576 0.23056822 -0.15379725 0.11469271
517 -0.11731973 -0.08462892 0.12007082 0.11267541 0.07028801 0.104823776 0.037632555 0.121301934 0.12452908 0.11403211 0.044548936 0.10756196 -0.0618992 -0.09567467 -0.04221237 0.05609585 0.07713302 -0.01086811 0.046165913 0.111583754 0.10974932 0.12222838 0.12393575 0.10612504 0.030340632 0.11110267 0.099879004 -0.102055505 0.12873593 0.058235142 -0.09433989 0.056365233
693 -0.16159983 -0.21923946 0.2780643 0.27181777 0.15913899 0.21056193 0.27931905 0.24468595 0.19013204 0.2541878 0.22604069 0.21988891 -0.22322206 -0.21038167 -0.17875165 0.21369769 0.20672017 0.0037480542 0.15965873 0.22898205 0.34445316 0.27681887 0.27269349 0.24408813 0.21618904 0.19782503 0.26747686 -0.19872883 0.20330574 0.29790738 -0.224452 0.11239987
694 -0.2642403 -0.2072103 0.25319844 0.22280023 0.18299988 0.15145409 0.29345033 0.109675765 0.2323414 0.18010643 0.20488304 0.2737352 -0.16340044 -0.31146142 -0.2630587 0.17219445 0.21385269 -0.25736287 0.07535081 0.36684394 0.26547092 0.21686532 0.2660781 0.26969504 0.25972 0.27184314 0.21937199 -0.31309623 0.21303809 0.23084432 -0.30752903 0.21013889
695 -0.25156105 -0.21203247 0.18752113 0.28817114 0.2556551 0.23817194 0.12594251 0.13125327 0.21827343 0.20104569 0.17974734 0.28175265 -0.14831927 -0.2534319 -0.27141395 0.21834594 0.17011443 0.044182695 0.4021061 0.2346136 0.17737694 0.2590555 0.16039392 0.14808287 0.22628489 0.19995779 0.2151864 -0.12312998 0.13065569 0.15482621 -0.22467647 0.3718366
305 -0.13382688 -0.13568465 0.15795884 0.099127 0.08128836 0.11418192 0.1008063 0.10433686 0.105897136 0.12205644 0.14273052 0.09431413 -0.20204562 -0.12623458 -0.08273769 0.11864595 0.17143531 -0.041833173 0.09091738 0.18794604 0.111402616 0.07956091 0.11662278 0.137189 0.16986276 0.18445401 0.17196606 -0.13747856 0.15446584 0.08370474 -0.15903468 0.12797926
700 -0.3037648 -0.3052042 0.45705706 0.08868818 0.19748694 0.29336444 0.23955442 0.1667499 0.32578972 0.1326607 0.3171972 0.31952372 -0.34270024 -0.31488547 -0.31228495 0.15647665 0.0757311 -0.19585086 0.17940263 0.35713977 0.28091967 0.40515357 0.16154972 0.21503136 0.2955725 0.2976151 0.4162092 -0.39129382 0.3265022 0.28275737 -0.38256243 0.1900574
332 -0.040963665 -0.07646505 0.0558059 0.11493154 0.046625 0.091110185 0.086894296 0.079695515 0.07751777 0.054917756 0.095164135 0.04019763 -0.11687852 -0.08480836 -0.08041248 0.043839376 0.09578466 0.010618768 0.038769644 0.16372195 0.06658227 0.052760508 0.10572431 0.12370387 0.07830672 0.117053084 0.11262432 -0.061829876 0.09568133 0.09308947 -0.08949285 0.07274838
530 -0.06647765 -0.058034066 0.074014165 0.049799737 0.055525035 0.058891796 0.07675669 0.0543439 0.085508786 0.08588563 0.08505787 0.079409 -0.09889525 -0.09548244 -0.07048714 0.043844126 0.11454332 -0.0083874 0.08843225 0.14356148 0.045682624 0.037368614 0.042902958 0.08783075 0.11289921 0.14359133 0.12490249 -0.05580975 0.076696776 0.060828112 -0.1355773 0.05182924
10 -0.15335648 -0.22245942 0.18667632 0.17999835 0.20026709 0.14715719 0.17799874 0.25994572 0.14217518 0.12173503 0.20046088 0.18255346 -0.10173604 -0.11145319 -0.121865205 0.083148636 0.06998959 -0.07906391 0.07004626 0.17529827 0.12654094 0.15489793 0.2269164 0.11100152 0.15093674 0.1686185 0.1686804 -0.10995309 0.12915727 0.1513722 -0.17118174 0.15619087
702 -0.26156387 -0.31124124 0.4017177 0.2654908 0.24844298 0.28742707 0.20876764 0.17473276 0.18027581 0.27803174 0.30227575 0.3887874 -0.1788864 -0.2852289 -0.29295218 0.27865395 0.12385688 0.0075534815 0.2091314 0.25932074 0.2554108 0.35459697 0.3788629 0.23748757 0.2544214 0.16481932 0.30749056 -0.33943263 0.36618602 0.2692885 -0.3019209 0.20204936
59 -0.083244294 -0.19012813 0.1255587 0.14818086 0.07291513 0.08528961 0.20877852 0.16926819 0.12904838 0.24509396 0.12154767 0.1912985 -0.16981766 -0.101118095 -0.09904902 0.09876946 0.099101484 -0.0980679 0.12921496 0.16191171 0.16628635 0.21594512 0.15451837 0.08266518 0.10198661 0.07916332 0.15572724 -0.13654986 0.1027996 0.10330684 -0.16685955 0.1294433
669 -0.2909599 -0.34700096 0.2796078 0.22805305 0.33860105 0.17305712 0.13136236 0.15732144 0.23597208 0.21975574 0.24667732 0.4153496 -0.27197158 -0.3127233 -0.24632843 0.124163836 0.18530323 0.18325049 0.35079098 0.20281337 0.298513 0.34810343 0.23979226 0.13614066 0.32955822 0.24346694 0.30917296 -0.19171749 0.23460503 0.32969037 -0.29999 0.3856992
703 -0.23110133 -0.25649777 0.3107716 0.1587953 0.20324774 0.26261538 0.15233567 0.20632565 0.39602306 0.15429865 0.31396857 0.31426638 -0.26530197 -0.39562556 -0.3415595 0.15582758 0.23266388 -0.10515158 -0.029788803 0.24480668 0.28614512 0.2568131 0.31268573 0.2542885 0.22271235 0.24758333 0.39382637 -0.19430283 0.3454728 0.3208138 -0.31886974 0.14633162
281 -0.21496911 -0.27608204 0.36887035 0.090357594 0.23652714 0.27312246 0.3556538 0.22241317 0.290695 0.1029406 0.38608092 0.2596979 -0.14886245 -0.25859424 -0.29200834 0.16594581 0.120297804 -0.11752221 0.06379853 0.3065446 0.23585513 0.27153546 0.23075598 0.26388234 0.2315562 0.26404124 0.35555142 -0.17218493 0.29470095 0.28849253 -0.3538971 0.24259609
